#ifndef NEUROVERKONKERTOIMET_H
#define NEUROVERKONKERTOIMET_H

float weights_0[3][256] = {
    {-0.07880075, 0.15963724, 0.021829756, -0.2109353, 0.14575663, -0.0077215005, 0.10816823, -0.12049828, 0.22056301, -0.017210677, 0.15672278, 0.021673862, -0.024895048, -0.07826788, 0.03599731, 0.1397947, -0.15078843, 0.15898685, 0.20272756, -0.089098796, -0.06540635, -0.038200334, 0.22360294, 0.23160902, 0.11151044, -0.13414125, -0.20987412, 0.024153177, 0.036640882, 0.041675273, -0.030410886, 0.20275813, -0.20102696, -0.15347795, -0.15162271, 0.20681363, 0.15415356, -0.062342755, -0.1402329, 0.07298165, -0.08219069, -0.035024434, -0.1016895, 0.040883295, -0.056299455, 0.05235058, -0.029654348, -0.04807716, 0.0720718, 0.043175243, 0.12183139, -0.23456848, 0.190556, 0.065878905, -0.14055477, -0.13066186, -0.043521542, 0.2055254, -0.16667579, -0.12963237, -0.06331203, 0.22946505, 0.14791101, 0.07464795, 0.04762725, -0.10626382, -0.03618329, 0.14017126, 0.18150975, -0.060975846, 0.17287116, -0.10997578, -0.14476687, -0.12454144, 0.10896368, 0.19447193, 0.011004144, 0.19607796, -0.09847426, 0.07516402, -0.06308276, 0.1410536, -0.03396468, 0.22538887, -0.19645944, -0.0016348418, -0.13391426, 0.13477923, 0.1656487, -0.07624269, 0.16648424, -0.0721049, -0.1417396, 0.17703009, 0.21327238, -0.15184863, -0.10254039, -0.03776001, 0.048703846, -0.1753403, -0.017033465, -0.11151555, 0.14367348, -0.18927857, -0.20565741, -0.18444002, 0.16072161, 0.015548411, 0.17503925, 0.14182575, -0.037204407, -0.17121318, 0.21623456, -0.023098662, 0.17640117, 0.13076057, 0.16665772, -0.0056325053, -0.14722678, 0.14499696, -0.12153318, 0.19287081, 0.2284536, -0.23538238, 0.15746711, 0.004240322, -0.006223096, -0.20097125, 0.15255341, -0.25110957, -0.047370404, 0.098358646, 0.23008868, 0.20281397, 0.15125394, 0.11991877, -0.021450624, -0.091262296, -0.144899, 0.13848005, -0.099341385, -0.14998217, 0.17370602, 0.008393481, 0.16352493, -0.038005322, 0.15901594, 0.24122776, -0.109604366, -0.19438134, 0.2232343, 0.23102194, 0.08760302, -0.23763944, 0.08629828, -0.0383133, 0.15913364, -0.004991412, 0.12298845, 0.16131222, 0.17362039, 0.23070045, -0.13258204, 0.1242648, -0.14476603, 0.056071702, 0.011880987, 0.16414669, -0.23540638, 0.1751734, 0.114357375, -0.13152958, 0.036577426, -0.08980289, -0.02388063, 0.20455176, 0.17292432, -0.11384652, 0.019255012, 0.074567966, -0.093067124, 0.050153896, 0.11393053, 0.1510937, 0.056211554, -0.07899187, -0.10902357, 0.023836823, -0.1438913, -0.1904333, 0.069752924, 0.13335145, 0.17923042, 0.19298649, -0.11118087, -0.09638218, 0.18681163, -0.05427426, 0.18843451, 0.17323707, 0.12851082, 0.14278147, -0.02288431, 0.14316593, -0.150824, -0.05527772, 0.06900202, 0.15320264, 0.051210135, -0.07768493, 0.054873165, 0.118747294, -0.18816409, -0.07622424, 0.14637877, 0.026490975, 0.19259022, -0.1472055, 0.12620565, 0.016300855, -0.022529945, -0.046786927, -0.08194184, 0.112735845, -0.15076478, -0.12845057, 0.07829224, 0.15741347, 0.06655341, -0.11514011, -2.9534101e-05, 0.20469546, -0.11474866, -0.11534646, -0.094645485, -0.07688361, 0.17130497, -0.06891865, 0.018830467, -0.13260716, 0.22116676, -0.07379423, 0.19074756, 0.22313084, 0.10256834, -0.08212118, -0.061804775, 0.17393433, 0.014699291, -0.09357332, 0.037478194, 0.14445756, -0.20022352, -0.049094375, 0.0116452575, 0.028298525},
    {0.18526901, -0.06702148, 0.12861477, 0.18068807, 0.1635019, 0.09843986, -0.05776724, 0.13389495, -0.002620977, -0.036319114, -0.121358514, 0.070550166, 0.1762535, 0.039135233, -0.057083935, 0.15530327, -0.042438, 0.0553307, -0.13901958, -0.15676196, -0.10098569, -0.14320284, -0.08706207, 0.10076433, -0.19007286, 0.20905453, 0.19169699, 0.13355462, 0.18906413, 0.20731021, -0.06993545, -0.009652242, 0.12342174, -0.043274824, -0.050920382, -0.09438358, 0.24010321, 0.10140001, -0.14662297, 0.21097706, 0.0009868763, 0.17250064, -0.1521852, -0.03735875, -0.1313321, -0.046013903, -0.13995032, -0.04843267, 0.12174896, 0.21357103, 0.20442645, 0.19754453, 0.07569429, -0.11135813, 0.16129741, 0.2312592, 0.18514125, -0.10345606, -0.01837334, 0.079083815, 0.19845468, 0.19700621, -0.1916776, 0.13628545, 0.048448026, -0.0859665, -0.055437393, 0.043226924, 0.04782787, -0.106009245, -0.1683468, -0.07757441, 0.061008647, -0.13378434, 0.18428573, 0.0653564, 0.21210608, -0.08710206, -0.090954825, 0.22502515, -0.0072789392, -0.21652436, 0.17089628, -0.16894501, 0.1733451, -0.15767832, -0.052290678, 0.23213257, 0.10436931, 0.16549005, 0.21420659, -0.075940385, 0.0814106, -0.0013121685, 0.0102278665, 0.07130439, -0.01020664, -0.05609686, 0.12631182, 0.19890781, 0.14240472, 0.23403478, 0.15619156, 0.20823514, 0.08638012, 0.20041153, 0.21994242, -0.022632731, -0.05357185, -0.14587356, -0.017026156, 0.069733955, 0.21884085, -0.10486236, -0.030469827, 0.07434296, -0.15686168, 0.0045414716, -0.10361049, 0.17945683, 0.20811638, 0.15064009, -0.11510573, 0.10197194, 0.14870565, -0.12880795, 0.23447329, 0.06265754, 0.1512592, 0.07355758, -0.13613655, 0.10866177, 0.19670296, -0.14620513, -0.22059907, 0.1489882, -0.09008525, -0.096376725, -0.15044348, 0.12873994, 0.036773678, 0.050853215, 0.017018685, 0.09275621, -0.030372571, -0.01085937, -0.2208854, -0.07420612, -0.032865852, 0.10589198, -0.060973994, -0.072522685, -0.22258624, 0.0029557713, 0.13107666, -0.03075736, 0.06562075, -0.11716683, -0.24569143, 0.101340234, 0.17042653, 0.07491219, 0.23330411, 0.16971615, 0.12854654, 0.086262874, 0.07287997, -0.17650385, 0.054341815, -0.18650463, 0.0709874, 0.12778144, 0.15699133, 0.16980286, -0.019317746, 0.13951488, -0.20149827, -0.09371617, -0.033461347, -0.113005094, 0.022313088, -0.14883089, -0.23820865, 0.09684322, 0.19276965, -0.06793234, 0.032611758, 0.17500389, 0.23028874, -0.056863464, -0.21218963, -0.16563125, -0.04458178, 0.09758252, 0.110155426, -0.08244005, 0.10435218, 0.23895946, -0.12229617, 0.13794279, -0.19627231, 0.09432882, 0.078418754, 0.056485012, -0.029381782, -0.015619189, 0.13417612, 0.14654626, -0.10370582, 0.10441119, -0.1433936, 0.11241254, 0.23009309, -0.06485107, -0.24795827, 0.16802996, -0.1856805, 0.1071435, 0.11803802, 0.19546117, -0.13321498, -0.1417298, -0.04261578, -0.12312891, 0.048770256, -0.11886376, 0.16648678, -0.1449333, -0.06092589, 0.01798481, -0.11695705, 0.15679425, -0.047173, 0.110339336, -0.10678154, 0.1524246, 0.044766877, -0.064710125, -0.082442485, -0.061268266, 0.07387638, 0.044227734, 0.15109782, 0.08830695, 0.18169533, -0.025119737, -0.07214862, -0.08809003, 0.13243255, -0.08281423, -0.07106677, -0.11994869, 0.06137563, 0.18434599, -0.017737433, 0.23325148},
    {-0.023815263, -0.109070815, 0.1920489, 0.21604359, -0.24823132, 0.16486157, 0.11000264, 0.14676712, 0.007709122, -0.11346369, 0.013362764, 0.1542201, -0.076359674, -0.11412388, -0.02805126, -0.034870505, -0.11791303, 0.1596958, 0.18632068, 0.20726764, -0.026565015, -0.1297942, -0.06408958, -0.12508993, 0.17017171, -0.075139716, -0.019461937, -0.14357725, -0.0378242, -0.05542321, 0.028465256, -0.16777264, 0.056285635, 0.03193654, 0.19316608, -0.08418255, -0.1346537, 0.07698263, 0.09032972, -0.13834189, 0.1721645, -0.19792703, 0.06311086, -0.13524294, 0.015224397, -0.15174524, 0.046506032, 0.00760071, -0.20261802, -0.14639013, -0.13264099, 0.106779076, 0.18332258, -0.116822004, 0.16986176, 0.072138675, -0.04829804, 0.18291214, 0.22589904, -0.115946375, -0.14616956, -0.011453964, 0.23893705, 0.11098306, -0.19561696, -0.08660989, 0.013521969, -0.13708572, 0.17043197, 0.13789098, 0.16388117, 0.040036663, -0.071402654, 0.028386295, 0.20354547, -0.17685598, 0.13758521, 0.16368234, -0.06918675, 0.025443863, 0.18936227, 0.03304048, 0.008152382, 0.02703601, 0.1845722, 0.11778256, 0.22398387, -0.09236589, 0.12757428, 0.10510612, 0.023290485, 0.024519235, 0.1401328, -0.15453212, 0.15252571, 0.23099771, -0.13552001, -0.12507723, 0.18644233, 0.13062808, -0.20994192, -0.10164904, -0.09262431, 0.11051686, 0.026895793, 0.1617103, -0.14565663, -0.02879199, -0.07351723, 0.13787466, -0.000110536814, 0.12376093, -0.16049196, -0.13663402, 0.23832577, 0.15049785, 0.1469837, -0.07803284, 0.064280406, 0.18394619, 0.17648147, -0.05273281, 0.2066076, 0.19188966, 0.16979219, 0.19779469, 0.120267555, 0.08086001, 0.1699058, 0.023405854, 0.057747856, -0.18456762, -0.12264324, -0.058327027, -0.083552994, 0.1568953, -0.0050965697, -0.042807743, -0.07277362, -0.056289695, -0.046708565, 0.053258464, 0.022020467, 0.22359332, -0.029097436, -0.14492962, 0.2027521, 0.21316756, -0.046568185, 0.07509048, 0.20303786, 0.10663309, 0.14074491, 0.17820062, -0.16338432, -0.04047858, -0.15610446, -0.050949447, -0.043889165, -0.17478982, -0.13908723, -0.09354356, 0.19730733, 0.16249633, 0.18161593, 0.16078725, -0.12958437, -0.09397963, 0.040412582, 0.21061513, -0.17779435, 0.1336818, -0.16389038, 0.06167084, -0.0011931509, 0.20037937, 0.15695553, 0.19608665, -0.14329389, -0.13242292, -0.09174159, -0.118595645, 0.026838982, -0.19198008, 0.11416525, 0.04310374, -0.08372596, -0.15315844, 0.052856863, 0.20315456, -0.020712519, 0.23466396, 0.06268517, 0.04722193, 0.13326508, 0.13713022, 0.053266935, 0.11253181, 0.24125119, -0.07476459, 0.07111907, 0.042841367, 0.23548561, -0.13674779, -0.10503913, -0.06382371, -0.22963032, -0.22344418, -0.119914874, 0.12150474, 0.06295187, 0.118884265, 0.15224367, -0.10421778, 0.023571227, -0.09439969, 0.032499366, 0.15828371, 0.18343909, -0.08892465, -0.138084, 0.009487674, -0.021090105, 0.20307742, 0.14721765, 0.09131231, -0.16682245, 0.094935246, -0.14373302, -0.029490912, -0.078928, -0.12990287, -0.12750413, 0.19007725, -0.120027654, 0.17163734, 0.15958872, -0.0058020204, 0.22684214, 0.048041604, 0.02878415, -0.124815375, -0.17436655, -0.16161202, -0.033456612, -0.008219466, 0.047119115, -0.14239131, -0.2132528, 0.20629095, -0.1113736, 0.05413884, 0.21372043, -0.08258003, -0.07949932, -0.13091223},
};

float biases_1[256] = {0.0406957, 0.08662589, 0.09330601, 0.033903413, 0.05052018, -0.04809043, -0.01647118, -0.0033678177, -0.0020837775, 0.0, 0.073648185, -0.05711933, 0.032322742, 0.0, -0.014794113, -0.056050744, 0.0, 0.08372012, 0.06436733, 0.0729382, 0.0, 0.0, 0.07561356, 0.015253822, 0.07326975, 0.07819923, 0.07181301, 0.056933276, -0.0061547267, -0.009020096, 0.0, 0.06838227, 0.08159991, -0.012568935, 0.086664274, 0.09025724, -0.029916145, 0.06953903, 0.0, 0.0061325436, 0.03796753, 0.084621854, 0.0, -0.008019987, 0.0, -0.0082115065, -0.008396496, 0.0, 0.097661704, 0.07370016, -9.041962e-05, 0.081026286, -0.026441049, -0.009328018, 0.015261829, 0.036201764, 0.03115291, 0.08811859, 0.08582888, -0.005094657, 0.065226585, 0.07744209, 0.055994503, -0.06374995, 0.06520251, 0.0, 0.0, 0.050530534, -0.07633988, 0.09142602, 0.03647273, 0.0, 0.0, 0.0, 0.050369963, -0.015166964, 0.056428026, -0.03942352, 0.0, -0.050504114, 0.06311593, 0.09706634, 0.009152153, 0.07938197, 0.047029912, 0.10121445, 0.08438996, -0.04427837, 0.08651273, 0.0013537451, -0.01809225, 0.0, 0.036720544, 0.05769259, -0.083276674, 0.023690771, 0.0, 0.0, -0.08135788, 0.06924961, 0.075253524, 0.080175646, -0.032030694, 0.040300727, 0.09378333, 0.05388529, -0.010132162, -0.0059574777, 0.06443477, 0.026831955, 0.0, 0.07826436, -0.022976322, 0.0, -0.06868891, -0.05004644, 0.07813758, -0.016188579, 0.0, -0.061401337, 0.075339176, -0.049851254, 0.013306285, 0.08708111, -0.06877464, 0.0807775, -0.038831104, 0.09015514, -0.08903044, 0.08658161, 0.0, 0.07744258, -0.040898588, 0.08052272, 0.09393513, 0.03894174, 0.0, 0.0, 0.0, -0.03708696, -0.008314819, 0.09017624, -0.016397368, 0.0014552211, 0.05557513, 0.0, 0.065084785, 0.06253208, 0.0, 0.100610785, 0.073857754, 0.049423996, 0.07539054, 0.061937366, 0.024052028, 0.0, 0.051230054, 0.0, 0.07013369, 0.057756804, 0.015480778, 0.0077058207, -0.0020634513, -0.034640413, 0.010930254, -0.07624995, 0.0713271, 0.098853044, 0.08034785, 0.040434994, 0.09019705, 0.043254133, 0.05229353, 0.06623553, 0.0, 0.055365704, 0.05779069, 0.06844872, 0.0, -0.008218233, 0.0, 0.0, 0.08100432, 0.034534056, -0.06679972, 0.0, 0.0, 0.07858363, 0.014366846, 0.087614916, 0.08985189, 0.051185235, -0.009904822, -0.073076084, 0.012555436, 0.07499757, -0.055730022, 0.04975344, -0.015298872, -0.032508425, 0.081176236, 0.08788322, -0.045563295, 0.04384033, 0.0, 0.0, 0.0657082, 0.05941617, 0.0, 0.06947795, 0.09164858, -0.09494068, 0.040636323, 0.0, 0.105430685, 0.022672448, 0.057829052, 0.025536392, -0.08935172, 0.0159555, 0.0, 0.0, 0.0, 0.02709877, 0.08474243, -0.0059946524, 0.06570048, 0.041791704, -0.0059863725, -0.0076009585, 0.0, -0.01318761, 0.0, -0.0049206135, 0.0, -0.018801255, -0.008327779, 0.0, 0.043287497, -0.010713756, -0.053562235, -0.0059868265, 0.026064511, 0.040973708, -0.043380767, 0.0, -0.006574675, 0.09094543, 0.037782114, 0.09190979, 0.0, 0.068590276, 0.06215107, 0.044833634, 0.0, 0.034531005};

float weights_2[256][128] = {
    {-0.14164641, 0.051335588, 0.1179325, -0.024387807, 0.028884072, 0.15691556, 0.14101236, 0.11721334, 0.010573655, 0.09086887, -0.0016656548, -0.046760343, -0.044687264, 0.088740215, 0.0010332384, 0.0775462, -0.13843457, 0.082547046, -0.0015501303, -0.12293696, 0.13759725, -0.12630664, 0.15483291, 0.0048664818, -0.15574995, 0.1610489, 0.079071015, 0.049965996, 0.0030068278, 0.041904736, 0.053896092, -0.018056467, 0.11730577, -0.16019768, 0.028509524, -0.08702156, 0.057603218, -0.020341223, -0.17789748, 0.03272469, 0.11013617, 0.101399615, 0.100522764, 0.12927425, -0.0058474625, -0.05995272, 0.10343677, -0.09811681, 0.14611052, 0.105239585, -0.033813633, 0.05880961, 0.0026569564, 0.035142496, 0.038089424, 0.13823614, 0.0864113, -0.1782425, 0.052066315, 0.10921741, 0.07141119, -0.12464722, 0.019712474, 0.023761284, -0.08406838, 0.13240094, -0.12650889, -0.018816661, 0.019513503, 0.054166738, -0.14446098, 0.026297433, -0.015355927, 0.06375165, -0.08430205, 0.10236836, 0.08450516, 0.048375253, 0.016098788, -0.10382849, -0.016758254, 0.122686364, 0.083178714, -0.17094898, -0.10766235, 0.074266836, 0.013705755, -0.06567962, 0.0031658576, 0.046418685, -0.0015154366, -0.16616906, -0.12254307, 0.00228449, -0.111706026, 0.15208718, 0.1229783, 0.04071595, -0.015664753, 0.08653849, -0.1732673, 0.06359987, 0.17062435, 0.044812102, -0.0004895779, -0.16971211, -0.084459, 0.18182991, -0.008466483, 0.10673027, 0.17707393, -0.017756691, 0.00082020153, 0.039657883, 0.06622151, -0.113881215, 0.021733526, -0.026867982, 0.08471209, 0.030973924, -0.040586885, 0.06472004, 0.05767347, -0.10621947, -0.035765164, 0.06914085, 0.06792415, 0.06441983},
    {0.047904745, 0.02211072, -0.09377637, -0.10239922, 0.033506565, 0.14373988, -0.11643693, -0.09689443, -0.05985542, 0.0047054584, 0.16029549, 0.16186012, -0.014913354, 0.036805417, 0.1471634, 0.18332998, 0.15167995, -0.15519036, 0.019953508, 0.13449925, 0.00797762, 0.053422812, -0.09171053, -0.12155422, 0.15798014, 0.1728281, 0.03005011, 0.07491806, 0.0054282984, -0.060819376, -0.13312168, 0.044158258, -0.11305842, 0.09637983, 0.12408025, -0.05280195, -0.06795845, -0.0010589019, -0.04426068, 0.13531408, -0.011573711, 0.14930381, 0.012173946, -0.1061557, 0.013001442, 0.11140737, -0.08121324, 0.031557567, -0.14859001, -0.15173784, 0.045072965, 0.044541012, 0.1873394, -0.034501243, -0.13025121, -0.06785117, -0.02623148, 0.093130276, -0.019755444, -0.013636383, -0.11344221, -0.064178996, 0.027116748, 0.055734634, 0.03067621, -0.19212365, 0.10962593, -0.042096913, -0.097678006, 0.18241218, 0.109556764, -0.08929555, 0.02358024, -0.032416053, 0.12963897, -0.050025627, 0.21987729, -0.12012734, 0.04499829, 0.08619839, 0.06742168, 0.21329327, 0.028617762, 0.15687516, -0.08651245, -0.11773228, -0.013123517, -0.02190074, 0.116002135, -0.04129982, 0.1798641, 0.15509059, -0.026130684, 0.20975123, -0.039396927, -0.110156395, 0.18013497, 0.19253424, -0.15755679, 0.04889701, -0.122801594, -0.08767269, 0.0049741627, 0.01816775, -0.0026420439, -0.034497466, -0.05287442, 0.11503726, -0.18436752, 0.14243807, -0.016859876, 0.053480294, 0.19462879, 0.05854109, 0.10359929, 0.09172806, 0.054922488, -0.04130563, -0.050094187, -0.008446574, -0.08130224, 0.012403259, 0.07000213, -0.022374202, -0.1022414, -0.062224507, -0.12148409, -0.07752593},
    {0.03835274, -0.03734403, -0.07709754, -0.02671692, -0.026746178, -0.063540734, 0.15814656, 0.036041357, -0.031933088, -0.03195903, 0.04899149, -0.050972626, -0.086712316, 0.050427306, -0.04290667, 0.0928696, -0.042078365, 0.12827891, 0.1357807, -0.06198351, 0.16703495, -0.100150414, -0.03233559, 0.016482914, 0.0788002, 0.074263625, 0.091115855, 0.052992325, 0.08140985, -0.04237538, 0.0054622646, 0.04574355, 0.019509066, 0.15297087, 0.03810405, -0.067683406, 0.17440268, 0.022244118, 0.071842216, 0.07128636, -0.043059234, -0.05077794, 0.07128392, -0.034063652, 0.09941779, -0.10845707, 0.0330743, -0.048271574, 0.10983452, 0.074129164, 0.07093482, 0.059612, -0.02377975, 0.050735947, 0.029509537, 0.06852948, 0.04561913, 0.010432046, 0.061930608, 0.12523623, 0.0033945665, 0.056725413, 0.08313037, -0.11898698, 0.09748288, 0.17249388, 0.1479403, -0.03486203, 0.17186485, 0.10366719, 0.1429829, 0.019581422, -0.013082353, 0.12494817, 0.16434005, -0.017657947, -0.014856355, 0.0325139, 0.1576065, -0.07900962, 0.03832561, -0.015847418, 0.11941869, 0.038410995, -0.005256193, 0.13092244, 0.060420524, -0.055208825, -0.0034686227, 0.15868577, 0.09660296, 0.18036516, -0.053846568, 0.05961651, 0.12756692, 0.07846838, 0.046460547, -0.04285724, 0.17775892, -0.08424451, 0.09326767, -0.026112592, -0.08966271, -0.047548573, 0.021348279, 0.1330856, -0.008604273, 0.15003602, 0.1788125, 0.109415285, 0.13237305, -0.07329997, 0.05540594, 0.021903478, -0.06101721, -0.034091204, -0.011690575, 0.059300814, 0.11065887, 0.06190788, -0.002662611, 0.08089121, -0.02792933, 0.06411518, 0.13945095, 0.11914141, -0.0029051518, 0.1427857},
    {-0.090362936, -0.007083638, -0.09569815, 0.15287176, -0.09876992, 0.0927722, 0.043746177, 0.17680213, -0.009073088, 0.03241712, -0.12287077, -0.13989252, -0.16047835, -0.036788054, 0.11087142, -0.12413974, -0.04201256, 0.14719191, 0.016955134, -0.011876756, 0.0038466195, -0.18191995, -0.054775022, 0.17363904, -0.095206104, -0.04612218, 0.00509943, 0.07450179, -0.0058261533, 0.1277134, 0.08433378, 0.11749133, -0.048344683, -0.08473296, -0.044128884, 0.01881094, 0.017138692, -0.017388966, -0.019199785, 0.08199033, 0.09533998, -0.046688683, 0.08016318, -0.013753231, 0.07195741, -0.028008487, 0.11206598, 0.016789835, 0.15854362, 0.03381172, -0.07154642, -0.11309444, -0.15561923, 0.13437924, 0.029572312, 0.17756896, 0.119976394, -0.013004854, 0.041706666, -0.019512739, 0.08143197, 0.01507867, 0.02683261, 0.029705517, 0.03694565, 0.13531649, 0.088549346, 0.06820298, 0.16630669, -0.07943138, -0.13939202, 0.11331158, 0.07988513, -0.16056272, -0.05275805, 0.13590613, -0.016970498, 0.051582042, 0.16823566, -0.16851297, -0.00997058, -0.10479813, 0.04608355, -0.080457054, 0.009881935, 0.04998379, -0.06527702, -0.07360777, 0.016903065, 0.1858061, -0.10252532, -0.051627405, 0.055849444, -0.10099469, 0.15286021, 0.016640602, -0.0825151, 0.08596654, 0.082660034, -0.12790672, -0.065859154, -0.009953476, 0.020537978, 1.3484223e-06, -0.024537664, 0.077531934, -0.070139945, -0.079037875, 0.019209724, 0.11546916, 0.1008059, 0.10207004, -0.18209682, -0.05376301, -0.07876249, 0.072283015, -0.0059132315, -0.06748644, 0.117550254, 0.04664225, 0.122455895, 0.06631304, 0.02670804, -0.02122891, 0.12047917, 0.114113025, 0.149558, 0.09783553},
    {0.00624124, 0.16253108, 0.116408736, -0.02939686, 0.07284086, -0.023758795, -0.1802981, 0.09484183, 0.08631467, -0.018046694, -0.03877123, -0.018660223, 0.18863627, 0.17488936, 0.018511672, 0.14216256, 0.03358815, -0.21726531, -0.096862234, 0.15012337, 0.02673795, 0.13238709, 0.20854, -0.01656853, -0.043160006, 0.14731553, 0.10497418, -0.17796212, 0.0029565638, 0.06630933, 0.0700484, -0.16832675, 0.086071335, -0.010660934, -0.010486073, -0.011338618, 0.101581536, -0.044405386, 0.014837391, 0.13075134, -0.12833539, -0.008552628, -0.04234311, 0.014927937, -0.07648627, 0.003294589, 0.019095426, -0.091355465, -0.073827654, -0.012210778, -0.14083624, 0.0709702, -0.115702845, -0.025512164, 0.1954383, -0.16411234, -0.06359301, 0.1793826, 0.02711638, -0.0060328534, 0.1801366, -0.036686365, -0.048337452, -0.070545375, -0.08933857, -0.17946577, -0.088979654, -0.025526334, 0.10339033, -0.048925992, 0.04988601, -0.15759595, 0.0006228875, 0.19896303, -0.03239623, -0.17419031, 0.17959347, -0.060805034, 0.052235432, -0.034844033, -0.05692731, 0.13427801, -0.17836462, 0.15988927, -0.073306374, 0.020045955, -0.061272994, 0.10736783, -0.12520437, 0.12584198, -0.001173638, 0.009185605, -0.16060978, 0.027716087, -0.10315363, -0.09285565, -0.03819836, -0.09737103, -0.13358547, -0.050784457, -0.15309341, -0.01110655, 0.08611589, 0.10282374, 0.016085865, 0.035581417, 0.08010643, 0.12530486, -0.10668151, 0.09442871, 0.023384744, -0.099056534, 0.18490061, 0.15075563, 0.08966956, 0.10315385, -0.1020368, 0.13821271, 0.10934492, 0.025629112, -0.15927681, -0.002281877, 0.08218504, -0.10749803, -0.0041751377, 0.03736446, -0.14718886, -0.15375458},
    {-0.03025297, -0.1319628, -0.010876796, 0.12966661, 0.054112144, -0.07024572, 0.029192975, 0.007126411, -0.08791759, 0.06297272, 0.01650494, -0.015567717, -0.026114162, -0.020737976, -0.031127414, 0.043920018, 0.1425343, 0.10082796, 0.03656994, -0.08913018, -0.039201483, -0.14222972, 0.0912513, 0.042131387, -0.12272368, 0.04837756, -0.061719533, 0.0048305597, 0.016727773, -0.026219143, -0.11270732, 0.010656856, 0.046512257, -0.02090761, -0.08865165, -0.036067903, 0.11784598, 0.05541607, -0.009080802, -0.123755805, 0.010197078, -0.13603994, -0.113140605, 0.040697444, 0.020558845, -0.04151048, 0.18976228, -0.07067761, 0.1304623, 0.10655912, 0.07785209, -0.10199972, -0.024066614, 0.05526766, 0.08830803, -0.015953291, 0.07769097, -0.15165803, 0.084674865, -0.011261005, 0.0045020776, -0.03883734, 0.20618126, -0.102764726, 0.0010967704, 0.08893486, -0.10384752, -0.047951, 0.1673367, -0.120297, 0.056149386, 0.076459795, 0.07670044, 0.016266342, 0.017207906, 0.07136824, -0.059521195, 0.13172936, -0.07204928, -0.006855504, -0.12233566, -0.009369722, 0.10081466, -0.056384996, 0.030192247, 0.14964567, 0.10351203, 0.031122632, 0.1564501, 0.048498638, -0.17403403, -0.16594519, 0.05570898, -0.15557514, 0.0324751, 0.13700157, 0.04250207, 0.052383114, 0.09946335, -0.012038675, 0.10039513, 0.092623025, 0.020350872, -0.051566646, -0.12190269, 0.08949167, 0.16175437, -0.068211734, 0.03735187, 0.12039626, -0.14146486, 0.07536147, -0.0937166, 0.18977052, 0.10599093, -0.050614767, 0.093802415, -0.07620048, -0.046967726, 0.10260128, 0.021508629, 0.059036348, -0.07222241, 0.02918479, 0.07335202, 0.14939836, 0.17105633, -0.05287216},
    {-0.01420914, 0.07653313, -0.028274242, -0.002377633, -0.0985314, 0.045948382, -0.08551794, 0.010944961, 0.009584724, 0.07461401, 0.07408676, -0.059648827, 0.19036275, -0.0478224, -0.21804312, 0.11896234, 0.017214624, -0.035853945, 0.2177027, 0.18547906, 0.20480715, -0.049045857, 0.11287673, 0.010006301, -0.106764786, 0.06713133, 0.015009434, 0.078589074, -0.039510105, -0.010116676, 0.025441693, -0.06298135, 0.03339453, 0.20351507, 0.17778185, 0.08668646, 0.026113499, 0.044059522, 0.0018760122, -0.045636676, 0.15953378, 0.10130465, 0.05410164, 0.023941118, 0.0010472424, -0.032629833, 0.09945601, 0.1791346, -0.19870386, 0.075541966, 0.06532673, -0.0413584, 0.11414945, 0.15101328, -0.16313712, 0.21270393, -0.0067957267, 0.16426031, -0.10250303, -0.005917242, 0.018442696, -0.047265235, 0.030500831, -0.0070346594, -0.02951703, -0.033640895, 0.17008252, -0.04136111, -0.079357654, -0.067091465, 0.22464266, -0.052649666, -0.08098097, -0.014925203, 0.06319441, -0.039092347, -0.0892129, -0.03552348, -0.108428046, 0.14561673, 0.04818284, -0.08856778, 0.13340643, 0.108523875, 0.19800664, 0.045511466, 0.07173602, 0.028360147, 0.18794139, -0.14547738, -0.18948595, -0.030117586, 0.1220752, 0.050417915, -0.016121348, 0.07988161, -0.07289626, 0.09943296, 0.060799472, -0.13991551, 0.124570094, -0.12057077, -0.048135985, 0.08025546, -0.0076408125, 0.03850298, 0.03196611, -0.116334595, 0.038816463, -0.08425807, -0.017481683, -0.112192586, -0.027835907, 0.10978379, -0.05388381, 0.14335106, -0.012931968, -0.08263867, -0.0013602008, -0.15316504, -0.1199802, -0.1281545, 0.0016071941, 0.07260779, -0.047908828, -0.09731997, 0.07160354, 0.0068058106},
    {-0.13259481, -0.17128451, 0.075889066, 0.1419513, 0.04731228, 0.1432843, -0.010463414, 0.050978716, -0.04730941, 0.07757124, -0.0821615, 0.03132828, -0.08552848, -0.049727563, 0.16250975, -0.0057499274, 0.06301815, 0.025086127, 0.004684275, -0.022062398, 0.03171986, -0.024407038, 0.026204625, 0.007584404, -0.06811781, -0.16138622, -0.02005022, 0.14654543, 0.042095203, 0.035165455, -0.017809317, 0.093528084, 0.09737233, 0.030599872, -0.18759735, -0.03087382, -0.057606123, -0.106106624, -0.13104308, -0.12982924, -0.04445236, -0.07826124, 0.020603133, 0.0860072, 0.102682516, -0.047322534, -0.008152725, 0.006133951, 0.13817304, -0.04467751, 0.032503992, 0.058322776, -0.17120917, 0.038637538, 0.098189056, 0.109333985, 0.18389152, -0.06638873, 0.07504013, -0.03985627, 0.14606225, -0.046907187, -0.0035489413, -0.082055554, 0.10889097, 0.032963507, -0.07137195, -0.09662852, -0.061097078, 0.05153317, 0.018876104, 0.041093327, -0.111540094, -0.0056825522, 0.047881503, 0.19312972, 0.053326264, 0.02840131, 0.020443324, -0.004708549, -0.062075775, -0.1387093, 0.13114934, 0.029873706, 0.020596921, 0.11448225, -0.035041656, -0.19972621, 0.1467638, 0.005087584, -0.12104925, -0.07694706, -0.01313326, -0.081673376, -0.08736515, 0.10026474, 0.029828686, -0.07885484, -0.021048738, 0.047333546, 0.061874084, -0.012897107, 0.0032497342, 0.016347554, 0.076033615, -0.11346055, 0.053141672, -0.027499598, 0.21668042, -0.05084181, 0.059883982, 0.12854017, -0.19199857, -0.028120358, -0.08994694, -0.06528567, -0.095184065, 0.06195235, 0.13756885, -0.006154591, -0.030244298, -0.07790081, -0.0194429, -0.08409402, -0.036904745, -0.04505846, 0.014626837, 0.06542635},
    {0.11533444, -0.015121142, 0.09269429, 0.11066451, 0.04978553, -0.033592734, -0.16826732, 0.019845143, -0.08166152, 0.06800714, 0.192892, -0.05510313, 0.10033739, 0.03363843, 0.07719002, 0.004624815, 0.17263658, -0.09042553, 0.16086788, -0.058161184, -0.063641466, -0.029153286, 0.17549841, -0.008683376, 0.14147682, 0.13790417, 0.081063166, 0.023195816, 0.15993422, 0.12355874, -0.13629442, -0.02309857, -0.15240742, 0.051674556, 0.19272916, 0.070735775, 0.08651757, -0.0826736, 0.09555384, 0.055033732, -0.054695822, 0.055067476, -0.084038146, 0.06306732, -0.027863886, 0.011209991, 0.10733989, 0.036767926, -0.083512545, 0.061563935, 0.041627716, 0.011430917, 0.15773451, 0.107061766, 0.063765265, 0.13895474, -0.0698818, 0.08667259, -0.064228594, -0.07219324, 0.07208743, 0.04877902, 0.1437544, 0.0944332, -0.10081022, -0.19961005, 0.13758613, -0.10027969, 0.043274496, 0.06950719, 0.00036262994, -0.18246819, -0.12369107, 0.005168518, 0.16458426, -0.03585464, 0.1553981, -0.008737357, -0.08662422, 0.13886401, 0.16164617, 0.026787361, -0.15489244, 0.09618815, -0.0185122, -0.029357446, 0.000119527554, 0.103144705, 0.18648553, -0.10347882, 0.07193826, -0.04240146, 0.07155114, 0.084910855, -0.12559123, 0.07527162, 0.018673407, -0.039335128, 0.014911431, 0.058106717, 0.093303375, -0.07789712, 0.026337415, -0.07632688, 0.18414171, 0.143639, -0.0029339287, 0.04098509, 0.0384367, -0.16124351, 0.020885017, -0.07715973, 0.111676216, 0.10509485, 0.1005128, -0.031531736, -0.093630984, -0.068995796, -0.05643764, -0.009060529, 0.04869073, -0.032866176, -0.0918683, 0.060043156, -0.1394992, -0.025450857, 0.057180785, -0.18033351},
    {0.08103299, -0.09183437, 0.037843317, 0.0686017, 0.11712256, -0.0026884675, 0.075495005, -0.046589702, -0.07685813, 0.042431593, 0.100248426, 0.091398716, -0.036500067, -0.032002836, -0.01467976, 0.0700154, -0.040667623, -0.009621739, -0.046331793, 0.022429883, 0.040699214, 0.09339303, 0.047469467, -0.114326954, -0.04792142, 0.06104818, -0.057148933, 0.054076016, 0.09108096, -0.0058383644, 0.053016633, -0.10474509, -0.06234637, -0.047997594, 0.094224155, 0.0459902, 0.053904563, -0.06992707, -0.06924477, 0.07276064, 0.06998408, 0.034961313, 0.002907604, 0.028001487, -0.028931499, 0.118857324, -0.1014778, -0.11183426, -0.0075014234, 0.05227396, -0.07051948, 0.07107067, -0.09690991, -0.123812616, 0.07157695, -0.096782476, -0.08564353, -0.056517363, -0.059894055, 0.07755956, -0.086900234, -0.083043694, -0.058445007, -0.0959453, 0.03415507, -0.00019428134, 0.097601205, -0.017567962, -0.062402725, -0.11399287, 0.06798133, -0.0026361644, 0.11078817, -0.04813516, 0.053116202, 0.102475524, -0.07920769, -0.08634609, -0.015946686, 0.092007965, 0.046050817, 0.12048864, -0.022684276, 0.015008181, -0.12274182, -0.1105704, 0.1185354, 0.0027252734, 0.01954335, 0.003931731, 0.114218205, 0.113283485, -0.07919422, -0.0034362078, -0.002787143, -0.0013880432, 0.051050186, 0.009420931, 0.120336175, -0.117243856, 0.08193761, 0.0857642, -0.07012284, 0.039845377, -0.013826877, 0.104702145, -0.09073722, 0.08294833, 0.10226464, -0.08915225, 0.10600582, -0.035577, 0.027714342, -0.009890765, -0.011160523, 0.08767587, 0.029117554, 0.12201694, -0.09563756, 0.063672304, -0.039158255, 0.10922906, 0.10172266, 0.022420853, -0.04818362, 0.08062264, -0.12446913, 0.037647873},
    {0.03097447, 0.11378936, 0.11488266, 0.038439784, 0.02158649, -0.07191246, -0.16806954, -0.10826962, -0.021526175, 0.0004172069, 0.07221581, 0.1032439, 0.04547153, -0.077097796, 0.03776132, 0.17885488, 0.19786857, -0.004759794, 0.20475388, 0.0062439283, 0.037117016, 0.02912984, -0.11855273, 0.110105455, 0.17696239, 0.11835466, 0.005754575, 0.082464635, 0.07840509, -0.10495498, 0.056476776, 0.17496496, -0.18207066, 0.10547691, 0.083664455, 0.11177427, -0.12279015, 0.084704466, 0.20348434, -0.026162885, -0.021195104, 0.0053221365, -0.09763722, -0.082245775, -0.06363487, 0.16637433, -0.101661526, 0.13710815, -0.051084436, -0.046279684, 0.02155601, 0.0901382, 0.017332908, 0.10258266, -0.046144977, -0.029582346, -0.16059081, 0.19631355, 0.04369513, -0.057348397, 0.02253793, -0.017420132, -0.052042324, 0.02147919, 0.193512, -0.07403144, 0.055203386, -0.1130795, 0.003508306, 0.1493551, 0.1429878, 0.02351979, 0.020377107, 0.06778632, -0.020012347, -0.1786623, 0.10216815, -0.11060978, 0.04124171, 0.031084571, 0.21299456, -0.00021376017, 0.0076604756, 0.18862365, 0.09392295, -0.023777066, -0.043881565, 0.059641972, 0.070567414, -0.087587625, 0.19868694, -0.0051312475, -0.05198915, -0.013488664, 0.13088392, -0.10946545, -0.04860795, 0.09896673, 0.13360105, 0.07170171, 0.14753987, -0.0029169612, -0.11660251, 0.062355515, 0.042183176, -0.011428634, -0.029472902, 0.16243073, -0.06452148, -0.20170611, -0.08960445, 0.16738048, 0.1877767, -0.12652077, -0.13054943, -0.062864326, -0.12013912, -0.14524668, 0.027988931, 0.028964203, -0.035929404, 0.047217395, 0.03719039, -0.04547606, -0.13604201, -0.02562902, -0.044481818, 0.027784491},
    {0.115939215, -0.17232227, 0.009431108, 0.0022955337, -0.03884901, -0.0614223, -0.022412116, 0.050293382, 0.0305372, 0.17028582, -0.10464666, -0.06570165, 0.018472357, 0.1852707, -0.049950086, -0.03733516, 0.07937417, 0.11665976, 0.03212794, -0.031135228, 0.09338373, -0.16818273, 0.07943444, 0.12146345, -0.06462136, -0.035620946, 0.031677503, 0.10732309, 0.017409984, 0.06909325, -0.074971475, -0.13087952, 0.03422517, 0.13628885, -0.043726828, 0.08283936, 0.021124814, -0.09964458, -0.059405513, -0.060274974, 0.18491271, -0.1665397, 0.08143245, 0.07962228, 0.08226971, -0.0809133, 0.10764334, -0.07448546, -0.0077915746, 0.1598464, 0.020488493, -0.13246252, 0.17276384, 0.11135859, 0.14707705, -0.024739295, -0.03286846, -0.17299129, 0.047356315, 0.096352495, 0.012986455, -0.032271553, 0.15418908, 0.0025723574, -0.10481298, 0.08257389, -0.03002479, 0.04574271, 0.04069238, -0.097803414, 0.0059845503, 0.11556341, 0.0976777, -0.13892311, 0.017516477, 0.009279331, -0.18070082, 0.16094367, -0.012604977, 0.07917071, -0.007039223, -0.04531869, -0.06579343, 0.18069114, 0.039225206, 0.00069230364, 0.059180506, -0.0038938415, 0.14014168, 0.07103971, -0.015798481, -0.008911775, -0.12794419, -0.12539874, -0.082667835, 0.1190136, -0.19428891, -0.033245035, 0.17003591, -0.027887203, 0.14874704, 0.04612803, -0.15937977, 0.03349686, -0.025070759, -0.0026603003, -0.0074577113, 0.10604088, 0.19940853, -0.07825355, -0.13604157, -0.024853688, 0.01594772, 0.09866312, 0.13736472, -0.04277525, 0.06971939, 0.05183131, -0.02888534, -0.05214375, -0.023803145, -0.125202, -0.041991938, -0.07488593, 0.0034094516, 0.10878844, 0.12964691, 0.14351852},
    {0.035507366, 0.033166274, -0.012180528, -0.05772467, -0.0460893, 0.009237716, 0.17305364, 0.07539669, -0.06312525, 0.18205169, -0.028874377, 0.044268172, 0.088746436, 0.2222169, 0.04064988, 0.19489391, -0.12527621, 0.10087842, -0.12470078, -0.01759982, -0.018340386, -0.04243882, 0.11876646, -0.04628969, -0.04785685, 0.14440398, 0.18253893, -0.118876636, 0.0035148999, 0.07264044, 0.0018343133, -0.09265736, 0.18864524, -0.09699532, -0.1813496, -0.09712425, 0.012652518, -0.037987396, 0.04937203, -0.034636077, -0.018602835, 0.1928659, -0.04426018, 0.107585974, -0.1248797, 0.11216612, 0.09224035, -0.05981338, 0.10015726, 0.06957885, 0.04794942, 0.17091402, -0.15305609, 0.021258408, 0.06125558, -0.09640552, 0.04507544, -0.09504476, 0.008034884, 0.06932269, 0.008057306, 0.11651837, -0.079942204, 0.044709165, -0.16746499, -0.0005264118, 0.0014703178, -0.048424315, -0.02457985, -0.10225498, -0.00010729367, 0.16489008, -0.000208758, 0.18798389, -0.09097917, -0.008740941, 0.03200262, -0.16615602, 0.16790487, 0.15238376, -0.17772311, -0.011638012, -0.01626075, -0.20368893, -0.16707957, 0.13504046, 0.011040793, 0.14835653, 0.061729718, 0.19795313, 0.040104154, -0.15149257, -0.13845868, -0.031065216, -0.097725295, 0.12208165, -0.011211648, -0.13846791, 0.04439768, 0.13976008, -0.13127016, 0.19817717, 0.0644995, 0.0048247236, 0.011722211, 0.028100353, -0.006880422, 0.13997501, 0.03277605, 0.2171529, 0.033726085, 0.075883105, 0.0294838, -0.022224313, 0.14116755, 0.06591239, -0.06237772, 0.18327293, 0.0730267, 0.098182276, -0.014114727, 0.13898471, 0.072984986, -0.09183031, -0.019448252, 0.098513834, -0.07416062, 0.0750185},
    {-0.016923994, -0.03772196, -0.014188856, -0.0063946247, 0.049107015, 0.032060027, -0.078579456, -0.047920614, 0.054332733, 0.0507167, -0.06489554, 0.1098347, 0.0834775, -0.105225176, -0.044979125, 0.1108554, 0.12285274, -0.05125755, -0.040026337, -0.022059083, 0.10929912, -0.02620408, -0.05310464, -0.06923342, 0.050449997, -0.066817224, -0.10032424, -0.031131595, 0.030737638, -0.117786646, 0.08526817, 0.06751576, 0.041470945, -0.06697947, -0.051513135, 0.08377549, 0.060440153, -0.010452658, 0.09664723, -0.05947876, 0.087295294, -0.069069594, -0.004038334, 0.090126425, -0.024003416, -0.027442247, -0.10466242, -0.037014723, -0.09982446, 0.0042148232, -0.090302795, -0.03957936, -0.1201846, 0.082648724, 0.11040354, -0.048395604, -0.11964452, 0.017935485, -0.1170713, 0.11522037, 0.113349915, -0.106944025, 0.08638635, 0.06783873, 0.023240983, -0.07101941, 0.055926144, 0.08195993, 0.046726882, -0.07062456, 0.056878507, 0.03657347, -0.03398776, -0.01437369, -0.10882166, -0.03648767, 0.053282112, 0.11703539, 0.04933837, 0.0631367, -0.052875876, -0.07802296, 0.11997828, 0.123598486, 0.11169955, -0.10296759, -0.0020321012, -0.114617854, -0.070185184, -0.051906317, -0.10690004, -0.121518105, 0.011006594, 0.107301116, 0.06157899, 0.11985409, 0.007514775, -0.07349816, 0.008287609, 0.12333685, 0.08797017, -0.09372732, -0.033157825, -0.0414159, 0.049563408, -0.01362291, 0.05435434, -0.0920724, 0.025106192, -0.09472665, 0.07453984, -0.06009713, -0.025791734, 0.030710071, 0.039358437, 0.06063044, 0.09149879, 0.06502187, 0.0155830085, 0.023570955, 0.03149417, 0.12193659, -0.070472956, 0.056550533, 0.034376174, 0.03631261, 0.028784394, -0.10365972},
    {-0.024764823, -0.004181796, -0.039252084, 0.026056092, -0.014250076, -0.10016087, -0.00891932, -0.122512616, 0.012572782, -0.08822053, 0.09159978, 0.1258674, -0.09875747, 0.08863351, 0.06504072, -0.09822464, -0.028477719, -0.021919927, 0.074824214, -0.0348828, 0.09829374, -0.022507463, -0.00017801026, 0.08975779, -0.038633704, -0.07964813, 0.03314859, 0.0012272886, 0.02669328, -0.10332205, -0.009236875, -0.07495437, 0.05232598, -0.0719557, 0.07165535, 0.019663027, 0.098249696, -0.0790167, 0.12952285, -0.012165399, -0.017199852, 0.06524939, -0.08034912, 0.10906332, -0.05352496, 0.0076164906, 0.089237496, -0.023886599, -0.12194151, 0.07751706, 0.064494394, -0.09726383, -0.101878986, 0.07837829, 0.082145356, 0.052095633, -0.08098635, 0.0652526, 0.04998163, 0.1257227, -0.022228776, -0.03528631, -0.019513577, -0.097866744, -0.036806174, -0.10453442, -0.112374805, 0.00061746564, 0.10792821, 0.055162057, 0.025154753, -0.033164382, -0.11290851, 0.08790293, -0.011165863, 0.07107321, 0.122293375, 0.021322906, 0.0443003, -0.08860593, -0.04764952, 0.053789046, -0.015921773, 0.10854624, -0.027303563, 0.0805124, -0.051065587, -0.06454508, -0.042191617, -0.02309424, 0.046232708, -0.024428332, 0.07262332, 0.10637848, -0.074058615, -0.04962099, -0.037531942, -0.015538578, 0.1195856, -0.051091705, 0.05537972, 0.027960185, -0.100532345, 0.07636401, 0.09438552, -0.09425898, -0.10250628, 0.061356686, -0.11552766, 0.11355965, -0.065682985, -0.021921977, -0.013302018, 0.043711074, -0.07572438, -0.11810819, -0.052732594, -0.08169588, -0.000639697, -0.12012354, 0.094804846, -0.016989404, 0.096375875, 0.0362508, -0.08302381, 0.004250986, 0.10211265, 0.109548576},
    {0.020054752, 0.10828642, -0.022385659, 0.19723381, 0.059448916, 0.057493757, 0.0007581421, 0.05321549, -0.070811346, -0.047099456, 0.095462546, -0.08390091, 0.029820424, 0.07246342, 0.02425972, 0.18201168, -0.015855458, -0.1103189, 0.030441182, 0.09137103, 0.056057632, 0.06788711, -0.019811077, 0.00443459, -0.105094716, -0.015521583, 0.14097331, -0.01643339, 0.09496901, -0.0017905359, -0.029809136, 0.0020736083, -0.020573992, -0.06984039, -0.061362635, 0.08657975, 0.09977944, -0.027928112, -0.03929751, -0.1801928, 0.1262081, 0.15128413, 0.09477109, -0.035258792, 0.12321997, 0.060039643, 0.010145892, -0.02220307, 0.117709555, 0.120308965, 0.06410189, 0.047863074, 0.0053165965, -0.10709904, 0.02194648, 0.07753527, -0.08510376, -0.039909683, 0.0043187602, 0.020035574, 0.02093317, -0.104257606, 0.19158842, -0.10970741, -0.16939808, 0.06460373, -0.02292886, -0.13747811, 0.054677468, -0.07493784, 0.08959023, 0.08777019, -0.04284461, 0.10434404, -0.11313143, -0.0481488, -0.028070988, -0.10234418, 0.079643995, 0.08899825, 0.0036760052, 0.053213436, 0.051792838, -0.017896054, -0.16854525, -0.054003622, -0.06313391, 0.10031682, 0.13395388, 0.07145873, 0.020249322, 0.039877925, -0.10841599, -0.069596715, -0.056256965, 0.017943276, 0.018598232, -0.15849534, 0.09585192, 0.01706293, -0.05651536, 0.053660087, 0.039804805, 0.12873246, 0.10155415, 0.021602942, -0.049011506, -0.03943247, -0.09114553, 0.18408783, 0.116965264, -0.13024908, 0.11508654, -0.038211938, 0.1837125, -0.00198231, -0.103659645, 0.18300109, 0.036549643, -0.04803877, 0.11552162, 0.0049894033, -0.026090981, 0.028859913, 0.07175811, 0.005767303, 0.09310308, -0.11724061},
    {-0.12464899, -0.034532875, -0.017372549, 0.043509454, 0.086907715, 0.015105158, -0.06601003, -0.09775025, -0.09743062, -0.08986142, 0.09900361, 0.058847636, -0.114756584, 0.058523953, -0.05367452, -0.00860256, -0.078225434, -0.10597208, 0.11703354, 0.014332086, -0.07235515, -0.09357798, -0.122991234, 0.09080446, 0.09209144, 0.11388111, 0.06796062, 0.07212493, -0.05078271, -0.11374429, 0.0030443072, -0.022299498, 0.062123775, 0.028074503, -0.03256157, -0.057106256, 0.07679528, -0.07111555, -0.080951154, -0.062235206, 0.06427601, 0.097108096, -0.11134964, 0.09708202, 0.05583158, -0.001901716, 0.09020528, 0.047518104, -0.11812523, 0.020914972, 0.08602148, -0.0666796, -0.056510985, -0.05543232, -0.087622166, 0.031369448, 0.060810238, 0.036364943, 0.1123265, -0.112359345, 0.07922202, -0.06537092, 0.05279538, -0.07255906, 0.0014043152, 0.0965336, -0.08218545, 0.03883156, -0.09222239, -0.09645778, 0.07692316, -0.021883309, 0.034313887, 0.10018641, -0.061439365, 0.0030868948, -0.03684607, -0.008439481, -0.08490819, 0.05835238, -0.008589059, -0.047846287, 0.0010832548, 0.05366236, 0.072568715, 0.013639182, 0.028474033, -0.016659379, 0.057382733, 0.083755106, 0.08517736, -0.06811735, -0.11234221, -0.021852612, -0.0946348, -0.03820297, 0.014532864, -0.06177059, -0.037440836, -0.08589876, -0.0047316253, -0.09365514, -0.061763167, 0.05245763, -0.05997485, -0.122526735, 0.07668969, 0.020118445, 0.053128242, -0.11340624, -0.120687276, 0.09365007, -0.09720367, -0.10750008, 0.10285023, -0.03010267, -0.101919025, 0.075962186, 0.013512969, 0.0881975, -0.0745109, -0.0060534775, -0.07893261, 0.037826538, 0.12146449, 0.060334146, -0.08827424, -0.0015751421},
    {0.10293017, 0.05911354, 0.0028488336, 0.05012404, -0.0928189, 0.13154119, 0.12265929, 0.098477274, -0.08143907, -0.054336466, 0.01656487, 0.0828662, 0.06843319, 0.019356007, -0.05379439, -0.035779335, 0.027866568, 0.10399184, -0.03912327, 0.024366342, -0.060681354, 0.015213535, 0.039166655, 0.10808911, 0.03281722, 0.053732175, 0.06020393, 0.14893307, 0.07292691, 0.08484725, -0.07016934, 0.10685116, -0.087556235, 0.014731853, 0.13857768, 0.025064204, -0.076191835, -0.049090013, 0.022772795, 0.07131237, -0.06401719, 0.04003058, -0.05550551, 0.12432357, 0.028893694, 0.08386234, 0.08342674, 0.17152674, -0.07473197, 0.029309545, 0.08355434, 0.07010464, 0.13053429, 0.05206604, 0.026137993, -0.05549139, -0.08486981, -0.027322097, 0.022216368, 0.036062405, -0.031409387, 0.016948996, 0.08896862, -0.10019306, 0.104095906, 0.06605285, 0.05345386, -0.027638584, 0.05712244, 0.04504861, -0.030401394, 0.123250686, -0.08748762, 0.100627564, 0.15044324, -0.04921312, 0.1528722, 0.09787689, 0.10966005, 0.021081522, 0.04137992, -0.014402598, -0.011799369, 0.13847274, -0.080643155, 0.122377835, 0.091172256, -0.047562126, 0.07227382, 0.047341414, 0.10530521, 0.18454419, 0.14767365, -0.042342637, -0.06160325, 0.060713474, -0.061384678, -0.07811365, 0.0130423885, 0.11914895, 0.073573336, -0.040054142, -0.012846736, 0.1657862, 0.12735729, -0.050492827, 0.060718603, 0.16551825, -0.03264855, 0.07030215, 0.034419358, 0.06952483, 0.112545095, 0.029361863, 0.15616332, 0.097797446, 0.0997673, -0.0018027748, 0.16284415, 0.06462309, 0.004745918, -0.0652204, -0.035874046, 0.044632718, 0.10465652, -0.041547105, -0.034965113, 0.12480232},
    {-0.026793977, -0.025941495, 0.032599367, -0.05283676, -0.11570637, 0.06605581, -0.05443094, -0.13525134, -0.034659043, -0.019900493, 0.16934916, 0.03237345, -0.036741212, -0.12571774, -0.016922478, 0.020317925, 0.20105694, 0.090574734, 0.025167948, 0.012869243, -0.00467754, 0.047544386, -0.055046655, -0.050403595, 0.11858179, 0.03740333, -0.13962883, 0.18657158, -0.032134302, -0.06849947, -0.08316203, 0.09493663, -0.0915715, 0.012729579, 0.051388375, -0.08283506, 0.07175024, 0.1063863, 0.12308003, -0.020750223, 0.07108362, -0.10324173, -0.09853277, -0.17933188, 0.05857494, 0.12791088, 0.102595575, 0.15382124, -0.0143125905, -0.057898536, 0.18867247, -0.15604743, 0.16449077, -0.034822598, -0.03104165, -0.003958457, -0.00029147553, 0.101522446, 0.01540903, -0.05234033, 0.006488083, -0.13484155, 0.17127822, 0.0044198264, 0.057524808, -0.006024427, 0.12363016, -0.087047406, -0.088471286, 0.1508659, 0.10821518, -0.04649922, -0.07009318, 0.13009104, 0.13226564, -0.049375866, 0.056113515, -0.013980582, -0.07282564, -0.06964839, 0.14443661, 0.05954559, 0.09685657, 0.15658148, 0.07947829, 0.08171434, -0.07633808, 0.10314265, 0.12102859, -0.010081988, 0.13627526, 0.1236535, 0.13064903, 0.111673534, 0.1383401, 0.16910067, 0.010625899, 0.114274785, 0.116340935, 0.0064376104, 0.09043713, -0.08753756, 0.017139446, -0.021451628, 0.11276418, -0.03833877, 0.09307005, -0.07367248, -0.036650922, 0.02321672, -0.03104331, 0.08514741, 0.03005159, -0.12844233, -0.0044125216, -0.040069614, 0.08387676, -0.104541846, -0.055105656, -0.05907471, -0.02110052, -0.119677074, -0.115447864, 0.025209755, 0.074550085, 0.022923904, 0.0446139, 0.05040978},
    {0.0037621965, -0.031619992, -0.0768113, -0.09536985, -0.033700787, -0.19577305, 0.21341096, -0.05585445, 0.066188626, 0.14189364, 0.01795464, 0.1510888, -0.0866273, -0.062408134, -0.008305986, -0.17833531, 0.13834174, -0.01954486, -0.1291302, -0.022677006, 0.06338661, 0.044501577, -0.043039255, 0.19863047, 0.10233987, -0.18671472, 0.1617874, 0.2076071, 0.035815008, -0.15540339, 0.05620438, 0.03063176, 0.08408308, 0.18701896, 0.038547963, -0.12354743, -0.18622947, 0.03953793, 0.05637485, 0.14973907, 0.09039347, -0.010078747, -0.024608789, 0.12459872, -0.12039546, -0.18427838, -0.16235606, 0.07253012, -0.1141028, -0.030605152, -0.15377021, 0.15341023, 0.044039875, 0.07025626, 0.03126598, 0.073956095, -0.11121733, -0.009062972, -0.0858597, 0.16216488, 0.03170399, 0.115199864, -0.18474886, -0.050961852, 0.10089068, 0.113133706, 0.14432828, 0.0012623778, -0.12089698, 0.22640328, -0.07596324, 0.10027683, 0.10691989, -0.15910806, -0.03195167, -0.042544365, 0.19150127, 0.1026259, -0.106924966, -0.10019133, 0.15084018, 0.03466136, 0.19742377, 0.0077139568, 0.098916225, -0.00833727, -0.009587308, 0.013629132, 0.033475474, 0.028650507, -0.01352791, -0.026416948, 0.13780387, -0.10897339, 0.0070485105, -0.01901108, 0.014081927, 0.15332222, 0.1425436, -0.16605902, 0.13458207, 0.12252601, 0.025581105, -0.07595957, -0.0075178198, 0.147569, 0.08532389, -0.05882499, -0.020241415, -0.13867639, 0.08622113, -0.026249908, -0.038369138, -0.14854896, -0.06227598, 0.07846169, 0.059897866, 0.021643713, 0.02973081, -0.1311829, -0.02264078, -0.054444045, -0.013426518, -0.077242225, 0.18482481, -0.044919115, -0.014931309, 0.051591773},
    {0.02473408, 0.022776335, -0.09111112, -0.12022635, -0.08220884, -0.12254205, 0.036656648, -0.091948, -0.056079, 0.04364136, -0.0075927377, -0.010217577, 0.054157376, -0.0018801093, 0.07326031, -0.08503887, 0.019096494, -0.03938076, -0.01820016, -0.012734115, 0.1154511, -0.03360793, -0.0019536018, -0.09632489, -0.03209406, 0.08974424, 0.08114782, -0.03368166, 0.012898684, 0.10799518, 0.0012020171, -0.09111524, 0.09224689, 0.08110097, 0.021799564, 0.08354962, 0.066012084, 0.033454865, -0.03246805, 0.11057037, 0.028827906, -0.09306958, 0.0973573, -0.025474638, -0.0748795, -0.07932168, -0.10940996, -0.02911824, 0.075826645, 0.11155468, 0.12223452, -0.10483298, 0.051975757, -0.042587668, 0.07381725, -0.015271485, -0.06249401, 0.097726494, -0.049306035, -0.09890419, 0.09126267, -0.050831318, 0.11369026, 0.124017, 0.004692048, 0.052864194, 0.001954645, -0.11157426, -0.038671434, -0.08132446, -0.048049957, -0.030191153, 0.12305084, 0.072164744, 0.06360456, -0.08946541, 0.06649706, -0.049128056, 0.12104696, -0.05203092, 0.0009936392, -0.09945181, -0.1031439, -0.06376898, -0.060065806, -0.056544095, -0.056055635, -0.10643962, -0.118184954, -0.05307603, 0.07164478, -0.06801087, 0.050901562, 0.019791096, -0.028484732, 0.02950406, 0.0065069795, -0.087318, 0.033675164, 0.102870524, -0.093575746, -0.075185955, -0.11464524, 0.07774627, 0.010665953, -0.10148138, -0.0026890337, -0.06829116, -0.043640226, -0.023313612, -0.11009753, 0.039971888, 0.04033816, 0.08832851, -0.08421826, 0.03861755, 0.12461239, 0.04509431, -0.08700958, 0.118059725, -0.10466358, -0.10614112, -0.103402644, 0.09442532, 0.060740918, 0.015304148, -0.036709607, -0.11818832},
    {-0.109050214, -0.10666749, 0.07204804, -0.049691528, -0.024823517, 0.059641212, -0.11331493, -0.10246754, 0.047199965, 0.046391666, 0.05770588, -0.046268165, 0.07493758, 0.0017723441, -0.10645372, -0.0030635, 0.026859045, 0.072757035, -0.06965113, -0.11691606, 0.10802123, 0.04462537, -0.1114279, 0.090007246, 0.09904507, 0.12182096, -0.078142226, -0.06657544, -0.06605464, 0.08477759, 0.074560255, -0.011315435, -0.116500676, -0.047409624, -0.07465288, 0.06258538, 0.0402655, 0.001657337, -0.057501584, -0.0059976876, -0.10663605, -0.09332839, 0.07765877, 0.0006656647, 0.06166473, -0.02263841, -0.0048427284, 0.103714675, 0.11773634, -0.018359333, -0.08587757, -0.10454273, -0.09928566, 0.08660701, 0.070411325, -0.035901666, -0.06232077, 0.007172525, 0.10075596, 0.05972761, 0.11799684, -0.08261818, -0.06829366, -0.09102687, 0.101061106, 0.06380206, -0.05598992, 0.072420895, 0.02860403, -0.10038152, -0.087804765, -0.024276286, 0.015599132, 0.028318375, 0.123044044, 0.003523469, 0.08664125, 0.114947885, 0.051689714, 0.07504797, 0.07967296, -0.07747182, 0.08839202, -0.051448524, -0.030513048, -0.047555417, -0.031853914, -0.03459531, 0.11918154, 0.08672094, -0.023125738, 0.08630201, 0.09650472, -0.050549686, -0.103622794, 0.045687735, 0.11532, 0.0828456, 0.0016541183, 0.0632177, 0.11167896, -0.03894204, -0.051444054, -0.0517897, -0.027391642, -0.02933973, -0.021317154, -0.12195012, -0.009824306, 0.12396276, -0.10188237, 0.10534197, 0.007838011, 0.06620222, 0.08984184, -0.11573678, 0.09150702, -0.11952871, 0.08368003, 0.030703098, 0.090280354, 0.121785104, 0.06526297, 0.027150571, -0.11221871, -0.072419286, -0.061023235, -0.047517747},
    {0.1811465, 0.15904191, 0.0323041, -0.0065449392, 0.008843842, 0.050638404, -0.17707126, 0.053887952, -0.087374486, -0.13300483, 0.1988539, 0.13237722, 0.09842664, 0.02971662, -0.0969045, 0.18230551, 0.07067055, -0.17429172, 0.011075009, 0.108827345, -0.014011961, 0.103521176, 0.028802117, -0.032712422, 0.08867919, 0.18277733, -0.0087237535, -0.12493027, 0.12285387, -0.07265826, -0.047360346, 0.035500955, -0.118684344, 0.09325434, 0.18521124, 0.07370217, -0.100924455, -0.10792649, 0.11535083, 0.06960491, -0.12152743, 0.10372207, -0.106184825, -0.03816257, 0.056368165, -0.05178522, 0.01772061, 0.077354535, -0.12094792, -0.118853875, -0.022522943, 0.12875964, 0.15843172, 0.009287311, 0.039598722, 0.03415844, -0.07197087, 0.03460953, 0.10652033, -0.004964492, 0.05079137, 0.0054317103, -0.007241814, 0.09299129, -0.07271339, -0.10156521, -0.04985383, 0.09256939, -0.048118018, 0.056807756, 0.18535611, -0.15327379, -0.07276489, -0.037960835, -0.014996929, -0.10777192, 0.19965471, 0.016490389, -0.10289732, 0.17713128, 0.15973887, 0.095767654, 0.11164059, 0.10959345, -0.07271239, 0.06174447, 0.015942812, 0.098369114, 0.12233594, 0.01843432, 0.19521925, 0.1742976, -0.06473413, 0.008096088, -0.08340874, 0.026428927, -0.03493593, 0.14924726, 0.037357822, 0.0899021, -0.1275505, 0.054540858, -0.08574606, -0.103413574, -0.024598248, 0.061901804, -0.06848031, 0.14598751, -0.0137281865, -0.037121885, 0.01282556, 0.15992261, 0.010776343, -0.019921357, 0.11633895, 0.056456197, -0.02726605, 0.057068773, 0.03606517, -0.09039947, -0.03898529, 0.0700612, -0.029546753, -0.0657315, -0.096088745, 0.0511488, -0.04933486, 0.072107494},
    {0.1815543, 0.19102797, 0.0015280626, 0.08512243, 0.07319207, 0.20032978, -0.0054774396, -0.058628175, 0.07432099, -0.13037981, -0.026041508, 0.10898939, 0.11444106, 0.1413316, 0.14734031, 0.1838436, -0.09503734, -0.02929336, 0.10239783, -0.08453179, -0.0595282, 0.0055383197, 0.08907815, -0.036335513, -0.052580215, -0.012912862, 0.06892086, 0.026850857, 0.06180688, -0.03156217, -0.0750036, -0.12824674, -0.06398262, 0.043292288, 0.1501014, -0.1245942, -0.0126599, -0.016634896, 0.017055646, 0.087957315, 0.03765099, -0.0029422808, 0.11367672, 0.05102701, 0.0121734, 0.10093451, 0.08818259, -0.010183012, -0.16337489, -0.011426959, 0.006201787, -0.015083297, -0.00092905073, -0.00803205, 0.05909012, -0.112540565, 0.04220546, -0.024320167, -0.011239855, -0.09897219, 0.10996622, 0.092796475, -0.006063543, -0.10856005, -0.17967874, -0.19895773, 0.07400472, 0.061252423, 0.17863582, -0.014169106, 0.06725016, -0.132444, 0.008869786, 0.112594515, -0.0026960454, 0.056012034, 0.088776335, 0.029915024, 0.0909344, 0.08132874, -0.008902465, 0.1233032, -0.12815768, 0.069036715, 0.033881314, -0.0054642577, -0.16589797, -0.044435456, 0.13269332, -0.0820559, 0.074093774, 0.122979954, -0.057309166, 0.18431376, 0.0075219497, -0.010091188, 0.18494868, 0.08785169, 0.040670544, 0.11385914, -0.06593689, -0.07419594, 0.0184266, 0.18345281, 0.15584162, -0.04852946, 0.08682253, 0.16467714, 0.0070414753, -0.023226783, -0.0245193, -0.061276074, -0.008242488, 0.12606561, 0.026359884, 0.04791775, -0.084199525, 0.15908843, -0.17531869, 0.086347915, -0.097038984, 0.05922869, 0.11349546, -0.004276097, -0.08450028, -0.015475725, 0.076941125, -0.09242502},
    {0.17793682, -0.03284485, 0.113354474, 0.028003713, -0.017792488, -0.033637468, -0.1329033, -0.019830704, -0.12039645, 0.08691431, 0.09993592, 0.011900645, -0.11992025, 0.0035376232, -0.194549, 0.083536364, -0.020138595, -0.01053746, -0.06255478, 0.16726804, 0.14843284, 0.19049479, -0.0692444, 0.15965948, 0.07130558, 0.093090415, -0.19613385, -0.018306676, -0.08350271, -0.06340527, -0.13661397, 0.169498, -0.0017810372, 0.045191556, 0.110834785, 0.102719985, -0.031042906, -0.0032801337, 0.087104075, -0.014823361, 0.092010446, -0.13010845, 0.037406255, -0.1881423, -0.016284972, -0.01008231, 0.022921072, 0.18980564, -0.15758558, -0.1387231, 0.017243812, 0.13244733, 0.1359515, 0.21221927, -0.039734926, 0.031317554, -0.07672625, 0.19089927, -0.004343835, 0.18480353, -0.07487322, 0.093380384, -0.0025999185, -0.112797976, 0.11912058, 0.02318874, 0.06928915, 0.00085066044, 0.016343359, 0.18413557, 0.024866661, -0.060338274, -0.11735336, 0.11225568, 0.063375905, -0.008926824, 0.032759648, 0.029819418, 0.0015131816, 0.025238764, 0.13653909, -0.12840168, 0.03389395, 0.1600244, 0.110365726, 0.07151806, 0.052008875, 0.16905318, 0.21132647, -0.15222156, 0.043174647, 0.17007996, 0.055498578, 0.047397535, 0.095110424, -0.028376658, -0.058258545, 0.06661043, 0.017656533, -0.18505634, 0.045763627, -0.09567729, -0.21084903, -0.19230022, 0.07261625, 0.028616203, 0.041753564, -0.17596656, 0.21476069, -0.0057913186, 0.0033865166, 0.15811929, 0.10658516, -0.07043025, -0.11204449, -0.04723911, 0.0041940757, -0.007480179, -0.0030805084, -0.06463563, -0.15095666, -0.050263625, -0.099431925, -0.059344627, 0.042988654, 0.047067076, 0.06666704, 0.02575071},
    {-0.13290076, 0.082946576, 0.10683718, 0.04510829, -0.03892471, -0.021932945, 0.01929125, 0.07306029, -0.10176179, 0.14324677, 0.028376732, -0.07648714, -0.077158466, 0.062479787, 0.13831826, 0.016858231, 0.024692694, 0.018713603, -0.08717629, 0.024590207, 0.0066802553, 0.04306423, -0.019260623, -0.17151548, -0.08835747, 0.040517885, 0.1878071, 0.10274594, 0.11774807, 0.14778762, 0.07599464, -0.14180872, 0.007924846, -0.12081308, -0.14047827, -0.011097699, 0.09176819, -0.07244858, -0.17487602, 0.04156373, 0.046893973, 0.08399987, 0.06287129, 0.19902524, 0.05967728, 0.16644485, 0.12558997, 0.028209712, -0.025187934, 0.07675579, -0.11513652, 0.044228956, -0.08719103, -0.0056673265, 0.14564973, -0.022441503, 0.05994857, 0.077580184, -0.055322435, -0.028397338, -0.013810929, -0.09532734, -0.07966415, 0.0031091208, 0.116958104, 0.04711508, -0.00048291462, -0.013875858, 0.121142074, 0.082293525, -0.14509328, 0.1624092, -0.10262954, 0.025822444, 0.0069564655, 0.10629165, 0.018581906, -0.11818772, 0.111937344, 0.099484004, -0.025400965, 0.19811971, 0.035369027, -0.09202237, -0.0031188475, 0.026939616, -0.053404614, 0.007104111, 0.040408187, 0.021809943, 0.032824196, -0.12233033, -0.034712598, 0.099449776, 0.11558272, -0.09965496, 0.026490455, -0.14896034, -0.094528645, -0.028473914, -0.10790913, 0.21606737, 0.023600755, -0.030896215, -0.18835106, -0.17538737, 0.01858328, -0.011092404, 0.08731897, 0.18149804, 0.05531948, -0.014887577, -0.16432384, 0.10494755, 0.02471086, -0.022038613, -0.08856573, 0.14785069, 0.111728355, 0.1281705, 0.09049808, 0.12577625, 0.061962802, -0.026983172, 0.11703009, 0.15598416, -0.15843903, 0.15489152},
    {-0.006672605, -0.028887335, 0.0046150386, -0.09202456, 0.007421795, 0.11389194, 0.0830709, 0.050119966, 0.0062478185, 0.16039048, -0.14555916, 0.06303004, -0.04690966, 0.032652143, 0.21156615, 0.04522086, -0.061522674, 0.05517129, -0.09111198, -0.14623846, 0.089397326, -0.0646586, -0.007992158, -0.19273138, 0.041759558, -0.08704155, 0.20549403, 0.1865586, -0.017643936, 0.025658386, -0.108870044, 0.1251996, 0.11146625, -0.15407974, 0.006606276, -0.075876, 0.15270731, -0.0076175085, 0.0039226096, 0.18044952, -0.0045451582, -0.1613671, -0.046721846, 0.22512808, -0.0027578266, -0.08467871, -0.031758193, -0.038926065, 0.11394676, -0.141227, -0.03207809, 0.09914212, -0.035188735, -0.07352637, 0.15151165, -0.01821949, 0.08701806, -0.20222604, -0.046416447, -0.009889297, -0.15013053, -0.006200787, -0.20180513, 0.071401075, 0.18022636, 0.010406956, -0.16392717, -0.07016034, -0.011643775, 0.031209622, 0.029893588, 0.09172599, -0.003476322, 0.026331978, -0.13769507, 0.03553505, -0.06545152, -0.09108253, 0.025243951, 0.031122167, -0.060690653, 0.010234132, 0.17300726, -0.046842873, -0.14733306, 0.008759867, -0.004433819, -0.012807163, -0.1966178, 0.18649636, 0.051974993, -0.025128515, 0.04795105, 0.04284844, -0.049869113, -0.015078081, 0.100041986, -0.067705065, -0.10499564, 0.15421943, 0.017438686, 0.11458718, 0.022453517, 0.023172688, -0.022153305, -0.20618552, -0.20775498, -0.116715595, 0.21182096, 0.15931974, 0.16814083, 0.1784844, -0.11522157, -0.06793917, -0.18251626, 0.0946019, 0.0076367715, 0.11930875, 0.19893777, 0.072947174, 0.19604757, 0.14716575, 0.08447278, 0.018430412, 0.075559594, 0.012543333, -0.13288875, 0.048509438},
    {-0.112110175, -0.01701423, 0.10804096, 0.032521438, -0.07075448, -0.05541479, 0.0011840211, 0.09049185, -0.08541128, 0.026864313, -0.058381785, 0.07227457, 0.119577885, 0.12176803, 0.053964727, 0.021026792, -0.07106967, -0.092917606, -0.14779295, 0.14042524, -0.10196082, 0.085048124, 0.139823, -0.20910028, -0.18491061, -0.01642035, 0.15786295, -0.16228345, 0.17743534, -0.12872367, -0.101983145, 0.020755466, 0.16149919, -0.13947073, 0.048756637, -0.038024127, 0.06463769, 0.10759388, -0.16989045, 0.15769039, -0.026986012, 0.18063748, -0.13347471, 0.028070861, -0.17348176, 0.1446738, -0.03236149, -0.11893174, -0.04295358, 0.017819686, -0.0996113, 0.06229565, -0.022907164, -0.14296935, 0.17360435, -0.18454587, 0.060385313, 0.12312911, -0.0030237057, -0.0780949, 0.016943881, 0.014040509, 0.018680008, -0.12685342, -0.06899117, -0.088698275, -0.061008062, 0.10463298, -0.039328106, -0.15861331, -0.022674423, -0.08923858, -0.06618891, 0.1354527, -0.1896503, -0.16729537, -0.0009927028, -0.19124915, 0.0058441656, 0.14852096, -0.0952367, 0.14744483, -0.027517179, -0.12053906, -0.027738923, -0.038249847, -0.063666046, 0.14303234, -0.12712288, 0.058666855, 0.21074666, -0.043723907, -0.16531695, -0.01926411, 0.032571692, -0.18248378, 0.017225133, -0.09429988, -0.06461405, 0.07453602, -0.057753764, 0.14761217, 0.0015727584, 0.09944628, -0.14414448, -0.21133676, 0.052930325, 0.098004155, 0.011625841, 0.044660777, 0.058626194, 0.021223327, 0.09448838, 0.11459336, 0.16542642, 0.16901152, -0.032333966, 0.18793939, 0.16412221, 0.033393852, 0.046574418, 0.035757534, 0.12721854, 0.018050402, 0.107054256, 0.009293166, -0.058440577, -0.22872227},
    {-0.084243566, -0.09925027, -0.13093136, -0.0465232, 0.08203691, 0.08725107, -0.0072670183, 0.017650979, -0.09376073, 0.107034825, -0.020394338, -0.09996287, -0.011911813, -0.013836629, -0.0014507507, 0.12053088, -0.09467636, -0.1366571, 0.079832256, 0.029433094, 0.14583911, -0.08824018, 0.07192059, -0.06299745, -0.14207649, -0.040744852, 0.10258351, 0.016045965, -0.10326138, -0.0518209, 0.11421455, 0.014987521, 0.1610796, -0.08011471, -0.032401, -0.12135576, 0.032126207, -0.0014524307, 0.011833912, -0.10337689, 0.090326376, 0.16509566, -0.08665758, -0.01141766, -0.06725727, -0.06731471, 0.058044758, 0.046938334, 0.111462675, 0.14307597, 0.016916905, -0.09884444, -0.110001475, 0.029526774, -0.06480666, -0.06927777, 0.13253821, -0.016334502, 0.08904204, -0.084805176, 0.108075775, 0.004045081, 0.0054243477, 0.0832314, 0.038466934, -0.05892741, -0.13852404, -0.04351284, 0.07537015, 0.06572172, 0.089278735, -0.027157221, 0.018289933, 0.17923275, -0.01959443, -0.045309942, 0.054883853, -0.024020016, -0.001119333, 0.16480349, 0.0646047, 0.08392846, -0.024056336, -0.07063289, 0.023092268, -0.049619637, -0.04676, 0.13140401, 0.033981867, -0.05529507, 0.077013105, 0.0029324996, -0.12636864, 0.09191996, 0.07349318, -0.009569191, 0.037960324, -0.057353925, 0.076286905, 0.14916845, -0.12016938, 0.056545313, 0.13628201, 0.09308458, -0.0681052, 0.029552236, 0.10633844, -0.056430414, -0.034774058, 0.121902086, -0.018476598, 0.056657445, 0.044499155, 0.08898326, -0.04907296, 0.050740898, -0.027105674, 0.096670695, 0.0028957825, 0.15549621, -0.013034032, -0.010488624, 0.073020846, -0.06249995, 0.1453419, 0.044453263, -0.03787822, 0.012794254},
    {0.04595719, 0.12254359, -0.08372525, 0.0561909, -0.088933766, 0.15123412, 0.17282155, -0.0112266205, -0.055408, 0.18424523, -0.014573073, -0.12923792, 0.07431804, 0.09761215, 0.20093207, 0.015719362, -0.16819453, -0.11540075, -0.079808734, -0.07468394, 0.12387956, 0.06852122, 0.18478434, 0.0042579724, -0.18139122, 0.06671777, 0.10238767, 0.029525198, 0.049594328, 0.0031130966, 0.05289824, -0.11437756, 0.18945885, -0.045685865, 0.008328289, -0.040728062, 0.014958809, 0.11777742, -0.0018876673, -0.091481544, 0.10288888, 0.07824133, 0.019812398, 0.06879933, 0.16401726, 0.016638733, 0.19848461, -0.17589961, 0.04504875, 0.018448306, -0.040078238, 0.0023532892, -0.022858102, -0.0171243, 0.07447435, 0.0003082023, -0.047182627, 0.08258092, -0.010624365, -0.011897677, 0.07590007, -0.08629799, 0.08950446, -0.12478202, -0.06805398, -0.026680153, -0.11678373, 0.02313302, 0.10100358, -0.147672, 0.028311929, 0.11590754, 0.10906447, 0.097917534, 0.01386786, 0.10751779, 0.10832631, -0.1212379, 0.10284072, 0.1766437, -0.17976105, -0.02191786, -0.06852376, -0.09301915, -0.008415561, -0.038947437, -0.16676976, 0.03223907, -0.0030031449, 0.048138734, 0.005458625, -0.11893856, -0.009104818, 0.14107484, -0.101877235, 0.14517817, 0.046762835, -0.085187614, -0.088612534, 0.05488993, -0.1801141, -0.019670589, 0.16733599, 0.04428133, -0.0604964, -0.14791462, -0.04157158, 0.16152504, 0.09190911, 0.07646099, 0.059885163, 0.08318774, 0.107351646, 0.13624874, 0.18864173, -0.15406388, -0.10294589, 0.01821517, 0.16154924, 0.16107494, -0.030397499, -0.027925454, 0.16920495, -0.08403629, 0.0064332993, -0.012879944, 0.060645144, -0.0006087093},
    {-0.054765403, -0.112547934, 0.10311341, 0.056791037, -0.10092524, -0.105060786, 0.06581259, -0.10514167, 0.046905488, 0.042462766, 0.060845107, 0.04134506, -0.06396225, 0.020701319, -0.033540696, -0.043081403, -0.09587368, 0.043008447, 0.00094878674, 0.113393664, -0.019243807, 0.06849539, -0.030131638, -0.07091141, -0.031530082, -0.03778833, 0.055746675, 0.07973814, -0.04696721, 0.05211678, 0.008485287, 0.051656693, -0.11827731, -0.01955384, 0.06909546, 0.10953933, 0.038243353, -0.041164458, 0.057604253, -0.09918657, -0.09078887, -0.06701708, 0.08824223, -0.01168555, 0.11430958, -0.040199757, -0.124649286, 0.092885494, 0.11179501, -0.08118975, 0.052015156, -0.11582938, -0.12349215, 0.091327846, -0.049557418, 0.02248779, -0.020108342, 0.07579547, -0.030423641, -0.09957147, 0.037371665, 0.06629956, 0.071650386, -0.013212293, 0.07430598, -0.10093969, 0.11175591, 0.053618908, -0.038234532, -0.07989466, -0.053228796, -0.034189552, 0.006034136, 0.07489365, -0.08768314, 0.099867016, -0.025455892, -0.07565242, 0.037107736, 0.07777813, -0.04499173, 0.075112075, -0.035295695, -0.04853025, 0.11427134, 0.09832236, 0.080322355, 0.047469378, -0.09800774, -0.08992684, 0.045858085, 0.074027985, 0.101070344, -0.0022046566, -0.041501254, -0.0903177, 0.05005318, 0.010684222, 0.053923815, 0.11229378, 0.102121234, -0.09901267, -0.051499218, -0.025408536, 0.120991915, 0.1014266, -0.025488287, -0.0880498, -0.023099959, -0.032681167, -0.08405331, 0.084017664, -0.022096783, -0.11359438, 0.06002775, 0.07113555, 0.08353573, 0.030221134, 0.02392289, -0.10828361, -0.042049497, 0.049469322, -0.121726066, 0.026948273, -0.061979294, 0.014127016, 0.06995359, -0.024284005},
    {0.10394074, 0.18316674, -0.081649594, -0.09678499, 0.10443464, 0.10186305, -0.17200193, 0.039475314, -0.089049384, -0.14785498, 0.10637559, 0.13440296, 0.18802407, -0.097298294, 0.04152724, 0.1362012, -0.036853492, -0.105788596, -0.06053572, 0.12507464, -0.09284672, 0.18620022, 0.03540952, -0.113277316, -0.022817247, 0.11078724, -0.057732046, -0.19136515, 0.16797082, 0.15612443, -0.10363406, -0.0697392, -0.043404467, 0.008139058, 0.13027994, 0.022479502, 0.08061159, 0.12098739, 0.031154426, 0.15651558, -0.1777202, 0.16970089, -0.032720864, 0.0036678673, 0.04693736, 0.14657658, 0.021365963, -0.026526956, -0.0064550554, -0.11542568, 0.016301194, 0.20001136, 0.09593531, -0.04041479, 0.015675563, -0.1271377, -0.03433542, 0.1817156, 0.011582623, 0.069068395, -0.17392784, 0.10743425, -0.17299066, 0.027275443, -0.008096837, -0.055033136, 0.15265547, -0.021125928, -0.07466405, 0.022237286, -0.05149363, -0.15069397, -0.04272414, 0.043216616, 0.000722012, -0.12978002, 0.13639808, -0.16905704, -0.04283528, 0.034078732, 0.17808938, -0.02574067, 0.009749767, 0.036138415, -0.16327126, -0.03925541, -0.18041869, -0.014853938, 0.07941575, -0.036988754, 0.11456818, 0.19574554, -0.099837415, 0.015221881, 0.01172506, -0.20072708, 0.17053935, 0.008969074, 0.011060683, 0.14830045, -0.06972127, 0.05630858, -0.010936138, 0.10848965, 0.081850864, 0.06371748, -0.10834015, 0.1958958, -0.18070428, 0.15224163, -0.051080093, -0.04723142, 0.0010881809, -0.039939575, 0.16971835, 0.13447404, 0.08429729, 0.1731118, -0.10034774, -0.095456935, -0.16251528, 0.029710801, 0.11786535, -0.08238888, 0.0039282874, -0.14636709, -0.1788974, -0.1062209},
    {-0.024283081, -0.07650021, -0.11652121, -0.117508195, -0.043576833, -0.06889182, 0.07334061, 0.16002886, 0.023255885, 0.12874676, -0.07161933, -0.16858408, -0.12927474, 0.07582139, 0.061632723, 0.019725114, 0.001085876, 0.18164174, -0.061722964, -0.16719706, 0.046532024, -0.07342565, -0.102501914, -0.09348424, -0.085568376, -0.14462887, 0.2165519, 0.1441383, 0.06977675, 0.18101317, 0.048109863, 0.1563571, 0.004910814, -0.027712004, -0.09170663, 0.07199091, 0.028780065, 0.07746269, -0.07976778, 0.040150434, 0.01805819, -0.056944154, -0.016027473, 0.10169133, 0.060059324, -0.12122688, -0.18798058, -0.0152159715, 0.15832305, -0.17626715, -0.1154539, 0.070131145, -0.21024603, 0.08543175, -0.032067772, 0.04484224, 0.12949608, -0.20155026, -0.06895647, 0.078645736, -0.05030985, -0.030844351, -0.06177323, 0.07425104, 0.19374336, 0.08637002, -0.18184336, 0.06498242, 0.15904763, 0.10102108, -0.113613926, 0.022968154, -0.08489827, -0.15830675, -0.0065573906, 0.079158455, -0.07067521, 0.18394722, 0.06529856, -0.14849906, -0.09431622, -0.088106625, -0.02631561, -0.17868567, 0.1668899, 0.06692845, -0.008891265, -0.029865758, 0.040548578, 0.16469997, 0.0662884, -0.07807579, 0.13662873, -0.0018194261, 0.17782296, 0.17054076, 0.123053774, -0.13075693, -0.06476944, 0.084224306, -0.0059478716, 0.01833252, -0.10097534, -0.062341996, -0.05849591, -0.18706511, -0.027786158, -0.15945645, 0.1259189, 0.13190688, 0.19568016, 0.066696025, -0.106664605, -0.06868026, -0.19398503, 0.07000555, -0.025130598, 0.14114544, 0.10864909, 0.020013757, 0.17040284, -0.0067255725, 0.14140695, -0.10446739, 0.10378644, 0.15979053, -0.1401192, 0.11612547},
    {-0.11510994, 0.011232614, 0.08210564, -0.0846507, -0.04151323, -0.041136604, -0.010819853, -0.010051509, -0.07188204, -0.061742827, 0.037979342, -0.06691454, -0.08875912, -0.086858764, 0.10922677, 0.09971495, -0.061899316, 0.02483152, 0.09398934, -0.01323083, -0.021997035, 0.10508886, -0.052221242, 0.08637077, -0.09666998, -0.09692077, 0.13223906, 0.03089772, 0.10403777, -0.007962109, 0.022954801, 0.08365244, -0.07654521, 0.0228069, -0.057726905, 0.010880798, 0.020173676, 0.02755023, -0.0872183, -0.1133858, -0.10439287, 0.06112473, 0.066663414, -0.035183907, -0.11351173, -0.004082986, -0.123842575, 0.0057629417, -0.104273714, -0.07186731, 0.09264322, 0.12450943, -0.022659987, -0.027736865, -0.060583945, 0.05606714, -0.11470433, 0.11433082, -0.06268529, 0.024881141, -0.13304631, -0.07031569, 0.029892284, 0.09949044, -0.06382468, 0.078145586, 0.0838603, -0.094003856, -0.005392529, 0.022708245, 0.07670516, -0.07707714, 0.050115626, 0.03559324, -0.039236534, 0.029537342, 0.03221349, 0.05897778, 0.024034902, -0.060632788, -0.038684852, -0.13022931, 0.058396485, -0.012369801, -0.044904456, -0.061771102, 0.073725834, -0.07587085, -0.065856285, 0.1080183, -0.012665987, -0.08474663, 0.040167786, 0.09517068, 0.09236919, 0.093667865, 0.04276383, -0.07681763, 0.0156174265, 0.007196501, 0.048399087, -0.02203765, 0.024924833, 0.009128048, 0.10363066, 0.066609554, 0.08552866, 0.0495615, 0.098268405, 0.13189776, 0.02938464, -0.103564434, -0.0928313, -0.0661827, 0.033386026, 0.07157798, -0.07736671, -0.08554709, 0.052254025, 0.04557463, 0.031932533, 0.05975315, -0.09086554, -0.013835907, -0.028904598, -0.09650605, -0.027838511, 0.016098538},
    {-0.012408381, -0.023024226, 0.108921275, 0.119244546, 0.1329536, -0.16891904, 0.17328085, 0.06728627, 0.094389744, 0.03555106, -0.013091629, 0.07379734, -0.17701417, -0.049672566, 0.09681324, -0.19488235, 0.045958325, 0.08659922, -0.08216848, -0.019560535, -0.037313588, -0.120332904, -0.103204004, 0.16348127, -0.006885438, -0.1453809, 0.20476119, 0.063683525, -0.044080243, -0.07939556, 0.071602665, 0.18252946, 0.12265621, 0.16002345, -0.13473849, 0.03814415, 0.013231981, -0.1319436, -0.15769693, 0.09246088, 0.09079842, -0.06549429, -0.003062942, 0.16056271, 0.0014340425, -0.19253388, -0.04207054, 0.17198616, -0.049991358, -0.16686745, -0.10829818, 0.032351244, -0.034782212, 0.20564158, -0.06127164, 0.17557934, 0.097640514, -0.19449793, -0.009358627, 0.085289635, 0.014356334, 0.039718784, -0.14353943, -0.10379316, 0.04449264, 0.11898969, 0.10475195, -0.09782031, 0.043301158, 0.14319117, -0.19382955, 0.05132328, -0.041334346, -0.114877805, 0.12658423, -0.008277916, -0.044208694, 0.1457823, -0.06303203, -0.07634956, -0.040674187, 0.023488034, 0.16783595, -0.0018791308, 0.16369286, 0.08582201, 0.11298184, -0.19281726, 0.027765324, 0.07787121, -0.030264245, -0.0044607036, 0.044458877, -0.12897125, -0.022342293, 0.020347789, -0.034106035, 0.075708985, -0.0072265565, -0.09280205, 0.115138136, 0.12599969, 0.012584382, -0.04579416, 0.06469101, -0.078392655, 0.042103086, -0.06829793, 0.118426435, -0.073064655, 0.07183394, -0.081801094, -0.11698152, -0.032456044, 0.010344368, 0.0058655846, 0.08108468, 0.052658733, 0.000972077, 0.049439143, 0.2165319, -0.020221718, 0.09460541, -0.07405979, -0.0030975938, 0.041357834, -0.11902607, 0.15666147},
    {0.006137629, 0.0137996245, -0.06709579, 0.025326686, 0.016379956, 0.026762374, -0.02572934, -0.13094307, -0.028844945, -0.17184477, 0.14988163, 0.004719451, 0.13639396, -0.047545522, 0.019312607, 0.14303789, 0.06805917, -0.037007716, 0.12166178, 0.0811247, -0.022246443, 0.14436491, -0.026753511, -0.08931557, 0.0979535, 0.008786658, -0.095465586, -0.11662709, 0.08702297, -0.069083475, -0.038811978, 0.18434224, 0.044780217, 0.02090593, 0.20638435, 0.014359639, -0.15256785, -0.017304217, 0.07231916, 0.18174914, -0.031045048, 0.02329112, 0.0641367, 0.037989877, -0.063049234, 0.09758642, 0.07430218, 0.05274619, -0.1574949, -0.09176758, 0.07766025, 0.09050591, 0.05413804, 0.13664314, -0.110081136, -0.00214004, -0.057862762, 0.10963397, -0.05238873, 0.11566452, -0.0909962, -0.04055968, -0.012249161, 0.038722426, -0.014314045, -0.09994161, 0.059837226, -0.11027759, 0.016794236, 0.09122243, 0.1487666, -0.16478384, 0.053669807, 0.1752163, 0.016989876, 0.0031295982, 0.21447077, -0.07831103, -0.076281674, 0.105406694, -0.0081478935, 0.059167452, 0.18025616, 0.15031098, -0.1815612, 0.035953965, -0.0946091, 0.0339538, 0.19596292, -0.07575537, 0.178698, 0.13111387, 0.1275022, -0.0035042134, -0.048006862, -0.09882436, 0.09398708, 0.06350302, 0.008003373, 0.051442306, 0.008566013, -0.07292432, 0.0061032353, -0.1004116, 0.2064564, 0.16100505, -0.025056293, 0.18911923, -0.031530295, 0.087270446, 0.10794764, 0.19944894, 0.07672268, -0.015681902, 0.06712236, 0.011099411, 0.009270057, 0.12796898, -0.14563617, -0.074866235, -0.026776293, 0.14726417, -0.008575808, 0.047461513, -0.025363764, -0.094365485, -0.12258247, -0.1346603},
    {-0.17399628, 0.055464484, 0.02759692, 0.06836453, -0.036492467, 0.15689808, -0.061527215, 0.14739904, -0.08006547, -0.13763118, 0.07882084, -0.04446355, -0.0041885823, 0.08403402, 0.121006675, 0.017394995, 0.013642635, 0.0188672, 0.06566436, -0.06363945, -0.061687943, 0.08473987, 0.01938514, 0.0039188326, -0.13030115, 0.06683419, 0.15565602, -0.084485896, 0.06342807, 0.059361916, 0.033008687, -0.09184167, 0.04178096, -0.007893946, -0.03169057, -0.05175186, 0.08634607, 0.029876607, 0.1132002, -0.088215165, 0.015264068, 0.055931028, 0.10353446, 0.12887296, 0.008828741, 0.015936693, 0.15264091, -0.004521844, 0.08681292, 0.005400821, 0.06421573, -0.025190953, -0.107321195, 0.06171449, 0.10072259, -0.06280245, -0.075976685, 0.08607339, 0.10287298, -0.12044485, 0.18502255, -0.016389603, 0.03376269, -0.057041917, -0.12906975, -0.14063956, 0.042513747, -0.10673029, 0.1293117, -0.19153754, 0.020969823, -0.14082108, -0.006869305, 0.18021943, 0.019461574, -0.0366093, 0.057997778, -0.1776898, 0.042608656, 0.14834896, -0.13506846, 0.017439477, -0.15341128, -0.06883249, -0.13573802, -0.022575105, -0.09824607, 0.11940061, 0.12394888, 0.03251689, 0.19437496, 0.15454155, -0.08569948, -0.029005757, -0.038264867, 0.054436423, 0.05295018, -0.031016873, 0.08290487, 0.15142363, -0.08505852, -0.018323632, 0.06206356, -0.04642545, 0.07859456, -0.0984181, -0.11326395, 0.032422166, -0.13494052, 0.1309392, 0.016032215, 0.07766422, 0.18093473, 0.15262155, 0.028836014, -0.110489, 0.0110289445, 0.09786673, -0.04086274, -0.009195581, -0.122706525, 0.018695047, 0.012039802, -0.071827926, 0.053919688, 0.13276146, 0.094544254, -0.19401956},
    {0.057968907, -0.14256282, 0.040348947, -0.031801388, -0.0749358, -0.010647126, 0.15667896, 0.07663831, 0.0795387, 0.112406805, -0.14483419, 0.00699324, -0.091691695, 0.15206549, 0.057609912, 0.020891465, 0.15420526, 0.1403056, -0.05607976, 0.09307649, 0.09965964, -0.1637564, 0.071995646, 0.07982076, 0.04583905, 0.0006931359, 0.13111296, -0.0069171004, -0.021388685, -0.029936535, 0.051759355, -0.07451031, 0.23205982, 0.047612708, -0.18620566, -0.12206465, -0.015771993, 0.005619282, -0.081151776, -0.01891803, -0.016140817, -0.06551703, -0.1250992, 0.04798613, 0.19508941, -0.1259211, 0.05757832, -0.01697306, 0.024285419, -0.06577784, 0.09047315, 0.14709988, 0.02627442, 0.0089837145, 0.03145916, 0.13542011, 0.034804646, -0.1902367, 0.07087033, 0.091342546, -0.02415353, -0.06914873, 0.075119995, 0.114211895, 0.015148473, 0.17641075, 0.1476861, -0.050153196, 0.07212832, -0.020403793, -0.06181235, 0.101879336, 0.08849308, 0.1013203, 0.081379734, 0.16091126, 0.106186375, -0.07517377, 0.096716836, -0.0020359827, 0.0032630737, 0.15087141, 0.11034341, -0.031997424, -0.07027995, 0.054633178, -0.0081070885, -0.059631232, 0.018124683, 0.124857955, -0.023553358, 0.05629627, 0.16941482, 0.07254317, 0.07185278, 0.13890557, 0.11046627, 0.044550493, 0.1055638, -0.04915361, -0.00576445, 0.22919805, 0.0811639, 0.1280108, 0.05459497, -0.13674553, -0.102929235, -0.07214715, 0.18475868, 0.075359486, 0.14711115, 0.04422787, 0.02794792, 0.019041477, 0.09150352, 0.05152269, -0.069164686, 0.16378257, 0.13462913, 0.031687632, 0.21612449, -0.009672214, 0.12582734, 0.06577799, 0.15058514, 0.08535632, 0.11047031, 0.09286531},
    {0.0004634261, 0.061165184, 0.068143666, -0.010476917, -0.10431832, -0.085151404, -0.0471358, 0.0051056147, 0.1200158, -0.096164435, -0.020232737, -0.10378677, -0.087317675, -0.11862525, 0.12149835, 0.06622285, -0.11789635, 0.10900238, -0.1243667, -0.117801845, 0.08792499, 0.102235794, -0.018633038, -0.11243373, -0.08492276, 0.066297054, -0.09596947, 0.11311585, -0.10922238, -0.07857251, 0.022944182, 0.04768458, -0.08553231, 0.099380374, 0.06851873, 0.015610218, -0.042050928, 0.09298962, 0.0447239, -0.116455644, -0.025379747, 0.017818958, -0.112906545, -0.12078872, 0.07636976, 0.058036298, 0.02244863, -0.08221772, -0.075386435, -0.08336756, 0.097224444, 0.08744812, -0.09358445, -0.08887166, -0.12150395, -0.09185028, 0.014990717, 0.03283918, 0.06470859, 0.059992373, 0.07593924, 0.012874097, -0.08947739, -0.00086405873, 0.05302626, 0.08060932, 0.07669458, -0.06236112, 0.070372224, 0.017221093, -0.026582092, 0.030492067, 0.06571138, 0.033997566, 0.067828715, -0.10387558, -0.09312311, -0.022063226, 0.052044302, -0.015411794, 0.12429491, -0.069342196, 0.026790023, 0.04870352, -0.10640246, 0.043378353, -0.10327858, -0.084857106, -0.03140676, -0.009272218, -0.063382685, 0.027192146, -0.11415154, 0.06477973, 0.07190949, -0.105701685, 0.034841985, 0.034282237, 0.027829438, 0.07222274, 0.015169561, -0.043818057, -0.07820466, 0.016688138, -0.092604876, -0.083782166, -0.013536692, -0.056068063, 0.0072229505, -0.09138322, -0.038249344, 0.10713369, 0.1097883, -0.104117006, 0.060043395, -0.092347145, 0.017860413, 0.08780357, -0.026611716, -0.026286453, 0.11093938, -0.023416251, -0.06913087, 0.06369808, 0.098584086, -0.0005630553, 0.02007103, 0.048243433},
    {-0.18845099, 0.09585027, -0.02150113, 0.094984666, -0.099853694, -0.010855997, -0.006182351, 0.03968418, 0.071688645, 0.016944012, -0.17783785, 0.034914162, 0.16874208, 0.051446855, 0.16501814, 0.06302242, -0.12310056, -0.08347958, -0.021409024, 0.08901466, 0.06858475, 0.05605189, 0.11467002, -0.07441694, -0.21466441, -0.026829544, 0.13223197, -0.17629895, 0.042494744, -0.09634507, -0.13418347, -0.041371997, 0.03503957, -0.036962684, -0.09632335, -0.028195394, 0.091345176, -0.04443122, -0.037331853, -0.13158256, -0.009068395, 0.008410485, 0.05065532, 0.14932527, -0.046406277, 0.051344033, 0.051752288, -0.18423386, 0.08526904, 0.21666002, 0.043466505, 0.11310496, 0.05399286, 0.0059102406, 0.04986415, -0.11733655, -0.055768218, 0.030017266, 0.09896143, -0.018645598, 0.13513318, -0.06505778, 0.036284775, -0.08612367, -0.1238265, -0.16777854, -0.19106935, -0.0049091363, 0.06590331, -0.17606114, 0.016360575, -0.06749358, 0.06528168, 0.0833013, -0.03026856, 0.036715586, 0.05262115, -0.22085959, 0.14718327, 0.1842321, -0.01510971, -0.0021258085, -0.19456024, -0.107957736, -0.055209227, 0.09110876, -0.03756445, 0.010339936, -0.11046979, 0.07380537, 0.1559341, -0.12631549, -0.024141464, 0.15497959, -0.17899798, -0.043204524, 0.02447685, -0.08572612, 0.07240706, 0.10172586, -0.010244519, -0.011292633, 0.122588605, 0.0672701, -0.03510189, -0.09425419, -0.0073994435, 0.031045191, -0.03727915, 0.1995715, 0.032300603, 0.07334915, 0.0767843, 0.10206071, 0.17820829, 0.013604077, 0.11701624, -0.008910943, 0.010581156, 0.028549384, -0.051659074, 0.10337944, 0.06837217, -0.058750987, -0.054478075, 0.07324445, -0.10574208, -0.06457015},
    {-0.04339104, 0.031120593, -0.12929356, -0.025627898, 0.03372098, 0.018966546, 0.08865375, 0.13022728, 0.0631446, 0.06810211, 0.08361985, 0.06454367, -0.20418976, 0.0244762, 0.042962167, 0.042973496, 0.07539453, 0.11353517, -0.07521857, -0.07556057, -0.041676935, -0.0304447, -0.1631786, -0.044938266, -0.10915357, -0.20080496, 0.039790507, -0.04267541, -0.122265086, 0.05995419, -0.023313755, 0.0953036, 0.033721253, -0.004043342, -0.06299222, 0.054599345, -0.13972285, 0.015908679, 0.062008638, -0.079934664, 0.11604739, -0.06430081, 0.10805436, -0.06443953, 0.002694754, -0.044989407, 0.008197122, 0.02997241, 0.0021731653, -0.08145024, -0.0028554753, -0.0611781, 0.1250178, -0.046309292, -0.14903988, 0.17565519, -0.025812656, -0.13165511, -0.08216017, 0.19729066, 0.13140756, -0.07385882, -0.06998899, -0.12227887, -0.0071586343, 0.06168146, -0.0051076584, -0.039677147, 0.02564641, -0.03163042, 0.032968525, 0.19957279, -0.07521596, -0.18403888, 0.08276487, 0.0640924, -0.008175932, 0.1477741, 0.018468913, -0.19962601, -0.080833025, -0.012109916, 0.14345472, -0.03992979, 0.05796119, -0.02031086, 0.005746185, 0.009884036, -0.006581974, 0.13334304, -0.19751334, 0.10703677, 0.09015919, -0.118230104, 0.06979489, 0.11840625, -0.017461937, -0.0018840585, 0.056824006, -0.14644939, 0.15015335, -0.053478353, -0.0840833, 0.005425452, -0.13170835, 0.08394495, 0.012144796, -0.06712553, 0.032770105, 0.0017386965, 0.09263457, 0.13343216, -0.058573224, 0.056007773, 0.028599776, 0.07206212, 0.10758577, 0.007582559, 0.07075687, 0.08693703, 0.05500156, -0.09499785, 0.04654966, -0.05051974, 0.12391698, 0.16709737, 0.14863439, 0.108674094},
    {-0.16098048, -0.027289767, 0.07662839, 0.017125914, -0.114576034, 0.0081171505, -0.111280344, 0.12214753, -0.10228795, -0.022712013, -0.20822257, -0.061090797, 0.14387178, 0.10237038, 0.17483643, 0.01233574, -0.18854769, 0.068542875, -0.17257237, 0.17793694, -0.14667638, 0.10787459, 0.08572836, -0.17612864, -0.10922403, 0.105313554, 0.080432735, -0.028468573, 0.15911874, -0.09357329, -0.10836327, -0.16257446, 0.016511654, 0.020299144, 0.034920152, -0.051493287, 0.16679457, -0.06314959, -0.16520311, 0.096873894, -0.07740579, 0.20748982, 0.09329155, -0.0025395078, -0.10187703, 0.10650626, 0.15405186, -0.19629231, -0.04885127, 0.0074115247, -0.08827515, 0.08571428, -0.05775879, -0.020843152, 0.06399625, -0.0018831977, 0.0015633219, 0.14825447, 0.026288327, 0.024831051, -0.0999502, 0.014145389, -0.019580431, -0.10390383, 0.045510996, 0.08842181, 0.030370029, 0.06118079, 0.023324078, -0.100728884, -0.11831436, -0.037423085, 0.102480926, 0.13936338, -0.10362926, -0.11297196, 0.0036457404, -0.015892511, 0.011594375, 0.037313465, 0.08558451, 0.014217254, 0.0027560543, -0.05500176, -0.0028313063, 0.17910714, -0.006240305, 0.15331234, -0.1679951, 0.020089403, 0.07371315, -0.185112, 0.074239165, 0.12065912, -0.10386673, -0.090204895, 0.070958905, -0.08276587, -0.09205077, -0.027370512, -0.15351966, 0.049260143, 0.097673245, 0.1303986, -0.15710935, -0.09651057, -0.19361073, 0.00017825722, -0.13671343, 0.11769045, 0.19428095, -0.18266644, -0.0588934, 0.08044714, 0.038201906, 0.1719734, -0.08875656, 0.08991299, 0.1841511, 0.15492876, -0.111651756, 0.17040184, 0.21681282, 0.05908063, 0.07296431, -0.093039304, 0.0021995057, -0.105201006},
    {-0.065936685, -0.036873966, -0.06359279, -0.09371081, 0.10141727, -0.05611244, 0.03769943, -0.106297255, 0.115039855, 0.008692235, 0.109368026, -0.028124183, 0.03233069, -0.075252, -0.006602764, 0.0021692514, 0.053953946, 0.1035482, 0.0022249818, 0.054506958, 0.033398688, -0.07127187, -0.07862115, 0.11361104, 0.09538704, 0.04463297, 0.016058117, -0.08005023, 0.018897265, 0.0039547086, 0.08504918, 0.111106694, 0.11797771, 0.02215141, -0.087534755, 0.020208746, -0.011242092, -0.033629, -0.124565005, 0.08994284, 0.10501221, 0.009770781, 0.033974975, 0.040173233, -0.10870096, 0.08737096, 0.017641425, -0.04933721, 0.12475771, 0.058865935, -0.08853045, -0.09607813, -0.1165857, 0.091086, 0.047174722, 0.024172843, -0.11176208, 0.038339913, -0.04545769, -0.094819754, 0.0817678, -0.022656083, 0.06649363, -0.005062878, -0.07628387, -0.039325655, -0.1091775, 0.06126985, -0.10618603, -0.067218125, -0.009521514, -0.06435925, -0.0053466856, 0.023147643, 0.09884089, -0.06331107, -0.019077957, 0.026881069, -0.10947552, -0.012279928, -0.022537708, 0.07825333, 0.11888534, -0.010398954, 0.056685627, 0.038732857, 0.036621273, 0.09201029, -0.036010504, 0.1001181, 0.09584904, -0.10202131, -0.007283956, -0.11581305, 0.057823867, 0.08613795, 0.008929908, 0.09214139, 0.10536319, -0.05181855, 0.10931963, 0.075273484, -0.062247723, -0.083750665, -0.124212176, 0.008584499, -0.10907453, -0.074376434, 0.041043133, 0.020027578, -0.0036493838, 0.015307009, 0.0767788, -0.031305343, 0.11281109, -0.086019635, -0.097764015, -0.099618584, 0.032152355, -0.028106183, -0.10571432, -0.09426561, -0.0032132566, -0.009891182, -0.042194873, -0.09866962, 0.018502682, -0.025139809},
    {-0.053397194, -0.06546859, -0.11710319, 0.07432117, 0.09933465, -0.10667367, -0.060648736, 0.009167294, -0.10830903, -0.026163746, 0.013155796, 0.0040866476, -0.058178525, -0.009463826, 0.102057874, -0.071604624, 0.02396247, -0.092015386, 0.040187903, 0.12210348, -0.118457526, -0.094030775, -0.09155788, -0.06670398, -0.01727318, 0.09295785, 0.068966135, 0.03554038, -0.0703662, 0.00047327185, 0.042089704, 0.08802266, 0.02270785, -0.11137867, 0.05106578, -0.028949857, 0.098899186, -0.00077596086, -0.019850273, 0.12012066, 0.10873819, 0.10780273, -0.09864535, 0.10478902, 0.04463389, -0.0026518295, -0.0027843816, 0.084832355, 0.050402764, 0.013068381, 0.061078377, -0.09157989, -0.06658384, 0.020312516, 0.061955336, 0.05990967, 0.10361019, 0.056288347, -0.09207636, -0.018717747, -0.024644459, 0.026164822, -0.07664749, 0.10653311, -0.09690231, 0.10627324, -0.066077664, 0.065393865, -0.05372168, -0.01540339, 0.11050582, 0.043214276, -0.033521235, 0.082290106, 0.09703606, 0.1085478, -0.045093287, -0.06724611, 0.11139044, 0.033100415, 0.0945822, -0.077473916, -0.038883556, 0.018618202, 0.057139687, -0.05150461, 0.0508591, -0.11049225, -0.008669652, -0.01781301, -0.12138124, -0.08640166, -0.05292951, 0.07660146, -0.061351564, 0.026583603, 0.055323347, -0.019639105, -0.07567277, 0.060620524, 0.06368814, -0.06129664, 0.04760281, -0.09644183, 0.10095244, -0.01780039, -0.024602622, -0.11010751, 0.037103146, 0.08552045, -0.07648212, 0.0033699994, 0.01835806, -0.033721473, -0.104723416, -0.077601805, 0.10350236, -0.102324784, -0.10101119, -0.055646826, 0.11848935, -0.107130736, 0.08437926, -0.10537708, 0.10707755, 0.025045466, 0.07326009, -0.10408438},
    {-0.043080688, -0.009545833, 0.05469033, -0.07585615, 0.030103385, 0.07872856, -0.04489553, 0.044496924, 0.09408492, 0.021491677, -0.0956026, -0.00082957745, -0.07537407, -0.06380746, 0.054227978, 0.054823905, -0.09333044, -0.053696692, 0.03693974, 0.05677837, 0.028368175, -0.10288915, -0.09386155, 0.07469475, 0.07518691, 0.069701344, 0.06771842, 0.020653099, 0.03609526, 0.042677015, 0.10861948, -0.0842869, -0.047798842, 0.11725697, -0.084218234, 0.008689165, -0.058953345, 0.05303082, 0.08970472, 0.029776365, 0.08016917, 0.1161274, -0.047319382, 0.032337457, -0.0955601, 0.104819685, 0.020543545, 0.0019119978, -0.044406563, 0.045779794, -0.0617494, 0.08437306, -0.08292583, 0.10055724, -0.120373756, -0.12378949, 0.005904287, -0.07106015, 0.11485165, 0.058360517, -0.044924885, -0.09275019, -0.033835232, -0.0098553, -0.0153873265, -0.05346179, 0.11729506, -0.096839875, 0.07782361, 0.062869966, 0.08048296, 0.007090509, -0.02259326, -0.05660999, 0.04480076, 0.062491626, -0.045657426, -0.010705352, -0.08945051, 0.02052018, 0.035855204, -0.0023309588, 0.043942243, 0.045171827, -0.08719236, -0.089907646, 0.051317394, 0.07202664, 0.034685552, 0.02591601, -0.05746922, 0.086280555, 0.089246064, -0.049462557, -0.07996622, 0.06764877, 0.1013442, -0.12437588, 0.00684762, -0.055856615, 0.11472842, -0.094861746, -0.09083247, 0.10551888, 0.10225484, 0.08838898, -0.035271496, -0.08458793, 0.10565364, 0.013201743, 0.0021346807, 0.052572787, -0.05147651, 0.1238603, 0.03942877, 0.01689753, 0.020106226, 0.08459705, -0.08077246, 0.040638506, 0.027180046, -0.017739117, -0.052801847, -0.002293855, 0.06025079, -0.05676675, 0.12414661, 0.06104803},
    {0.010172402, -0.069439955, -0.029433846, 0.001953993, 0.099419005, 0.09299516, -0.10256486, 0.11241413, -0.018605769, -0.08574399, -0.05868377, -0.031391174, 0.08230485, 0.04621303, -0.007901549, -0.06999803, 0.06014944, -0.0022454988, -0.032460053, -0.06576899, 0.09021571, -0.080530845, 0.058922023, -0.012860453, 0.038241833, -0.11011033, 0.0767441, -0.09405906, 0.093809396, 0.054874294, -0.10202824, -0.018116422, 0.02492237, -0.124069005, -0.12389932, 0.011741877, 0.046799995, -0.12698732, 0.024159716, 0.11837733, 0.03338221, 0.014316131, 0.011099206, 0.09942369, -0.11290766, -0.04072237, -0.11610643, -0.122593634, -0.10123553, -0.0007628758, -0.06371588, -0.08748143, -0.06774092, 0.027162733, -0.06919019, -0.034237266, -0.015957244, -0.048374977, 0.034915518, -0.08261143, -0.01294321, -0.070551425, 0.015231764, 0.002647519, 0.0066954195, -0.054280967, -0.09316678, -0.027638141, -0.071251355, -0.05323723, -0.010821771, 0.08157907, 0.038413964, 0.049255166, 0.027192928, -0.07742939, -0.07321583, 0.075848304, -0.06721565, 0.00055233773, -0.044338524, 0.00070118246, 0.030272475, 0.034089327, 0.10934945, -0.05689774, -0.013254961, 0.090798736, 0.040472906, -0.10848779, -0.026380368, -0.09051551, -0.0050836466, -0.024356704, 0.012140199, 0.03282956, -0.029647645, 0.05158433, 0.08166022, 0.05955707, 0.046840888, 0.11085409, 0.0830771, -0.0988023, 0.079074785, -0.04899764, -0.0017324388, 0.04913663, -0.05919233, -0.044736374, -0.10040375, 0.04441009, -0.025742419, 0.11312592, -0.08618055, 0.04723848, -0.026119798, -0.07840557, -0.025445491, 0.09118817, 0.0347986, -0.011030942, 0.08327452, 0.12316507, 0.08318751, -0.08646952, 0.08300677, 0.105453975},
    {-0.10703166, 0.03759611, 0.100299686, -0.074242085, -0.107515626, -0.12249889, -0.12768286, 0.047256537, 0.051379494, 0.019763276, 0.06367641, -0.011334438, -0.09690676, -0.0012665241, 0.08426726, 0.08558024, -0.07570476, -0.07970939, -0.030123685, 0.08121616, -0.023332056, -0.033668987, 0.098416135, -0.0031119492, -0.08341935, 0.05654055, -0.08157538, -0.07451928, 0.011049368, -0.015036012, -0.11392269, -0.036000337, 0.06835973, 0.073424235, 0.046686064, 0.011760765, 0.047764186, 0.114196226, 0.01870087, 0.090769365, -0.08452016, -0.072102904, -0.031045109, -0.10447664, -0.109703824, -0.049717933, 0.099713616, 0.077149294, -0.12734447, -0.090872765, 0.05022228, -0.019524168, 0.087600105, 0.022545123, -0.08013042, -0.016733317, -0.050935354, 0.07192718, -0.115738325, 0.05042712, -0.038671773, -0.0057462244, 0.106120616, -0.11400628, -0.0031227542, -0.12504688, 0.010033458, -0.047824077, -0.02711138, 0.044048868, -0.06852665, 0.004220273, -0.024815744, -0.10056332, 0.042822927, -0.026823044, -0.10042121, -0.12089455, 0.029183578, 0.028976642, -0.10265811, 0.027392447, 0.011074687, -0.044236433, 0.09217398, -0.121815644, 0.06567505, -0.037915606, 0.09991931, 0.08730914, -0.09379105, 0.0212584, -0.08015373, -0.037864238, -0.083086856, 0.09776591, -0.115969315, -0.031916637, 0.06265974, 0.11746642, 0.026545672, -0.015146876, -0.078657925, -0.051207904, -0.008308772, -0.09791414, -0.11926621, 0.10452613, -0.06283447, -0.002352029, 0.0721879, 0.016547937, 0.07012962, -0.007792448, 0.08024629, -0.0039264574, -0.10281966, -0.08550533, -0.031472225, 0.08947041, -0.0029679607, 0.07380241, 0.009154626, 0.077795476, -0.122607134, -0.026592558, 0.06854382, -0.10811183},
    {-0.0067647696, -0.09906602, 0.07220116, -0.117707044, -0.020243734, -0.11012119, 0.013245583, -0.029865026, 0.054899633, -0.059661835, -0.017871857, 0.0928075, 0.025289893, 0.010538578, 0.05907327, -0.10961947, -0.094619334, -0.07013494, -0.004501134, 0.11286482, -0.041801184, 0.072333366, -0.119760305, 0.03459528, -0.079129905, -0.11205712, 0.086983174, -0.01669684, -0.07508886, 0.122296005, 0.08306679, -0.013280243, 0.10947394, -0.033982396, 0.08290923, -0.06383833, -0.09568086, 0.021009594, 0.024078041, 0.07208255, -0.019082338, 0.120334595, 0.015959173, 0.08613056, 0.061850756, -0.101077765, 0.10819936, -0.037982017, -0.06099409, -0.10700324, -0.029603183, -0.0608415, -0.011215985, 0.052520484, 0.109282434, -0.08319163, -0.059753835, 0.07649797, 0.06336513, 0.057032973, -0.04484272, 0.10470027, 0.0014794767, 0.015458584, -0.11914086, -0.028370261, -0.032542467, -0.11349103, -0.10724208, -0.010753036, 0.102021486, 0.06909558, 0.10245791, -0.0057368875, 0.06050563, 0.105033726, -0.079046816, 0.039599866, -0.06944832, 0.0053091347, -0.09599969, -0.0022361577, 0.06535378, -0.123419315, -0.07641074, 0.017128289, -0.08931765, 0.117740065, 0.08610669, 0.024211794, 0.085537165, 0.038586646, 0.0076262057, 0.03795713, -0.10714838, -0.02587971, 0.029184759, -0.03715843, -0.07240364, -0.06759718, 0.03522411, -0.0053028762, -0.040885806, -0.08872628, -0.055742085, -0.07141903, 0.06761885, -0.024816751, -0.12184173, -0.06284225, -0.09668556, -0.11388275, 0.004796535, -0.042333692, 0.055672973, 0.048867375, 0.10981673, 0.09869489, -0.027106076, 0.076643825, -0.074732184, 0.035717487, -0.061226934, 0.046342283, -0.050875425, 0.0871124, 0.04680252, -0.08099243},
    {-0.1721633, 0.01480738, -0.09720282, -0.032666873, -0.03504562, 0.069981955, -0.040160667, 0.20831856, -0.07178995, -0.107484706, 0.08059882, 0.108163156, 0.047994602, 0.13119237, 0.025715446, 0.15747847, 0.0029307092, -0.19627161, -0.06336953, 0.14381444, 0.0044727237, 0.07450977, 0.02692031, -0.1587415, -0.016987722, 0.008764633, 0.17510435, 0.017569521, 0.07943871, 0.025610156, -0.049425054, -0.116297394, 0.07387657, 0.089167744, 0.009865318, -0.00025445223, 0.08922641, -0.034649827, -0.040405277, 0.040112436, -0.18128757, 0.15254354, -0.11738005, 0.21172322, -0.12862396, 0.1434725, -0.01736626, -0.04868206, -0.073384546, 0.08386068, -0.05494254, -0.020314015, -0.06890984, -0.17854714, 0.20675191, -0.18188001, -0.03833675, 0.18616483, -0.073877566, -0.10122803, -0.16537884, 0.09958121, -0.1710042, -0.100033075, -0.16762085, 0.03658982, -0.15807538, -0.0927243, -0.028227603, 0.060897786, -0.17715512, 0.020417506, -0.0387086, 0.037932567, -0.052081097, 0.030966463, 0.22130945, -0.016029034, 0.0009050577, 0.056978483, 0.0945148, 0.17479245, -0.16501877, 0.04251619, 0.006448472, -0.109210275, -0.022363123, 0.016154276, 0.040673938, 0.19171624, 0.017865095, 0.018338282, -0.045467332, -0.024035862, 0.005204114, -0.15415335, -0.032650277, 0.13347487, -0.031336166, -0.10287846, -0.22706497, 0.057107817, 0.20058793, 0.09147842, -0.03386502, -0.04653136, -0.18638642, 0.18583153, -0.1797805, 0.16464244, -0.017704846, -0.03922067, 0.15258949, -0.10876127, 0.033221405, 0.000946743, -0.016398132, 0.08038308, 0.050177164, 0.052139185, -0.1625794, 0.20070261, 0.009292544, 0.031986475, 0.14756295, -0.1587192, -0.1446126, -0.0027004122},
    {-0.106773525, 0.14600421, -0.048807703, -0.07753895, -0.040176015, 0.0843025, 0.019046094, 0.11023034, 0.026129305, -0.10822497, -0.08882382, 0.075129405, 0.16604413, 0.05062648, 0.10806415, 0.023756089, 0.02447611, 0.0077460282, -0.061068717, 0.059700716, -0.052036528, 0.024052573, 0.040880106, 0.048473902, 0.012217994, 0.1256225, 0.16314107, 0.012976701, 0.0600561, 0.13172491, 0.015571781, -0.09561812, 0.0690302, -0.16117416, 0.08922977, -0.03541058, -0.058747914, 0.13224198, 0.02934602, 0.02735425, -0.08345617, 0.14871967, 0.06975899, 0.08729279, 0.14516884, 0.10352212, 0.10795755, -0.028594775, 0.026373753, -0.015468826, 0.010788774, 0.12158509, 0.05642587, -0.09047211, 0.030785177, -0.12324962, 0.1530266, 0.055646647, 0.065497026, 0.04687973, 0.006371304, -0.07547215, -0.054432154, -0.024158766, 0.033923406, 0.12189351, -0.013320118, 0.080373496, 0.06519808, -0.079623714, -0.060069088, 0.07479476, -0.1276932, 0.12712747, -0.055127453, 0.12948275, 0.09244603, 0.024459142, 0.083340906, 0.07875792, -0.092328034, 0.15587744, -0.07556158, -0.005971663, -0.061751522, 0.052609447, 0.014785832, 0.048031595, -0.0718226, 0.13353755, 0.14072807, 0.0869861, -0.0055613494, 0.030970668, 0.049673654, 0.0076207886, 0.07456882, -0.0418615, -0.020827146, -0.040617097, 0.051318392, 0.116937146, 0.050081786, 0.13054642, -0.07863987, -0.08291466, -0.062292635, -0.014358282, -0.057915527, 0.16952626, 0.15869257, -0.04443444, 0.17108968, 0.14199717, 0.1196161, -0.042222828, -0.058392335, 0.19284646, -0.009598447, -0.014546515, 0.1332944, 0.051267218, 0.16762179, -0.015481522, -0.052335445, -0.0454331, 0.09158675, -0.035968635},
    {-0.05672199, 0.040623516, -0.01997715, -0.03872369, 0.07291934, -0.02334854, 0.058435537, 0.12014438, -0.026741263, -0.16823412, 0.09201253, -0.18159819, 0.14182992, 0.16801181, 0.030387327, 0.10000007, -0.011026101, -0.07482529, -0.057433914, -0.10461629, 0.012523413, -0.046564955, 0.18430424, -0.118196346, -0.098390706, 0.1976965, 0.14584595, -0.19404426, 0.11132256, 0.083727196, 0.027454583, -0.14409886, 0.12057838, -0.17770185, 0.15239745, 0.09350496, 0.18504967, 0.065500885, -0.050121438, 0.027790124, -0.07825528, -0.027416114, 0.03617329, 0.052353665, -0.073028296, 0.030915502, 0.05901168, -0.14244871, 0.08108012, 0.009307046, 0.07933579, -0.0016058829, -0.12267637, -0.068458736, 0.17571203, -0.12475701, -0.017444246, 0.16729459, -0.018297192, -0.11857156, 0.20506546, -0.045003105, 0.05782198, 0.021199737, -0.043947935, -0.045564756, -0.06364193, 0.08011352, 0.10413142, -0.037899066, 0.14603283, -0.11543174, -0.042469196, 0.062038098, -0.07983255, -0.007751263, -0.0341408, -0.013119628, 0.036959548, 0.16459435, -0.071756534, 0.00015069268, -0.023975022, 0.037346892, -0.19418754, 0.004939486, 0.017534923, 0.0035070053, 0.12605008, -0.045561373, 0.12102543, -0.04921586, -0.0024692744, 0.18140937, -0.040124435, 0.10041686, 0.08192015, -0.18145975, 0.033836193, 0.06773191, -0.13219158, 0.009006949, 0.15466595, 0.19868244, -0.00467091, 0.024936209, -0.07627175, 0.012301119, -0.04288149, 0.11245705, 0.020766355, -0.13345815, 0.08381951, 0.08028505, 0.0044448064, -0.13419096, -0.0133032305, -0.0026646743, -0.03446309, 0.04298088, -0.035729863, 0.18768273, 0.01194541, 0.07998165, 0.10433044, 0.072450936, 0.0054468876, 9.388792e-05},
    {-0.01438476, -0.0013737829, 0.059286237, 0.05713759, 0.02010285, 0.14199638, -0.026689932, -0.031930823, 0.057052884, 0.18401742, -0.0387949, -0.09766825, -0.12783565, 0.11090645, 0.13663879, -0.084406585, 0.10568371, 0.13968614, 0.06559379, -0.04719899, 0.12564364, -0.15162264, -0.100996345, -0.010573701, -0.13467449, -0.11328914, 0.066632785, -0.022165967, 0.047174398, -0.05408563, 0.015442155, 0.057241585, -0.015995355, -0.19683242, -0.16924141, -0.08685987, 0.09434204, -0.012133263, -0.20928653, 0.12642892, 0.09523974, -0.13422625, 0.10207453, 0.10588704, 0.06510388, -0.086530976, -0.06672293, -0.1356504, 0.04719498, -0.105891965, -0.009475696, 0.0059850886, -0.17829964, -0.01852664, 0.13898334, 0.070242964, 0.07728225, -0.1667424, 0.03031082, 0.006725988, -0.07416296, -0.06876894, -0.037926286, -0.11636853, -0.0033628582, -0.005087249, -0.1428036, -0.046721477, 0.11586961, 0.12810485, 0.041996684, -0.019748451, 0.06113887, 0.0036039602, -0.014241488, 0.1173819, -0.03943251, 0.14803867, 0.015767591, -0.07813164, -0.1960479, -0.07520981, 0.18723851, -0.16885485, 0.12892461, 0.16181736, 0.115831524, -0.033651892, -0.08776161, 0.17219585, -0.06071535, -0.14733468, 0.097558945, 0.059449073, 0.12324222, -0.053208914, -0.03150347, -0.11694118, -0.080717325, 0.07634957, -0.11936826, 0.19304736, 0.037176553, 0.12830773, -0.15771395, 0.010064641, 0.036102246, 0.044134516, 0.14560993, 0.20791826, 0.17878118, 0.12531345, 0.0028052803, 0.0631061, -0.06156845, 0.08251882, 0.047415823, 0.1815536, 0.09798407, 0.15652019, 0.16926591, 0.1657779, 0.042144984, -0.06151715, -0.03293444, 0.1771411, 0.018187119, 0.012695571},
