#ifndef NEUROVERKONKERTOIMET_H
#define NEUROVERKONKERTOIMET_H

float weights_0[3][256] = {
    {-0.13952386, -0.076134264, -0.047856685, 0.06231955, 0.16001771, 0.2048227, -0.06859993, 0.08544343, -0.10191222, -0.082961455, -0.14443852, 0.029984172, 0.1533049, -0.09885895, -0.00074534095, 0.021113819, 0.021684906, 0.09759657, 0.014557824, 0.0878635, -0.14889432, 0.04683814, -0.0698477, -0.103301935, 0.22203037, 0.13907836, 0.22702402, -0.13586308, 0.18276842, 0.0326606, 0.022955969, 0.22687487, 0.017957706, -0.047041923, 0.015209125, 0.12649918, 0.16168924, 0.18011346, -0.012327582, 0.13218027, 0.22967675, 0.20120817, 0.16220924, -0.14229085, 0.18893445, 0.18948768, 0.17992032, 0.0833231, 0.19343626, -0.15146488, -0.14906877, -0.14321135, -0.23852876, 0.09058896, 0.105503455, 0.057463363, -0.1740486, -0.19115716, 0.2070817, 0.2144427, 0.00079253316, -0.030259203, -0.21988, -0.058067888, 0.11361906, -0.19976985, 0.09934729, -0.030977458, -0.043006834, -0.02504225, 0.22447783, 0.084515266, 0.08719998, 0.21238947, -0.09566802, -0.07287849, -0.030144267, 0.18790191, 0.14415537, 0.23946238, 0.21626516, 0.19099078, 0.14951736, -0.071581446, -0.061555117, 0.014218205, -0.0035384397, -0.07287084, 0.21767104, 0.19868049, -0.0043045245, -0.17721328, 0.20905349, -0.034996044, 0.17132738, -0.14897683, 0.21150008, 0.19073956, 0.07448479, 0.045359343, -0.020447329, -0.14578094, -0.06445579, -0.12329379, 0.039453626, -0.2352674, 0.022069478, -0.08308797, 0.18596263, -0.14850077, -0.10493444, -0.053043995, 0.17121868, 0.19149837, 0.09027787, 0.045099642, 0.22070104, -0.12294881, 0.038375646, -0.10368185, 0.17547444, -0.06864827, 0.18811926, -0.10077188, -0.14803803, 0.05236981, 0.07578203, -0.07781751, 0.011209298, 0.15672274, 0.14913212, 0.2350836, 0.01918823, -0.11015039, -0.027897475, 0.17688827, 0.21978839, -0.15122926, -0.03916646, -0.05798689, 0.1868184, -0.20747592, -0.1836659, -0.008735523, -0.056209404, -0.07868753, -0.17297916, -0.16543695, -0.028803982, -0.09428917, 0.042027954, -0.0035690067, 0.19300374, 0.16254228, -0.09772496, 0.042055946, 0.048276126, 0.13442332, 0.07175242, 0.07386443, 0.132919, -0.19725503, 0.15852228, -0.15611035, 0.13655086, 0.008482441, 0.063224, 0.101107806, 0.21972199, -0.13701433, -0.101258256, 0.19167943, -0.11076227, -0.06670916, 0.05913415, 0.20819108, -0.22618844, -0.15773045, 0.03752672, 0.14972283, -0.028233193, 0.19214213, 0.07321935, -0.13385677, -0.15870109, 0.19530389, 0.13799797, 0.2110725, -0.11675733, -0.12588182, -0.18045923, -0.017978713, 0.22269206, 0.12842293, 0.15672004, 0.042222578, 0.025356874, 0.081352115, -0.119857065, -0.112015784, -0.17603576, -0.21970789, 0.018802512, 0.17306858, -0.122137606, 0.14950904, 0.23592803, -0.06600997, -0.09293191, 0.1817812, -0.1261232, -0.075999685, 0.1780907, 0.14547834, 0.21721143, 0.13534501, 0.1000339, -0.02081679, 0.020268533, -0.11698394, 0.09722683, 0.18313114, 0.08886081, -0.091330186, -0.15277502, 0.042684976, 0.22673795, -0.08850595, 0.1843529, -0.11421698, 0.20923914, -0.038689353, 0.1524233, 0.020401714, -0.12691933, 0.16359667, 0.22175573, -0.105383866, 0.19522683, -0.06359281, 0.08178043, -0.12459495, 0.10749209, 0.043158546, 0.21912733, -0.031923976, -0.028713249, -0.14774679, -0.20515834, -0.10501532, 0.17236058, -0.18416122, 0.11695075, 0.04217984, -0.11928483, -0.16427907},
    {0.051800117, -0.122082934, 0.19097807, 0.15461023, -0.20146303, 0.19860408, -0.15083806, -0.17646441, 0.24236692, 0.1873799, 0.19939172, -0.12235414, -0.05925456, -0.14232445, 0.068616405, -0.16592196, -0.016967306, -0.23129348, -0.05610963, 0.23385885, -0.050203614, 0.24776818, -0.034801178, -0.1301266, 0.13949814, -0.18040757, 0.07507981, -0.09122437, -0.063320644, -0.00017111408, -0.10025343, 0.10684926, -0.16064931, -0.047616802, 0.17931099, -0.23592602, -0.17157862, 0.0637407, -0.09101115, -0.24987623, -0.10122801, 0.07913185, -0.16070776, 0.19524163, 0.17194979, 0.09851749, -0.014949669, -0.057970166, 0.23504995, -0.10849972, 0.14043702, 0.18596819, 0.037813146, 0.14725244, 0.07162668, -0.14942047, -0.030760372, 0.19708645, 0.027081745, 0.2124649, -0.13181886, -0.116191074, 0.21851733, -0.08216803, -0.110934116, 0.14515717, -0.051778287, -0.15147872, 0.10196139, -0.13035558, -0.045588158, -0.23889558, -0.14688781, -0.16712035, -0.07141358, 0.20870385, 0.20190822, 0.20393027, 0.16773105, 0.13568829, -0.10811477, -0.057777938, 0.18924142, -0.09565295, -0.034437828, 0.1931925, 0.239208, -0.08607199, 0.16574074, -0.0994407, -0.16316518, 0.11316796, 0.11005019, 0.097963184, 0.0019506613, -0.028804917, 0.22654934, 0.23991825, -0.18665451, 0.16982812, -0.010647327, 0.16465388, 0.18192735, 0.18239933, -0.083262995, 0.08414782, -0.076598376, 0.2118679, -0.15749124, 0.0010721445, -0.13170369, 0.2127285, -0.09509718, -0.09976583, 0.11582442, 0.21945578, -0.047762297, 0.10489949, -0.13800178, 0.039687403, 0.024806706, -0.08468927, -0.087900534, -0.021346003, 0.07353103, 0.08874605, -0.08401091, -0.090969235, 0.18247576, -0.10464122, -0.10401871, 0.12151185, 0.23176673, 0.06333203, -0.18451363, 0.14995861, -0.03558069, -0.028088622, 0.14483576, 0.22740494, -0.084885, 0.09409434, 0.06900069, -0.13958614, 0.098600544, 0.17208716, 0.1278464, 0.23780347, -0.11821539, 0.03602907, 0.20976906, 0.23744327, 0.041407842, 0.092004344, -0.11166328, 0.21365441, -0.07191794, -0.018972164, -0.18878958, -0.24063459, -0.080628835, 0.14795795, 0.1818102, 0.15689413, 0.06533385, -0.092732154, -0.085297324, 0.19825557, 0.16926986, -0.07402785, 0.1973773, -0.069651216, 0.06484823, 0.20894517, 0.17821488, 0.045827974, 0.049066696, 0.0020355769, -0.1653244, -0.15593287, -0.0079527795, 0.17993183, -0.14084804, -0.10274531, 0.16606644, 0.19958982, 0.054341145, 0.10767687, 0.0049035293, -0.08886996, 0.15384242, -0.09962013, -0.075964406, -0.13906763, -0.20948197, 0.09380257, -0.0773864, -0.23983124, 0.17756909, -0.00405346, 0.19559245, 0.06398264, 0.0659326, 0.07027981, 0.077969834, 0.20174733, -0.14582117, -0.099990636, -0.13890164, -0.011962484, -0.04091125, -0.1431946, -0.020134782, 0.020363273, 0.06695924, 0.21637759, -0.18971033, -0.14519013, -0.01851682, -0.09280023, 0.22130312, 0.013236829, 0.008754065, 0.1949803, 0.2026539, -0.019199084, 0.14605115, -0.10501452, -0.11519827, 0.1816064, 0.1506496, -0.005941257, 0.08201693, 0.08985147, 0.1885214, 0.1309148, 0.13326742, -0.02203001, -0.029415399, -0.005149737, -0.10997046, -0.026045576, -0.00746291, -0.10818847, -0.114095755, 0.13114986, -0.09534852, 0.06245068, 0.14922516, -0.095312245, 0.10612494, 0.021451527, -0.121718585, -0.18293482, -0.06211282, 0.01339076},
    {-0.11062708, 0.16320549, 0.03492599, -0.087226264, 0.11840122, -0.042456124, 0.19078144, 0.05795448, 0.1400311, -0.17381616, -0.0104217995, 0.2246269, 0.10302096, 0.07982598, 0.22780155, 0.15621153, -0.1477554, 0.1703256, -0.070596725, 0.112410724, 0.009180412, 0.103521235, -0.10231297, -0.08056424, -0.13490686, 0.09110048, -0.11929478, 0.022980615, -0.1281157, 0.19166325, -0.09406796, -0.091356754, 0.16391267, -0.14188446, -0.04265501, 0.019665305, 0.07214264, 0.23027293, 0.013023913, 0.0621524, 0.13987532, -0.10704798, 0.0005890421, 0.21697822, 0.17606072, -0.05203141, -0.16851339, -0.10392141, -0.118344925, 0.08831605, 0.12843655, 0.067547776, 0.038486734, 0.072746634, 0.16581148, -0.14712629, 0.14469883, 0.19944176, -0.13478652, -0.16119483, -0.025590494, 0.19811518, 0.16817367, -0.04566475, 0.13892469, 0.09475879, 0.043885328, 0.16857255, 0.21874252, -0.09049469, 0.21778591, 0.18135309, -0.1510874, 0.017523866, -0.126408, -0.110377006, -0.105054475, -0.18954957, -0.16631114, 0.09123617, -0.09590905, -0.03297877, -0.18542425, -0.047799803, -0.014052078, 0.12122328, 0.18119727, -0.13812935, 0.1979543, -0.12902008, 0.17764081, 0.14770421, -0.18719669, -0.17013527, -0.11642639, 0.16058478, -0.18419309, -0.022826767, -0.055156235, -0.20865126, -0.01252459, 0.18862763, 0.1983761, 0.011497587, -0.12721825, 0.008747919, 0.107589915, -0.20901264, 0.17713532, 0.11444446, 0.20230253, -0.079329684, -0.09768869, 0.072341114, 0.15560955, 0.007301745, -0.12895599, -0.08250787, -0.06766045, 0.2258818, -0.1601361, -0.10852556, -0.13033158, -0.12244071, -0.14698528, 0.07919883, 0.2271632, 0.04989302, -0.07917836, 0.1980004, -0.038979992, -0.04494494, 0.01923448, 0.12137126, 0.16347636, -0.06409344, 0.07386192, 0.01972776, -0.19630745, -0.010357724, 0.011467534, 0.021405285, 0.124700874, -0.013575971, 0.20409425, 0.107450664, 0.08543359, 0.14946443, 0.21286465, -0.053898916, 0.1892924, 0.07204242, 0.14235811, 0.19679967, 0.15520526, 0.21446092, -0.09066793, 0.21184708, 0.074779436, 0.08653966, 0.19826812, 0.102850676, -0.11082809, 0.12816715, -0.15449351, -0.14548215, -0.067682825, -0.113885164, -0.032607123, 0.03522876, -0.08238403, 0.109230295, -0.07527303, -0.20885246, 0.22484685, -0.16353829, 0.07538812, 0.14719492, 0.17376313, 0.022946272, -0.057796963, 0.07451852, 0.06804747, -0.016793832, -0.0023089973, 0.068829976, 0.096128486, -0.20146973, 0.24069786, -0.015823588, 0.12206385, -0.09388332, -0.13819323, -0.03844803, -0.06432585, -0.21576275, -0.08239037, 0.073025875, 0.07622565, 0.19979721, 0.17032896, 0.08237569, -0.13909844, 0.054874025, 0.12197112, 0.12381458, 0.113801286, -0.07015162, 0.18061548, -0.020324444, -0.105196476, -0.025767297, 0.13841453, 0.1912788, -0.16150594, 0.09064889, 0.09067425, 0.021759575, -0.08180214, -0.017435089, -0.1545262, 0.2094453, 0.19283025, -0.07084352, -0.028945826, -0.121304035, 0.094993204, -0.03518489, 0.1598136, 0.12704252, -0.16281244, -0.060837664, -0.042293254, -0.17768829, 0.05645929, 0.11935641, -0.042540383, -0.1520621, 0.13584444, -0.12825163, 0.20297691, 0.12745811, 0.21077605, -0.12019378, -0.11684682, 0.110404745, 0.035646718, 0.14775169, 0.07946109, 0.07825953, 0.029969197, 0.21027324, -0.05031957, 0.09924723, 0.1885085, 0.20900571},
};

float biases_1[256] = {0.0, 0.06383721, 0.008594726, 0.031166067, 0.0583791, -0.07633046, 0.07442001, 0.088144064, 0.0026872857, 0.08129151, 0.062410675, 0.06455832, 0.037018746, 0.0, -0.04608508, 0.04261686, -0.013159829, 0.062011097, 0.0, -0.0708023, 0.0, -0.057494596, 0.0, 0.0, 0.0010269728, 0.06176044, 0.026519533, 0.0, 0.07352148, -0.03576221, 0.0, 0.003603194, 0.068845384, 0.0, 0.0016946499, 0.0805904, 0.0555634, -0.043329004, 0.0, 0.08937267, -0.022540929, 0.016277222, 0.07548749, 0.0066568144, -0.054894995, -0.02133231, 0.089684896, 0.087179706, -0.058875453, 0.0, 0.02541218, 0.054565728, 0.06462287, 0.07627079, 0.06926675, 0.0, 0.060789682, 0.02309838, 0.058732126, -0.020749554, 0.0, 0.08573307, 0.05310066, 0.0, 0.00014144531, 0.08002441, 0.031803045, 0.069733985, 0.06725793, 0.0, 0.046237446, 0.08731287, -0.010105699, 0.072316594, 0.0, 0.07001219, 0.051360164, -0.0035017375, 0.025069617, -0.075006776, 0.08421121, 0.047098197, 0.057543598, 0.0, 0.0, -0.048241526, -0.05896311, 0.0, -0.05080297, 0.08222128, 0.04295461, 0.052117437, 0.048216317, 0.08906002, 0.061284333, 0.082573526, -0.0078118416, -0.045645963, 0.07577327, 0.06646165, 0.0, 0.0096359, 0.05712104, 0.04382901, 0.0, 0.034602746, 0.04042415, 0.071743906, 0.01876632, 0.079584405, 0.07816021, 0.044246197, 0.07114186, 0.037337523, -0.0793364, -0.028916178, 0.07896533, -0.018964356, -0.008439091, 0.046533253, 0.07024401, 0.0, 0.07745785, 0.0, 0.0, 0.07446007, 0.040694997, 0.0, 0.03795071, -0.006677174, 0.052803256, -0.0355415, -0.020440485, 0.05253895, 0.085919484, 0.06319907, -0.019234734, -0.011994114, 0.07761555, 0.026747856, 0.037422664, 0.08059986, 0.07797293, 0.0, -0.037170216, 0.00030277958, 0.06648995, 0.031049764, 0.086332075, 0.0, -0.07387884, -0.025463471, 0.010900388, -0.00394087, 0.08505914, -0.07850593, 0.0, -0.05539492, 0.089607656, 0.071921974, -0.012160281, 0.06456927, 0.027124226, 0.032865718, 0.05496026, 0.0, -0.018134594, 0.041161444, -0.013328318, 0.0, 0.06860001, -0.021714183, -0.007947517, 0.05798089, 0.007221251, 0.06182174, 0.070703, 0.088022545, 0.07464596, 0.061251476, 0.0, -0.058932584, 0.07826001, 0.0, 0.0723718, -0.07087108, -0.066125885, 0.0543579, 0.051954042, 0.0, 0.046492916, 0.0, 0.067959666, 0.09417658, 0.096282244, 0.040670738, 0.0, 0.08537497, 0.03201037, 0.054636214, 0.04893626, 0.096132085, 0.03623207, 0.05423884, 0.027742445, 0.057102814, 0.015478327, 0.0, 0.082286984, 0.018742632, 0.0, 0.0, -0.061843228, 0.02445593, 0.05134143, -0.037957504, 0.07186014, -0.0025272388, -0.0009445829, 0.0, -0.0050807954, 0.028001763, 0.06130073, 0.052741203, 0.059677698, -0.01933114, -0.02421945, 0.0, -0.016411295, 0.012469904, 0.009547939, 0.0, 0.038612146, 0.066820405, 0.042318333, 0.07182335, 0.020127926, 0.0, -0.049696878, 0.0, 0.055019014, 0.079402156, -0.0493077, 0.0, 0.07629302, -0.02090453, -0.012458847, 0.029557588, 0.08683799, 0.0, -0.06227696, 0.074709445, 0.08998134, 0.0882258, 0.07309183, 0.06815347};

float weights_2[256][128] = {
    {-0.088362575, 0.060664356, 0.0029264688, 0.017833024, -0.08079618, 0.012084097, 0.04782158, 0.11520514, 0.024433106, -0.050263762, -0.005207896, 0.005189806, -0.02302903, 0.11967009, -0.11090207, -0.10138753, 0.05151248, 0.004199177, -0.117372006, 0.07144475, 0.10855526, -0.098064214, -0.11656284, -0.07305926, -0.010010779, -0.020944536, 0.12079072, 0.022947133, 0.006428331, 0.11884916, -0.019707441, -0.05843368, 0.06330222, -0.07388508, 0.056794107, 0.037822098, -0.04971984, -0.03330925, 0.03382379, -0.067166775, 0.017799944, 0.040581256, -0.092262566, -0.07049537, 0.04887563, -0.118203044, 0.0023516715, 0.09310135, 0.057392895, -0.111252815, -0.09726018, -0.05135572, 0.048887283, -0.047608525, -0.10398936, -0.10554659, -0.051852584, 0.016658127, -0.058578998, -0.024880648, -0.004695058, 0.067530364, 0.026173413, 0.041600645, -0.11726889, -0.057407707, 0.06769252, 0.06408247, 0.067472726, -0.09249574, 0.044135243, -0.04940301, 0.088354796, -0.016374499, 0.09432635, 0.11411655, 0.009815812, 0.1181443, -0.06284225, -0.07803172, 0.02742523, -0.009419769, -0.046461225, 0.09833166, -0.04485151, -0.105344534, -0.051501274, 0.08671078, 0.05646929, 0.11143011, -0.104150325, 0.058253706, 0.010051012, -0.035139382, -0.022034645, -0.023540795, -0.005888164, -0.027771533, 0.026163578, 0.07243776, 0.036296636, 0.08592531, -0.010529071, -0.048469305, -0.057483166, 0.00040131807, 0.07587221, 0.036127448, -0.058039397, 0.06204343, 0.08496225, -0.018557936, 0.052938193, 0.016473532, -0.02009499, -0.079606384, 0.005802691, 0.08792785, -0.064216286, 0.02039814, -0.056913882, 0.086465746, 0.04252857, -0.025097072, -0.08918169, 0.12020558, -0.09382361, 0.12475848},
    {-0.06175134, 0.18385063, 0.010792994, 0.011318351, -0.08032716, -0.16904691, -0.11857401, -0.10529738, 0.083970495, -0.15114315, 0.0714938, -0.005779952, 0.1807579, 0.06553759, 0.015912415, -0.07248376, 0.026401136, 0.1252744, -0.054101165, -0.028363427, 0.21784426, 0.07029005, 0.108992755, 0.11658959, 0.1542283, 0.16100451, 0.060793348, -0.12425652, -0.03910397, -0.007102873, 0.19765018, -0.09132232, 0.20005451, -0.17781818, -0.09770912, 0.016844427, -0.033476125, 0.069504805, 0.108539164, -0.008239446, 0.12921217, -0.03434123, -0.021285683, 0.06578606, -0.12699541, -0.023464398, 0.09799473, -0.061547436, -0.23420066, -0.036554765, 0.0077136634, -0.02773454, -0.052946262, -0.08683469, 0.0076005384, 0.041439887, -0.0068405406, 0.021443108, -0.0641182, 0.10792218, -0.04964695, -0.06213242, -0.14839166, 0.08407848, -0.038513213, 0.08965379, 0.109996825, 0.10864498, -0.046220303, -0.10224812, 0.03596672, -0.13586088, 0.04616921, 0.03674121, 0.033795178, -0.17107323, -0.1098866, 0.023017244, 0.14902301, -0.027680801, 0.10798667, 0.14375262, 0.118768565, -0.12529081, 0.18247917, 0.18688962, -0.20655721, 0.039892994, -0.022437366, -0.0835879, 0.1608095, 0.21564606, 0.2270899, -0.14756373, 0.051715158, -0.015172195, -0.1187963, -0.11453138, 0.18140782, -0.062191606, -0.002712432, 0.17313617, -0.20853591, 0.09777525, -0.017469497, 0.015478691, 0.0549594, -0.055484172, 0.0961973, 0.14379542, -0.11054195, -0.13488424, -0.0836693, 0.052303344, 0.23145093, 0.03585881, 0.09443247, 0.0018341757, -0.031638082, -0.068623714, 0.036118716, 0.03537411, 0.070946254, -0.1585134, 0.15414089, -0.0069933254, -0.026527125, 0.044357423},
    {0.135103, -0.12190811, 0.070155114, 0.19151342, 0.015489632, -0.043095592, 0.01997948, 0.1044217, -0.008472685, -0.2151695, -0.011035589, 0.1682697, -0.08427443, 0.112069905, -0.12148222, -0.102997735, 0.088156536, -0.024599569, 0.11474088, -0.09972039, 0.123022184, 0.05805788, 0.08578467, -0.052187797, 0.13522731, -0.106954955, -0.025778048, 0.08070007, -0.004825108, -0.06428174, 0.030297205, -0.015728489, 0.099881455, 0.16041686, 0.06237044, -0.043849133, 0.02762556, -0.043321826, 0.031433966, -0.048265852, -0.04444368, 0.09753786, 0.027203256, 0.11597272, 0.014851682, 0.013497971, 0.1164965, 0.1276824, 0.034128353, 0.04198034, -0.07443548, -0.07685487, -0.0346727, 0.021499868, 0.14418845, -0.097534575, 0.059767887, 0.034435343, 0.0098348055, -0.15317655, -0.021321021, 0.16629359, 0.06842474, 0.13056687, 0.078971855, -0.10383602, 0.11113113, 0.07140559, -0.007971335, 0.17816806, 0.12579465, 0.075121835, 0.014633247, -0.07373968, -0.1063991, -0.02005443, -0.019814769, -0.06511226, 0.18227561, -0.13886786, -0.11713585, -0.06917832, 0.14868426, 0.074030146, -0.13433798, -0.13367343, 0.15797569, -0.014109864, -0.0065324265, -0.11321698, -0.026868008, -0.071111746, -0.10923585, 0.1882233, 0.13914542, 0.18255961, -0.02611258, -0.16328175, 0.13052648, -0.04243228, 0.031371597, -0.15993772, -0.11495188, -0.034772065, 0.010934461, -0.0053628786, -0.077851765, -0.12929007, 0.06678595, -0.166866, 0.065137856, 0.0454275, 0.11188211, -0.08667119, 0.011831241, 0.14064778, -0.013643139, 0.05510963, 0.08177698, 0.055112164, -0.12498076, -0.01808473, 0.0011635205, -0.09728329, 0.08367238, -0.088186875, -0.041999266, -0.05681532},
    {0.11826829, -0.1713596, 0.107942745, -0.006620152, -0.030453745, 0.04345757, 0.11376938, -0.028181385, -0.14878182, 0.037356768, -0.0042611407, 0.08693966, -0.16669029, -0.1392984, -0.042080514, -0.06137625, -0.09712195, -0.15299499, 0.12558542, 0.006921918, -0.08536874, 0.032546166, 0.0012980961, -0.10886646, 0.14093904, -0.11164245, -0.08266775, -0.04376697, 0.026284194, 0.038551897, 0.02908423, -0.14668779, -0.17043535, 0.11781556, 0.085639924, -0.10025403, -0.030782642, 0.09259662, -0.100307964, -0.104158126, -0.046791006, 0.16840854, -0.007161992, 0.10058585, 0.11382642, 0.15187375, 0.10199879, 0.042882737, -0.0015410855, -0.073387094, -0.17844287, -0.0588214, 0.11636173, -0.02744835, 0.056436047, -0.07859747, -0.018642757, 0.12984428, -0.022324776, 0.014812904, -0.041399956, -0.04339196, 0.040481646, -0.035578217, 0.15921141, -0.13559802, -0.07837381, -0.052509416, -0.08867455, -0.03605142, 0.16435298, 0.0433828, 0.05752373, 0.13878176, 0.051917493, 0.15747873, 0.083101824, -0.007048181, -0.019659737, -0.09635739, -0.009271899, 0.124912746, 0.12245993, 0.1254683, 0.07026009, 0.062595375, 0.097483, 0.12089677, -0.023933271, 0.029623417, 0.024146292, -0.14432971, 0.034391455, 0.0434839, 0.15555187, 0.09320978, 0.08796777, 0.054694504, -0.112964585, 0.027009448, 0.09757796, -0.09654013, -0.03328699, -0.11347168, 0.096438065, -0.19286044, 0.033889305, -0.13512094, 0.11595595, -0.15647528, 0.18117782, 0.021653753, 0.06406669, 0.066614665, -0.07405375, -0.0137593, -0.03401727, 0.0203003, -0.038969286, -0.075371176, 0.06462193, -0.031178521, 0.1291777, 0.03764696, -0.011453732, 0.16385786, 0.037065264, 0.118723},
    {0.105462104, 0.05856179, -0.1886388, 0.03070767, -0.062118594, 0.09228234, -0.14401695, 0.011030792, -0.046050955, 0.021002615, 0.09965037, -0.1381695, 0.15353778, 0.115764014, 0.02312131, 0.029107882, -0.07410683, 0.00421774, -0.16253291, -0.03463402, -0.054045524, -0.06519458, -0.033685476, -0.012502538, -0.16171394, 0.066312745, 0.105795026, -0.046910543, 0.0021737744, 0.0761303, 0.13494691, 0.09816721, -0.006176966, -0.09990854, 0.0018512703, 0.010779017, -0.113164656, -0.10936575, -0.03217915, 0.121961705, 0.070216455, 0.046484, -0.17265071, -0.067076646, -0.07528798, -0.1496704, 0.0115906205, 0.01020635, 0.06785228, 0.0024704982, 0.17539212, -0.09088009, -0.060977835, 0.107242525, -0.08353587, -0.123703085, -0.16215424, -0.1984303, -0.114927635, -0.0471414, 0.12722455, 0.0373741, -0.12208943, 0.15494286, 0.042149656, -0.04722948, 0.094201505, 0.07473337, 0.012317573, 0.04309964, -0.014877158, -0.14093949, 0.05865743, 0.10257982, -0.07619268, -0.043351505, 0.047646776, 0.08094808, -0.11285591, 0.043552138, 0.008218491, 0.16926455, 0.0038798666, -0.057160433, 0.044566132, 0.12885684, -0.15364033, -0.071645394, -0.02744008, 0.10270953, 0.10116456, 0.11545145, -0.033204287, -0.03708546, -0.1395406, -0.1665708, 0.07918944, 0.1614811, 0.08434488, 0.035711274, -0.02813972, 0.072346896, 0.006253782, 0.08238723, 0.06325168, 0.08396561, 0.15502478, 0.15071572, -0.009771868, 0.19366668, 0.04245255, 0.009070918, -0.098773174, 0.16475765, 0.12602252, -0.1550248, -0.025684776, -0.03210976, 0.022214068, 0.06670353, 0.03958533, -0.05916537, -0.02920602, 0.08553976, -0.070020325, 0.085758895, -0.008391856, 0.061590757},
    {0.025306089, -0.101601906, -0.0369975, 0.1353376, 0.1351091, 0.06817746, 0.0941153, 0.07420222, -0.05981663, 0.09543575, -0.06023621, 0.14366503, -0.099528775, 0.013646013, 0.022136088, 0.08899799, -0.09544356, -0.14820413, 0.1382469, -0.09988822, -0.18756941, 0.05368125, 0.05201245, 0.086362004, 0.08677033, -0.0009463727, -0.1864054, 0.10135309, -0.052783195, -0.03258893, 0.06532439, -0.08562485, -0.12656417, 0.06816387, 0.0265723, 0.07090795, 0.05170588, -0.08062314, -0.1959914, -0.17198694, -0.13705519, 0.11853054, -0.0891127, 0.17965217, 0.07647056, 0.020699998, -0.018351294, -0.1240879, 0.1858824, 0.0798288, -0.19983973, 0.04622712, 0.016771778, 0.079854466, 0.11903844, -0.07831399, -0.04846207, -0.030152231, 0.07443049, -0.04003164, 0.049695022, 0.1735705, -0.05799933, -0.11199767, -0.020131966, 0.037668858, -0.035110056, 0.014644241, 0.072684124, 0.0863335, 0.12760252, 0.09448656, 0.02425683, 0.06852428, -0.03166533, -0.002250297, 0.14105104, 0.012262263, -0.08006164, 0.056010142, -0.11460012, -0.17609102, 0.042868413, -0.047856264, 0.07705705, -0.024309667, 0.10745821, 0.059031706, -0.06332077, -0.003483814, -0.15138961, -0.1487128, 0.034621425, -0.025223155, 0.029627902, 0.06043452, 0.10120623, 0.023409868, -0.032136448, -0.08366066, 0.17762375, -0.071319595, 0.05043361, -0.032164324, 0.00931534, -0.10724627, -0.10916367, -0.050149344, -0.08052991, -0.04707201, -0.009628212, 0.1813972, 0.12219823, -0.002932606, -0.14901567, 0.071415275, 0.08515759, -0.12731561, 0.092834145, 0.0884227, 0.14891009, 0.07929157, -0.05278157, -0.0055382443, -0.021354832, 0.089792475, -0.05132919, 0.13358532},
    {-0.04441016, 0.087532885, 0.07047013, -0.014080156, -0.10916474, -0.12645164, -0.0223818, -0.07187382, 0.03728579, -0.009204277, 0.06743136, -0.04381144, 0.030224036, -0.0038854862, -0.10714784, -0.048385784, -0.0034867332, 0.16842055, -0.028316375, -0.025601184, 0.098688036, 0.048769455, 0.13470984, 0.09461889, -0.044339973, 0.16322862, 0.088044405, -0.11119932, 0.00018403346, 0.13619044, 0.024362443, -0.054503478, 0.20081607, -0.026737237, -0.029651748, -0.06607022, 0.08390472, -0.10431628, 0.13382484, 0.0027758945, -0.033667788, -0.01314567, -0.08538255, 0.017193036, 0.029455123, 0.04238848, 0.030075641, 0.06863445, -0.1374358, 0.0020368102, 0.037727166, 0.07927307, 0.07728961, 0.026531102, -0.18340702, 0.06936407, -0.041699152, -0.18678692, -0.18747185, 0.027924856, -0.14908595, 0.007519578, -0.0980722, 0.13596195, -0.17625053, 0.021130461, 0.027288109, 0.06421726, 0.08968822, -0.14354283, 0.01813253, 0.012954857, 0.1885439, 0.21023811, -0.046205997, -0.05415046, -0.0910845, 0.19927575, 0.1837484, -0.012739658, 0.16621669, -0.007639667, 0.1197532, -0.12072557, -0.063353956, 0.17724286, -0.07032571, 0.050653044, 0.09545152, 0.15261231, 0.037458293, 0.044181604, 0.10466407, 0.016313016, -0.095214896, -0.16023849, -0.11266216, 0.045969754, 0.1279462, -0.119027026, -0.10900664, 0.08740876, -0.1842621, 0.07838863, -0.11910116, 0.05293945, 0.20016453, -0.024771744, 0.11994165, 0.12862037, 0.026532028, 0.011866514, 0.013159901, 0.19552289, 0.18685935, -0.13960014, 0.06767584, 0.21892515, 0.033001214, 0.12725063, 0.14699823, -0.041807435, 0.040074553, -0.08788049, 0.084025614, 0.0070498134, -0.14285359, -0.1275714},
    {-0.12075902, 0.012671949, -0.06527148, -0.030813785, -0.12382655, -0.12753274, -0.18083188, -0.02314652, 0.1207717, -0.0025952659, 0.083537504, -0.1411629, 0.1923346, -0.027538313, 0.09103468, 0.20615765, -0.055389166, 0.08098802, 0.034240056, 0.15757497, 0.03279055, 0.038980994, -0.14674045, -0.044266794, -0.077585995, 0.09028777, 0.07730861, 0.016238088, 0.16983275, 0.18719816, -0.035015132, -0.032558043, -0.021347983, -0.19632462, -0.03757868, 0.101702206, -0.15740792, -0.15545449, 0.088222094, -0.053192202, 0.16004848, -0.09032541, -0.091136254, -0.07571977, -0.019077048, -0.16723996, 0.080867216, -0.058872435, 0.013733472, -0.16355707, -0.044796422, 0.1007976, -0.057833504, -0.007897698, -0.12689802, 0.038008384, -0.0011651341, -0.081799015, 0.04142807, 0.19443664, 0.15432869, -0.16935335, -0.07457604, 0.18148376, -0.18182881, 0.10733783, 0.10382559, -0.046920247, -0.10119681, -0.050767183, -0.005367637, -0.07527066, 0.20297484, 0.12554494, 0.010388523, 0.005843862, 0.16617285, 0.04899351, 0.021606207, 0.0491257, 0.18866706, -0.037423674, -0.05570476, -0.030291213, 0.15258387, 0.20728457, 0.0023804738, 0.0882794, 0.1404469, 0.08795881, 0.0056056296, 0.03595087, 0.19645573, 0.037186753, -0.027894892, -0.21471459, -0.12607223, -0.03927284, 0.10245536, -0.20558687, -0.12963139, 0.059340365, -0.028671749, -0.025545835, 0.11613643, 0.017034356, 0.03806969, 0.12224129, -0.1261955, -0.00040512852, -0.14069475, -0.07489577, -0.19508395, 0.16702521, 0.07258843, -0.004853203, 0.0015217357, 0.11373288, 0.014001366, 0.2066454, 0.074144386, -0.093382806, 0.15136835, 0.0599873, 0.09656135, 0.182229, -0.17675896, 0.13841811},
    {-0.04682747, -0.1263237, 0.016990798, 0.062712945, -0.01692953, 0.09845325, -0.022565132, 0.12491453, -0.08041768, 0.0074344985, -0.0015674978, 0.07743753, -0.026065145, -0.019542487, 0.038300697, -0.08135137, 0.1088476, 0.033542458, 0.054537337, 0.08378869, 0.1037994, 0.044464927, 0.0035628565, 0.071738444, 0.08677989, 0.16074008, 0.13237067, -0.08085528, -0.09122576, -0.13228099, 0.15553638, -0.19487262, -0.050248098, -0.0054843286, 0.057906874, 0.034451492, 0.18138708, -0.05217856, -0.018041587, 0.16284122, 0.009712542, 0.10953386, 0.19564809, 0.04233811, 0.01551473, 0.090404294, 0.1173021, 0.013934349, 0.15011586, 0.042963263, 0.07672837, -0.11094549, 0.09949839, -0.011183053, 0.18481946, 0.10977125, 0.13553374, 0.052479953, -0.10742664, -0.15480012, -0.0898858, 0.12748434, 0.04128566, 0.068808176, 0.16487421, 0.0389022, -0.096261054, -0.058682993, -0.11347157, 0.17735614, 0.14540878, 0.054629236, -0.066219784, -0.03891519, -0.050734036, 0.1023721, -0.09623824, 0.00026371772, 0.07284876, -0.063226566, 0.05417547, 6.9025315e-05, 0.021353476, 0.028648013, 0.006930292, -0.14107822, 0.15368241, -0.028415348, 0.062353652, 0.048398916, 0.020872923, -0.080360375, -0.07616666, -0.052473515, 0.022430714, 0.016824964, -0.055067744, -0.04405541, 0.15921862, 0.15850224, 0.114713065, -0.17158769, 0.002632727, 0.03234911, -0.10265434, 0.10945706, -0.0044365525, -0.028709084, -0.10428963, -0.09519542, 0.052585293, 0.16796084, 0.11033742, -0.13633868, -0.08750577, 0.05466137, 0.06081515, 0.0052780383, -0.1175701, 0.020736137, 0.07502859, 0.16606402, -0.11695141, 0.04056152, 0.102183886, -0.1441254, 0.028540483, 0.09412398},
    {0.024570825, -0.013930832, -0.029151157, 0.031112675, 0.19003035, -0.15873793, 0.14654262, 0.108717985, -0.080764905, -0.032327786, 0.13680485, 0.13921657, -0.040497936, -0.1582997, -0.042609345, -0.19614592, 0.056927662, -0.010286466, 0.12028348, 0.011750298, 0.10874329, 0.14125185, -0.011946907, 0.009869983, 0.14533116, -0.068479136, 0.16223674, 0.11157866, 0.14797942, -0.11061761, -0.104321554, -0.14711863, -0.062526174, 0.12803903, 0.17870073, 0.09084567, -0.17741439, 0.13560942, -0.068599224, 0.036782384, 0.12531944, 0.13095322, 0.012482264, 0.16129583, 0.020735467, 0.117367804, 0.16812901, 0.025715766, -0.13696961, -0.10891246, 0.10170393, 0.10933891, 0.061823957, -0.08553447, 0.02116432, 0.1009304, 0.111080565, 0.1523065, 0.10147448, 0.014883194, -0.209537, -0.21794164, 0.10742976, -0.024219686, 0.1469124, -0.16682371, 0.00023940206, -0.14757872, 0.05569251, -0.12683082, 0.107040256, 0.1667535, 0.07615085, 0.14926204, -0.03792302, 0.028379418, -0.06616356, -0.13924105, -0.09956357, 0.05955115, -0.11883314, 0.06136297, 0.17598154, 0.09371446, -0.009317676, 0.013145301, 0.13981822, 0.15966037, 0.13763162, 0.052761927, -0.14702864, -0.19957095, -0.1584181, 0.15933073, -0.07313021, 0.19552466, -0.01964881, -0.17382605, 0.04683554, 0.009721062, 0.14769538, -0.16618215, -0.07468818, -0.055739373, 0.07792882, -0.10083475, 0.09083628, -0.13129595, -0.08961552, 0.006653947, 0.030681927, -0.12337733, 0.18645574, -0.07015675, 0.18586704, 0.18455833, -0.13529916, 0.018834796, -0.006960205, -0.1568624, -0.1609657, 0.18837956, -0.024494223, -0.15424456, -0.051313046, 0.08872748, 0.08379474, 0.047371466},
    {0.040523216, -0.005654536, 0.08619169, 0.0517133, -0.12299953, -0.08424018, -0.034430396, 0.10941353, -0.10922458, -0.14358535, -0.1681388, 0.083546065, 0.06160767, 0.059182536, -0.19497022, -0.14358823, -0.09034064, -0.13662338, 0.019684948, -0.14031245, 0.15590475, -0.017163947, -0.07667111, 0.029573267, 0.07713213, 0.15015478, 0.028920876, -0.0049434975, 0.085465506, 0.040991288, 0.09070703, -0.13653839, -0.05968646, -0.003197931, -0.013811171, -0.07699661, -0.012458751, 0.14825848, -0.036089767, 0.08136143, -0.061164733, 0.14462157, 0.11203959, -0.02136549, 0.1308077, 0.04543326, 0.072376505, 0.15383333, -0.13462523, -0.02736194, 0.0013271816, 0.032367308, 0.14981645, -0.04880649, 0.11521311, 0.027905583, 0.19045953, 0.12756638, 0.121359035, -0.06424754, -0.021385374, 0.066821754, 0.17990619, 0.013140141, 0.16603848, -0.016832672, -0.09462857, 0.17440416, -0.013790222, -0.041153938, 0.19315079, 0.073811226, 0.113360696, 0.11055381, 0.09056831, 0.040894926, -0.12353735, 0.12158662, 0.04435208, -0.087220795, 0.0064208526, 0.17927597, 0.1434414, -0.032622274, -0.16555591, -0.08067014, 0.17837627, 0.13188249, 0.13513264, -0.06523544, -0.120333806, -0.09238425, 0.0645614, 0.17321008, 0.055116314, 0.03350377, 0.041999314, -0.14194354, 0.036007892, 0.0903721, 0.031011501, -0.09057235, -0.19988383, -0.02732104, -0.10067504, -0.058204453, -0.0817068, -0.04015756, 0.0016485676, -0.06463417, 0.03963508, -0.1076785, -0.052197535, -0.10780459, -0.019607665, 0.20361915, -0.04291664, -0.019681808, -0.026557544, -0.04413045, -0.16566835, 0.14802, -0.13155621, -0.18590237, -0.03222791, -0.06862967, 0.15687977, 0.11554739},
    {-0.014214901, 0.16783547, 0.003946886, 0.043477863, -0.16709445, 0.15328641, -0.032397285, -0.16267295, 0.06175819, 0.16157135, 0.1581859, -0.104815215, 0.045328476, 0.14788987, 0.028823154, 0.061980017, -0.11996572, 0.14221951, -0.14481738, 0.14592129, 0.1287582, -0.0049171066, -0.051798753, 0.003917669, -0.0026603998, 0.14933869, 0.183513, -0.10396802, 0.040492367, 0.103202485, 0.0038007004, 0.11843126, 0.13134934, -0.13682356, -0.007987118, 0.010445321, 0.057169326, 0.13097231, 0.095596805, 0.12602475, -0.13328697, -0.15423766, -0.14230584, -0.068220384, -0.01751413, -0.094859235, -0.0538467, 0.11042508, -0.028788358, 0.104341835, 0.13464722, 0.10355704, -0.15679267, -0.06835917, -0.09704965, -0.0072235824, 0.017195262, -0.124647066, -0.05568909, 0.1678439, -0.029037207, 0.060550336, 0.0062150043, 0.12869239, -0.15794155, -0.029900393, -0.0744482, 0.038753446, 0.036533818, 0.01390437, -0.03865588, 0.062689945, 0.033991452, 0.007977204, 0.023018328, 0.05206677, 0.0931137, 0.082629725, 0.00733598, 0.004183728, 0.11999254, 0.076701164, -0.047636956, -0.036158133, 0.09264936, 0.054788467, -0.0438827, 0.078491494, 0.0038326117, -0.1418455, 0.11166419, -0.048331983, 0.093118384, -0.069889024, 0.06273592, -0.03523617, -0.11925632, 0.09445428, 0.042444248, 0.008392644, -0.110637605, 0.17018838, 0.052890766, -0.07179419, -0.035599872, 0.061073627, 0.15808798, 0.13463338, -0.078027345, 0.11206894, 0.041838273, -0.07971784, -0.087503806, 0.102236435, 0.105041556, -0.05152447, 0.055707276, -0.021016246, -0.12244481, 0.044624, 0.056366865, 0.021769764, -0.056090496, 0.14011641, 0.0773816, -0.046310216, 0.057612628, 0.04421825},
    {0.057606388, -0.005838114, -0.12722045, 0.08101894, 0.15280372, 0.03984572, -0.038162157, -0.063666664, -0.019153131, 0.19371337, -0.03404844, 0.1242468, -0.012198594, 0.13246775, -0.06809235, 0.15998006, -0.060928453, 0.03775096, 0.15749374, -0.06108224, -0.094194815, -0.0076066884, 0.17014645, -0.03346866, -0.120056815, 0.0019146481, 0.06659941, 0.18046093, -0.110003956, 0.0018959455, 0.10618507, -0.04346842, 0.04043503, -0.14599046, 0.07489716, 0.057276245, 0.07963789, -0.028510083, -0.030745476, 0.024488753, 0.124707244, -0.015145904, -0.09468506, 0.14462638, 0.0030702592, 0.082685456, 0.052311316, -0.08794694, 0.027496414, -0.05239344, 0.023224786, 0.013616142, -0.11690457, 0.13770284, 0.054494005, -0.057003807, -0.083566174, 0.009701523, -0.016311474, 0.07027041, 0.08029748, 0.063948266, 0.042794175, 0.00059756124, 0.00092048437, 0.098006055, 0.036337413, 0.052690763, 0.07726072, 0.14114925, -0.026953075, 0.06465828, 0.09978621, 0.16025944, -0.0021939417, 0.0434161, 0.19326954, -0.049748782, 0.027762774, -0.0699769, -0.002661982, -0.008216315, 0.011396364, -0.04158032, 0.069141984, -0.00065920677, -0.12279926, -0.059233297, -0.06417536, 0.07969524, 0.15724686, 0.043951172, 0.08886334, -0.010583706, -0.07198297, 0.1413876, -0.004489455, 0.11786353, 0.028080363, -0.16444525, -0.069708936, 0.15484768, 0.005965942, -0.04339844, 0.108081944, 0.11638384, 0.13836145, 0.069006175, 0.044167727, 0.12855263, 0.13709682, 0.06564841, -0.061631702, 0.19011669, 0.13333689, -0.121472515, 0.11907277, 0.09341903, 0.054155014, -0.006597568, 0.04643462, -0.11632069, 0.012393722, 0.06663308, -0.077250816, 0.11804694, -0.16597839, 0.15003797},
    {0.11235452, 0.042746782, 0.0765253, 0.061330408, 0.002102822, 0.071777076, -0.007942855, 0.04378563, 0.04484141, -0.057546914, 0.02048847, 0.02076593, 0.04263687, 0.11877975, 0.03009957, 0.10687268, -0.0046794713, 0.01260969, 0.044595003, -0.064043164, -0.07648796, 0.01346463, 0.003612548, -0.028795153, 0.108386815, -0.07740265, 0.09997362, -0.0032710433, -0.046792686, -0.11553916, -0.008815259, 0.10265538, 0.123827815, -0.1105746, -0.03856495, 0.04357335, 0.11458188, 0.11818391, 0.1142019, -0.070753366, -0.07747781, -0.099627495, -0.07819435, -0.05885133, 0.048377156, 0.016635597, -0.06511089, 0.09891948, 0.047246307, -0.008541673, 0.059990764, -0.1128293, -0.081082314, 0.010605663, -0.025108159, -0.08553627, 0.014716387, -0.022261411, -0.050233036, -0.006361693, 0.052817285, 0.08232394, -0.08874416, 0.016436994, -0.015774667, -0.017754614, 0.032370657, -0.052517265, -0.08498356, -0.10161382, 0.015011668, 0.018366903, 0.06707379, 0.08024672, -0.04657051, -0.10373837, 0.041148096, -0.06590852, -0.033892095, -0.0088512, -0.04679045, -0.03272608, 0.11488867, 0.00056681037, -0.09389898, -0.09858936, 0.039960295, 0.006970018, 0.12209839, 0.057468146, -0.0965392, 0.019904554, -0.055321634, -0.027731866, -0.05654362, -0.043240935, 0.005670935, -0.0778622, -0.067569464, 0.07792935, 0.0785543, 0.027515113, 0.08281526, 0.03028512, 0.02391857, 0.0044403076, -0.08683401, -0.06587121, 0.033188403, -0.10268128, -0.055811644, -0.063815296, 0.08548647, -0.10442519, 0.03957334, 0.053414464, -0.046519578, -0.021154225, -0.05525893, -0.018164665, -0.003778696, 0.022515923, -0.074324846, 0.01423645, 0.061519593, -0.117271274, -0.11424148, 0.037531704},
    {0.009237594, 0.08060568, -0.040748373, 0.16737418, 0.0118785575, 0.046444148, -0.037659306, -0.041910753, 0.105918385, -0.044723008, 0.030966522, 0.0037975945, 0.1492751, 0.05221062, 0.07886807, -0.14285448, -0.059875954, -0.018222561, 0.060571026, 0.12939824, 0.051052947, 0.1662064, -0.072249405, 0.08041349, 0.06693518, -0.071776204, 0.13558473, 0.011479916, -0.031197116, 0.11242489, -0.048559763, 0.0027294515, 0.0019522631, 0.044459783, -0.108647056, -0.01443481, 0.11031878, 0.019300483, -0.046036493, 0.029122563, -0.13825153, -0.02876583, 0.066234216, -0.06714983, -0.071660124, 0.11452881, -0.10329063, -0.007876304, 0.12640838, 0.02067435, 0.091884434, -0.02812711, 0.013383787, -0.07960251, -0.13375752, -0.12921163, -0.0036963176, -0.09429189, -0.14099814, -0.11215236, 0.084086634, 0.11194825, 0.15266916, 0.06668177, -0.059618812, 0.07777352, -0.02737912, 0.09596183, 0.015731711, 0.18929903, 0.014755523, 0.0337812, -0.05068673, -0.17482059, -0.1324307, 0.14874844, 0.10608106, -0.036018323, 0.0993378, -0.02987483, 0.06835956, -0.13799639, 0.14569622, 0.0016875304, 0.036040902, -0.011656667, 0.10843623, 0.068069756, 0.0027425832, -0.15279669, 0.082205184, 0.101661846, 0.08319906, 0.09733931, -0.011638733, -0.021271558, 0.012349754, 0.017565554, -0.025060695, -0.010117595, 0.068480186, -0.08960105, -0.0639395, 0.111379646, 0.029203136, 0.15552735, -0.024900198, -0.056130968, -0.09324561, -0.07783701, 0.14349377, 0.005520623, 0.1067845, -0.054373283, -0.13193065, -0.005622397, 0.11290262, 0.0498256, 0.111674845, -0.023914477, 0.011848876, -0.0345551, -0.071988, -0.1057061, 0.12662238, 0.05995355, -0.11806028, 0.07704159},
    {-0.13620618, -0.014351807, -0.019175913, -0.03833271, -0.07746143, 0.024492983, -0.017856833, 0.013048307, 0.0791732, 0.14553046, 0.010558169, -0.056960892, 0.0900166, 0.060250584, -0.06680555, -0.08967122, -0.053696226, -0.037399, -0.064073116, -0.04580038, 0.011348779, 0.17347936, 0.17648485, 0.029878076, -0.033420976, 0.044096455, 0.15933199, -0.0048575276, -0.00792176, 0.051369134, 0.038476884, -0.014846581, 0.11872821, 0.037260614, 0.14706524, 0.09213429, 0.1010912, 0.058343586, 0.080705546, -0.041609395, 0.10044746, -0.032443143, -0.058283653, 0.10874335, 0.025057971, -0.106882185, -0.13211015, -0.10807959, -0.19729501, -0.017802937, -0.005871072, -0.066732176, 0.1708753, -0.009142908, -0.08938913, -0.0794392, -0.16521107, -0.17971422, -0.08988512, 0.09572352, -0.012553287, -0.15647516, -0.054681946, 0.11868426, -0.17154968, 0.08855869, -0.12194268, 0.103484645, -0.039041925, -0.058453184, -0.14850885, -0.12694216, 0.018472426, 0.05689881, -0.07941414, -0.14963776, -0.041625436, 0.094558045, -0.005576684, 0.07068941, -0.012723078, 0.08480963, 0.108253546, 0.02496983, 0.0087257, 0.106334, -0.1638787, 0.031320147, 0.14962447, 0.08468859, 0.18768294, 0.14415349, 0.104422614, -0.021951921, 0.016049065, 0.010456307, -0.1529951, -0.03266373, 0.2054254, 0.017239347, 0.02783349, 0.09287633, -0.086267576, 0.052697986, 0.068046875, 0.03561982, 0.011219749, 0.00979664, -0.08753061, 0.10901767, -0.15802243, -0.10055574, -0.026722608, 0.118646145, 0.12788522, -0.08981581, 0.15788393, 0.17785245, -0.13190706, 0.13425922, 0.19750562, -0.037756477, 0.11697327, -0.026765538, 0.025153164, -0.07418666, 0.042832512, 0.06481561},
    {-0.056169882, -0.12374052, 0.04251498, 0.08160578, -0.0649692, 0.08490196, 0.09140514, -0.09638853, -0.06996971, -0.0264451, 0.049357347, 0.026906323, 0.024222393, 0.058254987, -0.03892114, -0.06398756, 0.11123771, 0.038684964, -0.0650142, 0.027963731, 0.041487906, -0.035997808, -0.0483537, -0.07741661, -0.040578313, -0.086482234, -0.120560676, -0.0673604, 0.016965056, -0.0662469, 0.05535563, 0.10753742, -0.018159611, -0.034184147, -0.020468388, -0.113176525, -0.07016731, -0.064626895, -0.08486303, -0.07601734, -0.03203688, -0.009511383, 0.04301194, -0.06864355, 0.032696646, -0.059106655, -0.037354857, 0.058299955, 0.06600064, 0.06553733, -0.0362083, 0.059653144, 0.01872493, -0.084753744, 0.10268604, 0.039385736, 0.10327658, -0.033521246, 0.0014580784, -0.10417422, 0.03745783, -0.10154841, -0.068459444, -0.078142166, 0.06835287, 0.095925316, -0.09799293, 0.023965215, -0.0018229187, -0.0888606, 0.01806899, -0.05071146, 0.090962656, 0.10442549, 0.0411024, 0.08720832, -0.042042915, -0.018763226, -0.016215784, -0.10151186, 0.10048175, -0.05086253, 0.039974432, 0.11805745, 0.07663797, -0.0016751911, -0.061260816, -0.011254537, 0.026610637, -0.06095213, 0.07542907, 0.12119586, 0.06558261, -0.07813667, -0.039052278, -0.040629756, 0.09813949, 0.041849185, 0.089681424, 0.0202616, -0.095926, 0.12084279, -0.014011413, -0.013075054, 0.051729944, 0.05386639, 0.049358383, 0.012606216, -0.02406218, -0.12752973, -0.0652061, -0.12178168, 0.038042337, -0.13634944, 0.06491185, 0.13334277, -0.041913733, -0.037151925, -0.028816247, -0.06970781, 0.06280452, -0.020228881, 0.04488678, -0.13217872, -0.006772711, -0.09385082, 0.1338963, 0.015868325},
    {0.03778306, 0.075053394, -0.074458875, -0.008650624, -0.039389797, 0.009433065, -0.014057325, -0.12771656, 0.15761566, 0.03693806, 0.0027404937, -0.17908245, 0.19388257, -0.0029044324, -0.0546284, 0.084726594, 0.041550424, 0.061836947, -0.08390251, 0.08303399, -0.029050946, 0.07812713, 0.09778042, -0.09468168, -0.013061618, 0.17894104, -0.026268588, -0.13477065, -0.09220701, 0.12167605, 0.030005414, 0.03821464, 0.11965177, 0.062300205, 0.0071343905, -0.0031858236, -0.097008325, 0.061310995, -0.010237443, 0.13012682, 0.12117811, -0.027553426, 0.013482957, -0.03217265, 0.018318934, -0.12486002, -0.12889236, 0.036503505, 0.056701586, 0.032406393, 0.0991145, -0.11148921, -0.028806696, 0.113168314, -0.13069049, 0.07224873, -0.098357745, -0.036567215, -0.0580225, 0.13210101, 0.10888958, -0.026336627, -0.13506754, 0.0065006423, -0.18942365, 0.12942277, -0.0072664847, 0.11833174, -0.015265746, -0.05841126, 0.032037474, -0.0028696945, 0.16966277, 0.19695161, 0.039833188, -0.018391328, -0.04671382, 0.016299604, 0.0007060004, -0.054552406, 0.18314789, -0.06431123, 0.056957457, 0.014171313, -0.058364376, 0.0015928618, -0.038470168, 0.09998322, -0.035962738, 0.14517766, 0.20746142, 0.20803002, 0.16484408, -0.057861432, -0.09465475, -0.003993861, -0.037330985, 0.15036547, 0.07039557, -0.00094922364, -0.16428408, 0.04345154, 0.05277997, -0.058419105, -0.06877202, 0.014903272, 0.038500775, 0.022477796, -0.010690139, 0.19299501, -0.14670181, 0.02985879, -0.09069189, 0.12149937, 0.102534205, -0.098644294, -0.035093993, 0.1765556, -0.026941212, 0.18625101, 0.038243577, 0.03822849, -0.005399773, -0.0019243266, -0.037607916, 0.08242381, -0.13429041, -0.051069308},
    {0.108872026, 0.07488167, -0.086319715, 0.011849433, -0.039910585, 0.053721815, 0.066934675, -0.108278036, 0.016691834, 0.10173628, -0.047852635, -0.028004825, 0.019062191, -0.08838713, 0.104077905, 0.06298098, 0.014133811, 0.10950583, -0.046169907, -0.07860252, 0.001629591, 0.05687341, -0.10112554, -0.06268203, -0.04067731, 0.05777216, -0.09795919, 0.0047344565, -0.10465136, -0.05222833, 0.09196338, -0.023876548, -0.053693354, -0.08828962, 0.07878861, 0.0075038075, -0.030635685, -0.04892683, 0.076697886, 0.11494136, -0.08924785, 0.028201818, -0.0039431155, -0.01472193, 0.07124901, -0.03493172, 0.12468496, -0.027231365, 0.11647141, 0.059691668, -0.063155055, 0.099653095, -0.09482899, -0.06455839, 0.026226044, -0.08954656, -0.022117972, -0.057585806, -0.025382996, 0.07488009, 0.032764345, -0.08586231, 0.04425171, -0.04167834, 0.04029587, 0.034981012, -0.049391747, -0.11640319, 0.025708973, -0.10370752, 0.045869768, 0.010426462, -0.0132933855, 0.081113845, 0.008797228, -0.12070483, -0.019451827, 0.056091726, 0.014881194, 0.07409784, 0.057302147, -0.06535125, -0.10131577, -0.014754355, 0.017154366, -0.012688339, 0.047185093, 0.019775212, 0.1093474, -0.11121732, 0.026901543, 0.08542526, -0.045345277, -0.093081415, -0.11852962, -0.07091716, 0.023133755, -0.056100726, -0.050727785, 0.014932305, -0.07898641, 0.09200665, -0.06337735, 0.1165387, 0.11128819, 0.062041223, -0.021160126, 0.09075892, 0.032556117, 0.062574, -0.08736688, 0.07276282, 0.09383729, -0.022595048, 0.0065915287, -0.052559704, -0.10237929, 0.07829249, 0.10314554, -0.108646095, -0.108332336, -0.01479435, 0.04869625, 0.06830868, 0.0031309724, 0.093363315, -0.052508116, 0.009945184},
    {0.038155828, -0.10258715, 0.11707658, -0.05383821, -0.047089558, 0.1840384, 0.061673563, 0.016770642, 0.11093107, 0.025447777, 0.07921895, -0.0276902, -0.11580775, 0.09296349, -0.077259384, -0.018814644, -0.014921624, 0.031431936, 0.05024311, -0.0064984127, 0.025302289, -0.025677638, -0.02020681, 0.0021999278, -0.12044066, 0.11379013, -0.017858481, 0.12518506, -0.14639154, -0.10476805, 0.032332875, -0.0688976, -0.104098715, -0.024898466, -0.019593244, 0.0013297983, 0.18635945, 0.1687325, 0.10009847, 0.08878954, -0.051477246, 0.11722421, -0.08675967, 0.114077665, 0.045747783, 0.15618438, -0.105261736, -0.017106527, 0.19126005, 0.010538785, -0.014953115, -0.078888424, 0.05298413, -0.05210818, 0.0031554003, 0.031197451, -0.068241015, 0.062947564, 0.04119048, -0.17916621, 0.057947695, 0.17457695, 0.16104302, -0.07483752, 0.0063082227, 0.026337465, -0.07659681, 0.027720178, -0.10732242, -0.048773546, -0.00826371, 0.074187644, 0.0443335, -0.07427645, -0.003642691, 0.123496026, 0.12298505, 0.021902755, 0.013406138, 0.030104302, -0.104283564, 0.020933889, 0.100187086, 0.14214939, 0.07495179, -0.11222537, 0.13231085, -0.008727271, -0.095069356, 0.018582802, -0.10148359, -0.051326998, 0.08168906, 0.017856494, 0.16146913, 0.1472009, 0.017183013, 0.06972678, -0.099665, 0.055879757, 0.2000812, -0.12353237, 0.12849261, -0.06523907, 0.077893965, -0.046978824, -0.10383838, -0.11097778, -0.039613724, -0.15745096, 0.19784355, 0.08370629, 0.18673423, -0.12750234, -0.1375962, -0.03622266, 0.020449733, -0.035545237, 0.029800843, -0.05827022, 0.03622436, 0.04611482, 0.11411537, -0.09527579, -0.018866066, -0.083770916, 0.11004378, -0.006894453},
    {0.024200052, 0.0650152, -0.043719113, -0.029107928, -0.02021423, -0.11704224, -0.071507215, 0.11796692, 0.059310198, -0.029591292, -0.021070182, -0.08284846, 0.112365425, -0.06714508, 0.09645268, -0.0963507, -0.114079624, 0.015320808, 0.06506592, 0.04086694, -0.07841125, 0.08284482, -0.04382184, -0.067123294, 0.08182594, -0.10301638, -0.10422978, 0.08479962, 0.056750298, 0.1120556, 0.020451814, -0.119587004, -0.0823648, -0.12483102, -0.010528028, 0.11175695, 0.014229596, 0.08040351, -0.045520514, -0.068507254, 0.03180349, 0.047924936, -0.018035889, -0.12318689, -0.02684921, 0.01593709, 0.026002109, -0.02681917, -0.10717815, 0.07890746, -0.00285995, 0.07692966, -0.107121915, 0.031301707, 0.044727653, 0.10363445, 0.003020525, -0.06229815, 0.033076316, -0.03770587, 0.076827645, 0.010247976, 0.079720676, 0.118175834, 0.11945033, 0.016291708, 0.008839428, -0.06438789, -0.11827308, -0.09664345, -0.057712317, -0.077239305, 0.098318785, 0.124990225, -0.012411177, 0.045919597, -0.03172505, -0.062202245, -0.09535849, -0.07838017, 0.092894614, 0.06541279, 0.08892757, -0.040309012, 0.07751563, 0.089479625, -0.057481557, -0.03236562, -0.09904328, -0.012604654, 0.088534564, -0.08643997, -0.01093775, -0.012891263, 0.11625701, -0.1081841, -0.020374328, 0.024570227, -0.050064325, 0.092823416, -0.04882762, 0.11977714, -0.053821772, -0.108266324, -0.053307682, 0.016161382, 0.07719782, 0.040338665, 0.030093312, 0.07153785, 0.04685107, -0.025709331, 0.07222265, -0.107480526, 0.09125465, 0.086874366, 0.097091496, -0.08369264, 0.09075552, -0.035085082, -0.05951342, -0.11042392, -0.024595797, 0.104894966, 0.07093242, 0.00035497546, -0.07103279, 0.06520158},
    {0.12094632, 0.02834326, 0.074678585, 0.11132319, 0.005124299, 0.14316075, 0.08048145, 0.041859023, -0.15285917, -0.10083445, 0.028193697, 0.00082895666, 0.00503687, 0.11311948, -0.008485803, -0.16158395, -0.115057364, -0.05682953, -0.024211008, -0.13850343, -0.023340795, -0.07881316, 0.06687826, -0.12872007, 0.014137558, -0.03401769, -0.04127648, 0.12627959, -0.11520712, 0.11142936, 0.07570451, -0.109244436, -0.11215616, 0.103481494, -0.056933586, -0.048349075, 0.004104892, 0.0859535, -0.034010276, -0.09597854, 0.014900974, 0.070135735, 0.12597845, 0.13744664, -0.004017721, 0.12369056, 0.1089775, 0.04318997, 0.19232091, 0.18728326, -0.122322485, 0.11960258, 0.04605547, -0.13457443, -0.020517886, -0.119775005, 0.17173901, 0.15547372, -0.06394342, 0.03392355, -0.028002298, 0.18947431, -0.05634168, -0.05458533, 0.11674922, -0.19259195, -0.06802723, 0.16783798, -0.12347489, -0.0067618843, -0.07289596, -0.03179395, -0.083978444, 0.042544186, -0.11634768, 0.047365174, -0.051497202, -0.012602299, 0.06901864, -0.0993167, -0.044607192, -0.0655302, 0.07181425, -0.020411883, 0.090858184, 0.041036043, -0.0073452448, -0.10624943, -0.08415058, 0.048642986, 0.028248152, -0.013402408, -0.03621297, 0.13380398, 0.15092845, 0.15649976, 0.06600641, -0.097500175, 0.01108772, 0.034035105, 0.16930826, -0.06365586, -0.035457682, -0.08120627, 0.10275754, -0.15674867, 0.045130607, -0.032152817, 0.070943825, -0.16080496, 0.14172062, 0.012017498, 0.18048471, -0.09783739, -0.063268416, 0.042427555, 0.053954586, 0.09187605, 0.008149811, -0.05003096, 0.017414328, 0.16305129, 0.078927964, -0.15851203, 0.12976372, 0.056304097, 0.09036863, 0.03729118},
    {-0.0052239895, -0.060871065, 0.019183308, 0.05902815, 0.020680904, -0.096812606, 0.04345566, -0.060935378, 0.08894658, 0.10253739, -0.124648154, 0.10716656, 0.078082025, 0.029708743, -0.066663355, 0.029194862, 0.0273934, -0.07342526, -0.086699545, 0.08065042, -0.06874892, 0.1043157, -0.016913354, -0.06324956, 0.08992404, 0.026066482, 0.089223504, -0.10002428, 0.025378287, 0.038544834, -0.054653108, 0.08123973, -0.12465212, -0.077035576, 0.07786691, 0.10006812, -0.080358684, -0.0834876, 0.071764946, -0.040764272, 0.11185789, 0.07796273, 0.092286885, -0.03463918, 0.022812217, 0.09247157, 0.04817584, -0.09049711, -0.019042194, -0.024363607, 0.037151307, 0.009092063, 0.028852642, 0.07961649, -0.0898104, 0.010519534, -0.052868366, -0.08766818, 0.0905292, 0.086581886, 0.04489237, 0.06704569, -0.030680865, -0.09956518, 0.006742835, -0.051184148, -0.01799336, -0.09897336, 0.036073446, -0.0423702, 0.027929544, -0.029447347, 0.112041175, -0.025793016, 0.07146907, -0.011871785, -0.017536253, -0.03305751, -0.0051790476, -0.038856506, 0.109883666, -0.05754751, -0.11004037, -0.037752777, 0.029208511, 0.08693573, -0.1074315, -0.03072089, 0.04760945, 0.055667877, 0.0972743, 0.117920905, 0.00094652176, 0.0026765764, 0.119421184, -0.0612742, 0.10124901, 0.066872895, 0.05477509, 0.0895707, -0.058974594, -0.017116904, 0.06734815, 0.09713119, 0.007941246, 0.07825664, 0.088077575, -0.12426594, 0.066069126, 0.024725676, 0.10864943, 0.0024156868, 0.09366104, -0.08492944, -0.015950829, -0.008201808, 0.042645305, -0.116844386, -0.112143666, 0.0531196, 0.09278861, -0.03987059, 0.052602172, -0.07732266, 0.05651036, 0.028168976, -0.12089959, 0.015794069},
    {-0.0643709, 0.009244412, -0.10898575, 0.00820452, 0.0017379224, -0.06523332, -0.052520007, -0.034757555, -0.10869044, 0.0069958568, 0.062016666, 0.07580125, -0.11400285, -0.013178021, 0.1172356, 0.08607158, -0.095175356, -0.069254756, 0.11349568, 0.03837627, -0.022815615, -0.06568107, 0.033415318, 0.09930682, 0.018065333, -0.035796165, 0.08576381, 0.11169422, 0.11322051, 0.038652092, 0.11180082, -0.046179384, 0.010146767, 0.01716885, -0.086232245, -0.11573297, 0.00047588348, -0.09559217, -0.05845517, -0.054555953, 0.064180225, 0.010984719, 0.012847483, -0.033786386, 0.031890094, 0.11761856, -0.0847106, -0.030592531, 0.11727345, -0.0666087, -0.03652966, -0.049426526, 0.08503109, -0.032859147, -0.028631002, 0.03901571, -0.06369367, 0.046891004, -0.095549405, 0.07281861, -0.013194174, -0.05839038, -0.093426734, 0.12356481, 0.11265308, 0.06347039, -0.026484787, -0.07275283, 0.021488607, 0.06838286, -0.10490778, 0.08508822, 0.058696568, 0.026520759, 0.0109191835, -0.12070146, -0.040828556, -0.028310329, -0.10116726, -0.029937923, 0.11792895, 0.081026375, 0.11529809, 0.12226355, -0.038063467, -0.10168487, -0.09667024, 0.019746661, 0.12335479, -0.04139188, 0.045250446, -0.066724926, 0.09046784, -0.019108951, -0.016218632, -0.021313757, 0.07587084, -0.07194033, 0.11983487, -0.07459605, -0.04410243, 0.11198744, 0.0937947, -0.11774281, -0.014092058, 0.04947418, 0.020203203, -0.08013815, -0.12448394, 0.06380245, 0.092285305, 0.035614878, -0.062144816, 0.087467015, 0.052493036, 0.042875707, -0.016717434, 0.0064395964, 0.10003528, -0.017813444, 0.06244853, -0.07308093, -0.075603455, 0.07735759, -0.029287577, 0.06955689, 0.040528715, -0.11511886},
    {0.06984456, -0.07234436, -0.04899871, -0.1450848, 0.06867635, 0.058389623, 0.023472557, 0.083182566, 0.124170706, 0.09390587, -0.040494476, 0.17528321, -0.07763643, -0.0042800414, -0.04045925, 0.1382783, 0.059095968, 0.018289486, 0.11576512, 0.14003894, -0.028447837, -0.156442, 0.0034017002, -0.1150523, -0.017638842, -0.008619131, -0.0069366936, -0.018716423, 0.08613479, -0.07969801, -0.008289418, 0.049879476, 0.038665954, 0.13723384, 0.059454728, -0.08374084, 0.047491215, -0.036990218, -0.13844545, -0.19088115, 0.17976536, 0.05959897, 0.0779397, 0.08877098, 0.107986696, 0.06817454, -0.012276556, 0.0222762, 0.0652451, 0.027552003, -0.11132821, 0.06787659, 0.15886125, 0.12232778, 0.09067786, 0.10989158, 0.087110005, 0.17619386, 0.1042768, -0.058568496, 0.024419276, -0.042294085, -0.1548155, -0.039624315, 0.14098516, -0.09035495, -0.008152441, -0.11506438, 0.07910565, 0.08482101, 0.079109594, 0.014906674, -0.15643403, -0.06414112, -0.12672427, -0.072611995, 0.03917145, -0.0016737564, -0.105068855, -0.045032527, 0.11438508, 0.0169178, 0.07967624, -0.04000913, 0.11775021, 0.049567297, -0.030391568, -0.07071457, 0.02291357, 0.0032082845, -0.05173029, -0.08600641, -0.02008, -0.047014356, -0.030953798, 0.102121584, 0.047946736, -0.03473243, -0.15749225, -0.008927845, 0.13642474, 0.060598828, -0.047680147, 0.10900226, 0.09756274, -0.11012508, -0.087828405, 0.09800913, -0.0078379745, -0.043177195, 0.12030324, 0.17715886, 0.17707527, -0.022356864, 0.09168918, 0.052545186, 0.09444891, -0.035786506, -0.11968393, -0.046322156, -0.02174921, -0.055168413, 0.12773637, -0.054246947, -0.16568455, 0.1170685, 0.07584597, -0.025478104},
    {-0.09761671, 0.19048448, -0.1809917, -0.019310487, -0.03069948, 0.08055059, -0.10042515, -0.12777722, 0.07462319, 0.09162474, 0.045586724, -0.1486554, 0.022070536, 0.13566211, 0.03351738, 0.104503185, -0.0028537447, 0.1379029, -0.089148, 0.035330746, -0.018997122, -0.03579167, -0.052034486, 0.0872736, -0.13231812, 0.014271312, 0.076111674, 0.0023601777, 0.11251673, 0.00060818216, 0.066103175, 0.20252338, -0.07109414, -0.086051464, 0.028460095, -0.041461494, -0.12199071, 0.025098432, 0.056005534, 0.006122578, 0.079908416, -0.15866514, -0.18272138, -0.10612421, -0.014072126, -0.02106497, -0.13601299, -0.00028227782, -0.050445836, -0.09010169, -0.041969363, -0.075237125, 0.038149133, 0.17881845, -0.10550184, 0.12985303, -0.14145854, -0.1629227, 0.03697739, 0.104986615, 0.106958665, -0.04620866, -0.031886492, 0.14018412, -0.19202016, 0.050802983, 0.11111345, 0.027751494, 0.074848935, 0.07675217, 0.03302961, -0.03659317, 0.15300226, 0.06654328, -0.024661278, -0.008105898, 0.13725944, 0.076818265, -0.061029516, -0.05215162, 0.11177563, 0.039643582, 0.021944433, -0.06474881, 0.10444349, 0.12769407, -0.19394799, 0.08163431, 0.023978222, -0.038216017, 0.10719082, 0.09801551, 0.15344647, -0.16722137, -0.13461798, 0.052684445, -0.04258799, 0.117872536, -0.043310225, -0.13500762, -0.1476314, 0.10129817, 0.034777697, -0.009245783, 0.09678398, 0.021469055, 0.16186818, 0.16108543, 0.065383635, 0.119829826, 0.03367788, 0.054020487, -0.020884493, 0.19688849, 0.12515734, -0.059585508, 0.17259403, 0.1881121, -0.020686818, 0.15571646, -0.03435477, -0.15717804, 0.062364977, -0.007353843, 0.08261633, 0.06652724, 0.02221624, 0.08977385},
    {-0.041164704, 0.06302864, -0.020688325, -0.0685566, 0.0005660126, -0.047403354, 0.11889295, 0.12149284, -0.01207204, 0.024272952, 0.14054255, 0.06839709, 0.023249522, -0.08239743, 0.07001379, 0.08697943, 0.08673398, -0.09261032, 0.079703, 0.089037225, -0.19904108, -0.14160085, -0.006554285, -0.089880764, -0.06452121, -0.20271567, -0.15151699, 0.011690689, 0.077877104, 0.04572992, 3.649969e-05, 0.05110799, -0.072788246, 0.003099475, 0.0028605014, 0.09244709, -0.10440682, -0.045219388, -0.10137432, 0.021397866, 0.15344693, -0.097768985, -0.09552709, 0.10838318, 0.18878222, -0.0999747, -0.0977789, 0.011255411, 0.14886118, -0.12948707, -0.15908122, -0.01043187, 0.09706361, -9.093285e-05, -0.03353799, 0.02184667, 0.059349563, 0.107011236, 0.079170175, 0.17650345, -0.05382608, 0.08655623, -0.167785, -0.006200655, -0.057670537, -0.01445609, -0.082341656, -0.043615192, 0.009147942, 0.0690728, 0.011375062, 0.04197302, -0.07986991, 0.014081838, -0.062704206, 0.07744878, 0.027957056, 0.019478308, 0.04784242, -0.006895758, 0.10506425, 0.038506355, -0.001816517, 0.097851604, 0.15447861, 0.07802318, 0.13775592, 0.034768727, -0.15172955, 0.041748982, 0.03159565, 0.03111295, 0.033601206, -0.055853385, -0.1090775, 0.13765204, 0.1728154, 0.06004475, -0.1685449, -0.084865846, 0.1320488, -0.09825711, 0.110116735, -0.07501076, 0.1626732, -0.10468964, 0.011368569, 0.095618784, -0.0050048237, 0.14134325, 0.029568631, 0.059848737, 0.049177855, -0.021349583, 0.0023466605, 0.12987415, -0.028515587, -0.13511726, 0.018448703, -0.0072016977, 0.030807063, -0.064919144, 0.19104758, 0.042220447, -0.1778712, 0.10092534, 0.13320327, 0.031137804},
    {-0.06679702, -0.049274147, -0.02661556, -0.11295518, 0.09409392, 0.07905665, 0.086431, -0.10142252, -0.015070736, -0.09932721, -0.021756053, -0.084046364, 0.120673686, -0.006669879, -0.043641567, 0.10698828, -0.09637022, 0.011974663, -0.070714414, 0.09826362, -0.037687987, 0.09939504, -0.085399896, -0.0073460042, -0.073331535, 0.0017630756, 0.052691102, -0.041496724, 0.008137614, 0.055752426, 0.09826097, 0.07062966, 0.046205103, -0.07614902, 0.012005717, 0.07648927, 0.07124692, 0.034613192, 0.12322286, 0.06922904, -0.112550706, -0.06786993, 0.051801115, 0.0113841, 0.11211741, -0.042099148, -0.10134962, 0.0076195598, -0.016881406, 0.06400329, -0.035564303, 0.04244545, 0.06555176, -0.019382745, 0.0017004013, 0.011410475, -0.01888311, -0.09264517, 0.1078397, 0.02202171, -0.052440077, -0.10406533, 0.065897614, -0.1006774, 0.029093415, 0.103557825, 0.0012106299, -0.090904504, 0.03226939, -0.06705192, -0.03530714, 0.026406556, -0.096820444, -0.027932197, -0.10057029, -0.054618627, -0.12225041, -0.044831842, 0.06546199, -0.08772355, -0.09802884, -0.060303867, 0.057787806, 0.09155545, -0.07200867, -0.04627219, 0.041525185, -0.020624548, 0.014227331, -0.044603914, -0.015726268, -0.034199715, 0.059809387, -0.11398986, 0.026761323, 0.078238845, -0.11529073, 0.114738405, 0.03376761, 0.03788379, -0.09149763, -0.09921414, 0.11398554, 0.07690543, -0.10204682, 0.07980284, -0.015957445, -0.0016904175, -0.047542304, 0.013363719, -0.028517663, 0.059217155, -0.03437218, 0.07082811, 0.0816538, -0.073458344, -0.0054324567, 0.107765585, -0.005325973, -0.07886723, 0.0016716719, 0.11362341, 0.051740646, 0.029195637, -0.08373284, 0.028459132, -0.08677584, 0.040189236},
    {0.039712105, -0.0053959116, -0.2127474, -0.14545754, 0.11058492, -0.07438864, -0.027331972, 0.12132023, 0.08943277, 0.083046116, 0.103137344, -0.006273897, -0.0051295967, -0.11023681, -0.028295282, 0.01027936, -0.017598962, 0.047078934, 0.03812535, 0.10828052, -0.14958264, -0.1528446, -0.057986207, -0.008359525, 0.102218814, -0.13885844, 0.029209763, 0.069882736, 0.11352383, 0.0047836737, 0.002347602, -0.005693228, -0.159254, 0.04658738, 0.21739094, 0.07386693, -0.16670668, -0.1310584, 0.024575995, -0.023436757, 0.22629264, -0.10020477, 0.14435025, -0.10831507, 0.046223793, 0.0018853591, 0.022175042, -0.13074686, 0.09526545, -0.023308426, -0.11185081, 0.05606868, 0.08065114, 0.13451071, 0.1297445, 0.11991957, -0.16294147, -0.008135565, 0.1918234, 0.16950324, 0.04583729, 0.016546374, -0.21230437, 0.16972376, 0.050146498, 0.08843995, -0.02806449, -0.11362115, -0.080761425, -0.12907168, -0.05035101, -0.035383392, 0.20778891, 0.2079531, 0.101904094, -0.02037934, 0.033642594, 0.03350961, -0.18774135, -0.121775806, 0.0076753567, 0.13331932, -0.18670231, -0.107876346, 0.19388372, 0.2273898, -0.040174965, -0.058991525, -0.11144862, 0.085359134, -0.01327322, -0.12244957, -0.14820896, 0.045146454, 0.045334194, 0.1262443, -0.0395671, 0.08812942, 0.027902443, 0.07398545, -0.08227102, 0.16427368, -5.637241e-05, 0.0057324516, 0.10125059, -0.0802398, -0.051502325, 0.1515127, -0.101238914, 0.17182963, -0.063474156, 0.04578078, -0.009651305, 0.15851814, 0.0052521774, 0.01734213, 0.019783303, -0.0901752, -0.07603694, -0.10097539, 0.068400286, 0.02522346, 0.112354584, 0.16235249, -0.2151871, 0.08966477, 0.078808025, 0.12532675},
    {-0.013292533, 0.014462841, 0.077937424, -0.050894603, -0.026740564, 0.15817375, 0.08815213, -0.12727363, 0.00206744, -0.19340573, 0.14183147, -0.10106232, 0.010231572, 0.18288334, 0.030523015, -0.1743733, 0.00833376, 0.14641583, 0.16695109, -0.10954728, 0.038134586, 0.11695626, 0.05950417, 0.067712806, -0.053222355, 0.16411358, -0.030554159, 0.048878483, -0.0051506804, 0.17825787, -0.052088346, -0.045493547, 0.14117745, -0.049794372, -0.15044972, -0.07616866, 0.025240986, 0.030933322, 0.09879381, 0.110129334, 0.029571828, -0.070104465, -0.006264989, 0.123552695, 0.016550912, -0.065353036, 0.008127763, -0.14587748, -0.062071435, 0.037644263, 0.12818646, -0.1146041, 0.04056034, -0.18203504, -0.054892685, -0.13095406, -0.046079792, 0.017458096, -0.18235719, -0.1474927, -0.13179232, 0.16521104, -0.12979709, 0.04340285, -0.027532745, 0.12522942, 0.0892421, 0.0395326, -0.07508334, 0.060090184, 0.040711395, 0.03288475, 0.056655247, -0.053337995, 0.008788267, 0.0040413677, 0.09145916, 0.020325677, 0.026071325, -0.12331882, 0.05641569, -0.16161376, 0.022314217, -0.062050074, 0.110064946, -0.0577526, -0.08942756, -0.026399886, -0.0058719167, 0.022729129, 0.09599138, 0.01982721, 0.09682009, -0.034398615, -0.04550151, 0.07275405, 0.006767205, -0.032925375, 0.14368233, -0.022259712, 0.16881333, -0.025663171, 0.04538651, -0.08894423, 0.047472563, -0.047651965, 0.0055840104, 0.063048854, 0.07752843, 0.016752746, 0.16610156, -0.003992178, 0.11254654, 0.06002054, -0.039086487, -0.16950919, 0.003159778, 0.06420758, -0.016566543, 0.1174358, 0.12661639, -0.028279087, 0.041436642, 0.013349001, 0.019732898, 0.036424592, -0.09240305, -0.08819126},
    {0.090295464, 0.06951228, -0.022324383, 0.004789233, 0.022815764, -0.10244882, 0.10575527, -0.060521126, -0.11211255, 0.046549827, 0.031062543, 0.044285417, -0.12139261, 0.00178051, 0.05089143, -0.023485899, -0.08357173, 0.024906427, 0.07351297, 0.10964173, 0.06302178, -0.06895164, -0.09879655, 0.0033409894, 0.12369904, 0.12213194, -0.11920798, -0.034411073, 0.09194717, 0.10916135, -0.07559499, 0.00024473667, -0.09627816, 0.10328263, 0.029931724, 0.111416996, -0.07228556, -0.07533893, 0.07443923, 0.062693596, -0.12343466, 0.12206748, -0.019716263, 0.08883047, -0.10615885, 0.053351402, -0.074738026, 0.00527367, 0.118076384, -0.092074424, 0.071290046, -0.056457102, -0.11137849, 0.02509728, -0.028985262, 0.05817008, 0.020209908, -0.08469659, 0.0007991791, -0.06615597, 0.08860472, -0.0528152, -0.10164502, -0.0951767, 0.07674372, -0.041098684, 0.035987288, -0.121194154, 0.09523493, 0.0034835339, -0.020479262, -0.031796366, 0.08311641, -0.11358851, -0.043511897, 0.07744753, -0.085543305, -0.058704495, -0.051993966, 0.056188613, 0.020536512, 0.039532274, -0.0018230379, 0.051635504, 0.004743606, 0.07156566, -0.103741944, 0.10926822, 0.07741666, -0.12244782, -0.09721273, 0.039924562, -0.0030800998, -0.10466653, 0.068005174, -0.081318945, 0.049429774, -0.11478862, -0.07290834, -0.059203297, -0.07952452, 0.025097042, -0.0397363, -0.11378777, -0.056322306, 0.08940607, -0.055905104, -0.09084326, 0.06022218, -0.018937409, -0.040302366, -0.10905403, -0.09476006, 0.030441612, -0.08740747, -0.10802889, 0.10985607, 0.10247952, 0.029408097, 0.006667286, 0.02156359, -0.054947406, 0.07542485, 0.060260147, 0.015792817, 0.11166456, 0.09095213, -0.040869415},
    {0.1867508, -0.036692493, -0.0675944, -0.100322485, -0.01773004, 0.14818215, 0.06157724, 0.03100728, 0.078042656, 0.104773134, 0.090448014, -0.023767276, -0.1072377, 0.02664447, 0.1453336, 0.007195425, -0.09756372, 0.057145227, 0.09232538, 0.109874606, 0.0006732292, -0.062450863, 0.0002402322, -0.0315873, 0.045427777, -0.18460886, 0.059255563, 0.018458087, -0.05152104, 0.05961258, 0.0929785, 0.11090689, -0.13780703, 0.14809981, 0.14384188, 0.0070416383, -0.14551441, 0.016843371, -0.09804644, -0.114000365, 0.13271758, -0.07124035, -0.056000233, -0.031580564, -0.022175822, 0.09264218, -0.19268247, -0.16569737, 0.13871624, 0.12244889, -0.10809039, -0.018769177, 0.123102106, 0.003371544, 0.1734984, 0.11685565, -0.04246967, 0.15612091, -0.031581074, 0.117838, 0.13054186, 0.019598795, -0.027463015, -0.0064432016, 0.12361384, -0.015902033, 0.0077212034, -0.022851251, -0.07941625, 0.06477165, -0.012749919, -0.027325802, 0.049074497, 0.071818516, -0.12609255, -0.11481748, 0.10684616, -0.062025867, 0.033551414, -0.058230594, -0.025713777, 0.1331001, 0.06333479, 0.050159447, 0.0055710776, 0.17929454, 0.106169105, -0.08642822, -0.003770126, 0.16934498, -0.12724958, 0.035184674, -0.17773896, -0.020000264, 0.038168218, -0.04714747, 0.12818526, 0.12261669, -0.059499227, -0.0898775, 0.12995678, -0.028311092, 0.19651332, -0.062493734, 0.062024634, 0.018779483, -0.04244895, 0.11156183, -0.13560088, -0.040171463, 0.16231902, 0.18156539, 0.08607491, -0.03941557, -0.08870387, 0.16366827, -0.02309203, -0.105282515, 0.031122738, 0.07497372, 0.05335596, -0.015881011, 0.08496482, -0.04096981, -0.063006714, 0.06250683, 0.020702383, 0.05127956},
    {0.0023312229, -0.032165628, -0.12975988, 0.10395759, -0.14636412, 0.014218444, -0.13636456, -0.093208976, 0.15750568, 0.0655956, 0.031881582, -0.008161282, 0.1646846, 0.14422241, 0.037064362, 0.03402722, -0.031952158, 0.07325558, 0.023707481, 0.07760964, 0.05629623, 0.07743714, 0.10633711, 0.1261494, 0.029299473, 0.16458926, 0.14400055, -0.12561643, 0.046938404, 0.15690708, -0.0018026084, 0.054868598, 0.19150378, 0.047488358, 0.1286419, 0.09324367, -0.006884046, 0.07158762, 0.10745789, 0.15418044, -0.038566325, -0.17103083, -0.14580737, 0.14724484, 0.04284566, 0.0016619557, 0.11417099, -0.15363179, -0.1568366, 0.052206013, 0.041015245, 0.08669213, -0.06011023, -0.01187878, 0.03145698, 0.084600344, -0.022626415, -0.061909895, -0.023995837, 0.0027325328, -0.056336287, -0.043567378, -0.047923792, 0.19884434, -0.1982618, 0.11589152, -0.11178206, 0.019715553, -0.062049218, -0.14472485, 0.034914255, -0.112415016, 0.06067562, 0.10365705, 0.08327946, 0.006114448, 0.097666815, 0.004645003, -0.060590837, -0.10216221, 0.17237847, 0.0384466, 0.1715897, -0.0946961, -0.035450645, -0.05273833, -0.06458446, 0.17999806, -0.024091946, 0.13041325, 0.1715152, 0.022893688, 0.028506402, 0.014126505, -0.033597764, -0.04164315, -0.09651486, 0.2011847, 0.17398019, -0.06266673, 0.0069439583, 0.18488906, 0.02766316, -0.032037973, -0.10960283, 0.16856363, 0.076008216, 0.21103731, 0.08386904, 0.059641413, -0.1511675, -0.10304183, -0.13194652, 0.21759804, 0.11073134, -0.11388492, 0.14952211, 0.22921567, 0.10300212, 0.09562571, 0.04025567, -0.07652994, 0.19035003, 0.06271678, 0.09733032, 0.009110624, -0.023894174, 0.053022947},
    {0.10849431, -0.06529266, -0.03628853, -0.06451264, -0.07720721, 0.10401127, -0.07234678, 0.027876794, -0.06737515, -0.1093719, 0.06043318, 0.09353733, -0.105362624, -0.08875701, -0.016731888, -0.10225478, -0.099131495, 0.04792577, -0.082392216, -0.0290972, 0.08112118, 0.0053888857, 0.0040824413, 0.029322892, -0.12339175, 0.10476461, 0.08099866, 0.082452625, 0.020103663, 0.039824724, -0.117685676, -0.0938344, -0.051953316, 0.11587119, 0.10912913, 0.09381321, 0.06457889, -0.051620573, 0.11130169, -0.11823374, -0.0384652, 0.07314327, 0.036818385, -0.032129854, 0.036033034, 0.032047927, 0.0057765543, 0.041147828, 0.010059863, 0.11449394, -0.07768157, -0.06934199, -0.013349503, 0.10087955, -0.008963525, -0.06509212, -0.016376376, 0.10399261, -0.0812912, 0.11895722, 0.052871823, 0.12280065, -0.030781478, -0.12161404, -0.06954265, -0.010276765, -0.03249237, 0.05091065, -0.0013791025, 0.027771503, -0.11996758, -0.06935507, -0.017347962, 0.094083786, 0.024331838, -0.113170266, 0.087644994, 0.11574784, 0.006382525, 0.015811741, 0.11855453, 0.09653151, 0.08851454, -0.09608245, 0.11381146, -0.1040805, -0.052381754, -0.11643374, 0.093859345, -0.023391545, -0.060125023, 0.02313903, 0.09981492, 0.10387981, -0.025140494, -0.023556918, -0.10387802, -0.114674985, -0.015117735, 0.085033566, -0.10966882, -0.071161896, -0.08830392, 0.12200147, -0.046159565, -0.019262463, -0.04117626, -0.05080965, -0.018616974, 0.004728198, 0.098825574, 0.07570112, 0.10340202, -0.010233998, -0.06482485, -0.08446041, -0.09749535, 0.005158186, -0.026851296, -0.024875224, 0.06487867, 0.032447904, -0.07008809, -0.062027395, -0.03620562, 0.12232232, 0.031764537, 0.0184924},
    {0.072531916, -0.05836382, 0.14487395, 0.02506296, -0.0061489157, -0.06376657, -0.009657383, 0.10570585, 0.029735098, 0.01604245, -0.02985657, -0.040536556, -0.07009616, 0.07983818, 0.015885275, -0.13775912, 0.1002506, -0.15927887, 0.077286884, 0.06315569, -0.034661476, 0.05619206, -0.04306157, 0.058255125, -0.06090748, -0.10722938, -0.07227997, 0.0834959, 0.013956258, -0.12617634, 0.02894871, 0.017900199, -0.09314253, 0.049144942, -0.09133446, -0.0050295354, -0.07328086, 0.009777288, -0.017055476, -0.022714298, 0.09378975, 0.0835765, 0.109987944, -0.03392215, 0.1988038, 0.07168363, -0.059673212, 0.091892794, 0.10823948, 0.005249602, -0.117654234, 0.06378081, 0.07553536, -0.10431403, 0.19288895, -0.10006315, 0.073866375, 0.18647988, 0.0037552144, -0.14111629, 0.043805484, 0.0937776, -0.024604762, 0.057252847, 0.032678634, -0.14281017, -0.051182717, 0.064847514, -0.10580722, 0.10249473, 0.10427856, 0.03356265, 0.011211253, -0.1300996, 0.106393345, 0.07615406, 0.034837466, -0.09481972, 0.08611585, -0.12006315, -0.13518631, 0.055303663, 0.092635244, 0.10184509, -0.038826212, -0.09791531, 0.11803209, 0.046977814, -0.112390205, -0.07653788, -0.037559208, 0.011772243, -0.16879027, 0.14197081, 0.0300048, 0.20401713, 0.063030966, -0.022843156, 0.06153075, 0.17047948, 0.09376492, -0.13027155, 0.11026275, 0.011745751, 0.1355717, -0.16596885, -0.13890506, -0.11563513, 0.045511615, 0.0063304873, -0.020236824, 0.15640111, 0.021812454, -0.112441465, 0.019095575, 0.06882693, 0.0035759294, -0.13539812, -0.036210857, -0.0793724, -0.11741546, 0.14752418, -0.024198866, 0.030338049, 0.0017916402, -0.10944017, 0.06755088, 0.09846656},
    {-0.08014092, 0.19438013, -0.19210714, 0.015107861, -0.108205535, -0.103013225, -0.06320665, -0.14776075, 0.09403443, 0.094891205, -0.10574125, -0.19849244, 0.0726435, -0.14863479, -0.024261484, 0.07357281, 0.1157009, 0.15442672, -0.12290503, 0.21638909, 0.038867284, -0.0012894996, -0.22517218, -0.0036440329, 0.015194714, -0.053588923, -0.00012544428, 0.14916182, -0.02446497, -0.0069675893, 0.06634715, 0.046541873, 0.07596607, -0.16696927, 0.15196928, 0.07371147, -0.1330996, -0.16140147, 0.038948897, -0.078134336, 0.13864854, -0.020118946, -0.16323857, -0.04555884, -0.06052976, -0.021706788, -0.06659709, 0.028832372, -0.087485276, -0.0014203542, -0.064403854, -0.10889624, 0.15450865, -0.009460064, -0.0878654, 0.07736506, -0.1666291, -0.2186393, -0.07866199, 0.11311497, 0.08877581, -0.133585, -0.16313525, 0.15642926, -0.16550753, 0.16594306, 0.107461445, -0.03144142, 0.09678094, -0.10843128, -0.011545379, -0.19165938, 0.11931063, 0.14809446, 0.077014774, -0.025320109, 0.017505405, 0.17159185, -0.13062793, 0.08879706, 0.16553257, 0.1463506, 0.028708829, -0.10880407, -0.10553852, -0.031431917, -0.027713427, -0.004242939, -0.04953834, 0.008606081, 0.14099362, -0.037648067, 0.23013301, -0.08759762, -0.062312704, -0.1581637, -0.083306216, -0.018031452, -0.07198086, -0.13541247, -0.08348759, 0.08453154, -0.009726926, 0.12219173, 0.08720088, 0.24510734, 0.18489912, 0.17259724, -0.13550566, 0.045691893, 0.029891867, -0.054619566, -0.1460272, 0.18334918, 0.14591861, 0.007371296, 0.055725716, 0.21253291, -0.081779756, 0.03310835, 0.12233494, -0.0105264615, 0.11114105, 0.13588974, -0.14648229, 0.11720472, -0.20726906, -0.02600788},
    {0.11869183, 0.14505365, -0.11126343, -0.14113244, 0.05426063, 0.016960505, -0.018481165, -0.047808144, 0.19683528, -0.029832935, 0.12695666, 0.056552656, 0.045375165, 0.10008721, 0.05615532, 0.05347402, 0.010428823, 0.05726825, -0.10848471, 0.03603311, -0.13049619, -0.032157246, -0.09701341, 0.11220744, -0.17666814, 0.14354411, 0.07974799, -0.026691027, -0.08028958, 0.19183937, 0.015568126, 0.10816085, 0.043325238, 0.014455598, -0.048741955, -0.11259944, -0.14691165, -0.17127734, -0.051114753, 0.03628107, 0.15323152, -0.19806747, 0.036479287, -0.10987266, 0.00451528, -0.113530755, -0.15779229, -0.06426112, 0.065894246, 0.021168621, 0.14878514, -0.036215007, -0.12826018, 0.16076721, -0.019180765, 0.052460168, 0.049689602, -0.07533615, -0.13882716, 0.00023072219, 0.10649265, 0.052591942, -0.07442635, 0.008621451, -0.020326305, 0.010891183, 0.042345766, 0.012904068, 0.000677815, 0.021733698, -0.0178973, -0.1280342, 0.111226276, -0.050941136, -0.0072433525, -0.099642724, 0.028458338, -0.02166988, -0.07894262, 0.038946837, 0.09338214, 0.10321568, -0.036194947, 0.033117946, 0.15963005, 0.1232344, -0.14774127, 0.031692058, 0.032113746, -5.7811834e-05, 0.025289733, 0.019664848, -0.01566467, -0.19056676, -0.027061306, -0.11907512, -0.03946156, -0.027229618, 0.047703553, -0.03203934, 0.035565954, 0.12349254, 0.01057123, 0.03648764, 0.14250411, 0.1756557, 0.06419289, 0.097977124, 0.06417374, 0.13547543, -0.022208579, 0.03705085, -0.022547754, 0.121501625, 0.18027487, -0.001736376, 0.028125422, 0.09473767, -0.0021089006, 0.16425726, 0.1657755, -0.19241276, 0.010827632, 0.08289235, 0.070667595, 0.07438429, -0.009296418, -0.01579657},
    {-0.014556242, 0.12531103, 0.0053760465, 0.1543792, 0.076348454, 0.17150694, -0.0068100337, 0.04754879, 0.029137213, 0.08085101, 0.12851629, 0.06925949, -0.056629844, 0.17588112, -0.049884852, -0.046474393, 0.06925914, 0.1374037, 0.17810537, 0.017697781, 0.041364115, 0.0007919635, -0.001530591, -0.00971702, 0.061671585, 0.10138989, 0.14891164, 0.019926442, -0.11651551, 0.0068884194, -0.008804628, -0.07382485, 0.029859023, -0.06384181, 0.0742685, 0.015524507, -0.049982447, 0.0037583187, 0.03852121, -0.12551332, 0.068324715, 0.008388158, -0.06727905, 0.14075124, 0.06424923, -0.009197254, -0.020382602, -0.096264504, 0.025215043, 0.073920436, -0.07351418, -0.10359795, 0.016165417, 0.026806068, -0.06989933, 0.107558884, 0.12209522, -0.11107036, -0.1057734, -0.0039157253, -0.029616928, 0.19398443, -0.0502788, 0.028060973, -0.068125345, 0.01105006, -0.10538906, 0.05711705, -0.022748211, 0.13607892, -0.032892466, -0.05389629, 0.043348525, -0.1163379, 0.055537246, 0.017184606, 0.12865244, 0.12629008, 0.17583573, -0.1278559, -0.057995323, 0.04458454, 0.09197353, -0.11705543, 0.16146728, 0.04692156, -0.00787879, 0.09258264, -0.01615017, -0.047217183, 0.018303914, 0.015192366, 0.09401439, -0.093816034, 0.12966913, 0.044005062, -0.033753783, 0.1259463, -0.036803238, 0.005089233, 0.14342962, 0.0501285, 0.105615914, -0.06848669, -0.05013415, -0.051351212, 0.047553334, 0.028075714, -0.044452958, -0.08525294, -0.027516052, -0.031885754, 0.04149625, 0.13121733, -0.14338493, 0.023253208, 0.17707297, -0.0949968, -0.06117549, 0.1458013, 0.06065103, -0.027690854, 0.0980769, 0.105127715, 0.09671549, 0.013150692, -0.06573795, -0.09623646},
    {-0.052647203, 0.029093832, 0.023263156, -0.070272416, -0.09763774, 0.0582608, 0.014726102, -0.059527397, -0.015463114, 0.066180915, -0.052373737, 0.11485359, 0.0242123, -0.110726744, 0.061350584, -0.07544762, 0.014354914, -0.053065956, 0.105267435, -0.0004749298, -0.10984257, 0.040692717, 0.07843456, -0.04945755, 0.08517206, 0.11846995, 0.056334972, 0.0072615743, 0.017596066, -0.05423248, -0.08996388, 0.017736226, 0.085504025, 0.044911385, 0.1085071, 0.11505732, 0.10572827, -0.050865293, 0.05006498, -0.06925529, -0.05907762, 0.1016466, -0.02838257, 0.050742865, 0.11451575, -0.033610076, -0.039442867, 0.03289035, 0.09422651, 0.0074305832, 0.058245093, 0.08395788, 0.039937496, -0.120254576, -0.087156236, -0.08223969, -0.09315163, 0.06801936, -0.044500828, 0.120036006, -0.054924816, 0.10174635, 0.12383342, 0.07565147, 0.018431455, 0.1152724, -0.10894418, 0.056450278, -0.11315408, -0.11222753, -0.038272172, -0.04336956, 0.010210395, 0.12084505, -0.0048499703, -0.03926274, 0.11479634, 0.10334757, 0.007284552, -0.11531317, 0.00047048926, -0.0073390007, 0.017124027, -0.042608142, -0.040674716, 0.03159803, -0.113173485, -0.010954529, -0.05926028, 0.098955035, -0.095428795, 0.07673174, -0.028080016, -0.037625164, 0.038121402, 0.0730578, -0.12210593, -0.10743448, -0.09398389, 0.028019816, -0.093028486, -0.023013324, -0.11548796, 0.08927831, 0.0838044, -0.12327534, -0.03435597, -0.059528887, -0.080331355, 0.076542616, -0.05532831, 0.07575631, -0.07610503, 0.10511196, -0.009798735, 0.11330289, -0.05203533, -0.09896088, -0.059868783, 0.022836208, 0.035539597, 0.06487352, -0.033401936, 0.11024377, -0.11332962, 0.10924512, 0.12346864, 0.08436903},
    {-0.13873686, 0.11956208, -0.13905105, 0.0012602473, 0.06926603, 0.062599495, -0.14075367, -0.13254517, 0.012401205, 0.05405186, -0.0159277, -0.09957784, 0.09891858, -0.14401299, 0.2016496, 0.014152326, -0.02000627, 0.09933197, -0.08660263, 0.08064641, -0.106118426, 0.058863126, -0.025260398, 0.02504856, -0.17319454, -0.14937879, -0.0511478, -0.05374785, 0.025855057, -0.019728702, 0.044089526, 0.12392587, -0.046802655, -0.10121537, 0.123663165, -0.03436537, -0.07846201, -0.21220636, 0.0441603, 0.025153145, 0.11824107, -0.12486429, 0.03889011, -0.10182912, -0.11639989, -0.04098295, -0.17497486, -0.052169207, -0.1426998, -0.09457961, -0.005207644, 0.028817955, 0.16395222, 0.12027455, -0.11496447, 0.017955098, -0.04620766, -0.026128134, -0.038299073, 0.052907, 0.052626148, -0.15221894, -0.096260734, 0.06876631, -0.16385576, 0.21079773, 0.08655374, -0.034328405, -0.052766398, 0.013659032, -0.10139713, -0.024037145, -0.02768335, 0.021057693, -0.0467501, -0.1574712, 0.17699575, 0.105901554, -0.034565486, -0.0055523813, 0.18973792, 0.19024329, -0.0057552364, -0.04406366, -0.003938708, 0.15757862, -0.073288776, 0.1819288, -0.05382108, 0.024884008, 0.077121094, 0.08009502, 0.2183454, -0.09894862, -0.023825673, -0.04740284, -0.031673893, 0.20719251, -0.049345415, -0.20362142, -0.16136712, -0.0262452, -0.091984965, -0.08618473, 0.072742544, 0.17900653, 0.00021428794, -0.0017533796, -0.07864208, 0.024451694, -0.15882233, -0.00048277422, 0.044379123, 0.15145484, 0.0981738, -0.025712382, 0.06202607, 0.13559756, 0.087164275, 0.0020963373, 0.18648493, -0.2204726, 0.06325847, 0.05129127, 0.071904235, 0.07253897, -0.18095146, 0.12679742},
    {0.18383029, -0.0067056986, 0.0020420202, 0.06851725, 0.061852813, 0.04323658, 0.040106017, -0.012701498, 0.0030148188, -0.03716667, 0.1350169, -0.04833668, 0.023671534, 0.13284431, 0.120435424, -0.037468687, -0.068734795, 0.15651138, 0.04471225, 0.008574192, -0.061642483, -0.009766558, 0.025812624, -0.06454509, 0.0346241, 0.020558309, -0.084475376, 0.115662456, -0.18006682, 0.08889755, 0.0850894, 0.18527131, -0.048695587, -0.02653433, 0.032393567, 0.04208268, 0.04948552, -0.080035634, 0.032774072, 0.08228224, -0.06633074, -0.17786072, -0.13745688, 0.12079086, -0.1386914, -0.044543296, -0.10874261, -0.12786667, 0.1262193, 0.10728644, 0.090388305, -0.09058853, -0.12813018, 0.061745837, -0.12594286, -0.10801339, -0.13688183, -0.032562554, 0.02677006, -0.067239776, -0.035497233, -0.001821664, 0.029911205, -0.09421586, -0.061431285, 0.10421285, -0.077774614, 0.11872486, -0.118171565, -0.08289799, -0.042427897, 0.04778631, -0.10605627, 0.11565069, 0.08680745, 0.10697471, 0.08086253, 0.057222944, -0.10148065, -0.10955572, 0.11920274, 0.048415337, 0.00017879771, 0.058967628, 0.18109597, -0.03248475, 0.07556513, 0.040384915, -0.05596272, -0.021473736, -0.055041175, -0.02865244, 0.06826142, -0.060335785, 0.09420288, 0.118427396, -0.036836628, 0.07610752, -0.011400982, -0.01126075, 0.114809304, 0.1719671, 0.17781661, -0.016318351, 0.03688688, 0.036209583, 0.11170788, 0.103862055, 0.090232685, -0.06631856, 0.050883368, 0.06713062, -0.06150292, 0.019180672, 0.07209552, -0.16693985, 0.13248183, -0.07150192, -0.12127003, 0.15544236, -0.032121573, -0.112012364, 0.16468401, 0.17062551, -0.11364085, 0.16658977, -0.16261494, -0.01558382},
    {0.10762763, -0.047221195, -0.18420267, 0.06642136, 0.010044284, -0.014860783, 0.06555362, 0.010247002, 0.026225131, 0.108652964, 0.194282, 0.099029966, -0.039048396, 0.05895832, -0.038259745, -0.008075974, 0.04580168, 0.051370893, -0.034917817, -0.02237901, -0.04894879, -0.038776133, 0.07288429, 0.06556521, 0.060920592, -0.21200123, -0.11585316, -0.009306674, 0.06443034, -0.09398918, -0.033504575, 0.09816473, -0.19853494, 0.015380547, -0.043459672, -0.13013744, -0.12718238, -0.193685, -0.15874276, -0.18578464, -0.0104759, 0.059949078, 0.036874037, -0.052975785, 0.09389361, 0.058254305, 0.03423634, 0.01778922, -0.008837192, 0.065459974, -0.16465859, 0.048878707, -0.065230146, 0.053095363, 0.089977086, 0.0915096, 0.08039984, 0.11885534, 0.07349993, -0.0014981189, 0.02169105, -0.0934733, -0.08641249, -0.19738126, 0.030127868, 0.12552068, -0.075715244, -0.030596241, -0.014858074, 0.087893546, -0.050331295, 0.040280472, -0.108271584, 0.10824196, -0.05705148, -0.01925567, 0.029687464, -0.032388493, -0.11383909, -0.0542036, 0.00068474264, -0.015206543, -0.042401068, -0.05837834, 0.02695942, 0.102550775, -0.018318204, -0.1603747, 0.028016284, 0.07926468, 0.00020031945, -0.087928414, -0.18905137, 0.053870793, 0.04357968, 0.1835897, 0.07423834, 0.009336163, -0.075968675, 0.032117955, 0.09608134, -0.13976659, -0.014128322, 0.021208458, 0.09573769, -0.030933302, -0.17353776, 0.11652296, -0.006395485, 0.035955507, 0.11836085, 0.008350385, 0.16379371, 0.053935144, 0.10828927, 0.08373059, 0.07786584, -0.13125166, -0.1369405, -0.005656504, 0.004033438, -0.05274692, 0.15724337, 0.15358897, -0.15629204, 0.061097432, -0.056268428, 0.04039448},
    {0.08547896, 0.15879336, -0.008393086, 0.033944678, -0.044163972, 0.016221307, -0.097120956, -0.059829894, -0.041504882, -0.033983514, -0.02961808, 0.05595691, 0.0515072, 0.01639572, 0.18320808, 0.19979692, 0.071869664, -0.042131897, 0.048896037, 0.19066378, -0.09664866, 0.062348317, 0.0712932, 0.10897477, -0.10603643, 0.054282963, -0.027782636, -0.0009841945, 0.09099879, 0.10169546, 0.055989627, 0.05879358, -0.11672554, 0.029740736, 0.05727325, 0.09192121, 0.005811461, -0.050513282, 0.028390303, -0.09419421, 0.13333791, -0.1666734, -0.028530609, -0.04653808, -0.12796561, -0.18482448, -0.18649286, 0.043703325, 0.11888389, -0.15856196, 0.04504721, -0.039573845, 0.11185265, 0.041492674, -0.13170901, 0.10948067, -0.118068025, 0.029808993, -0.090726174, 0.15272991, 0.00682289, 0.0133692995, -0.20517938, -0.011479642, -0.052212816, 0.06649279, 0.08726536, -0.121842906, 0.06106195, 0.049598705, 0.018552072, -0.10981851, 0.024210146, 0.044529267, 0.11382159, -0.030768216, -0.021736678, -0.024393134, -0.16532579, -0.11099491, 0.050639927, 0.1615811, -0.1778287, -0.078765914, 0.11220076, 0.031023048, 0.041814968, 0.059336677, -0.045698784, 0.16330244, 0.03192453, -0.020301804, -0.03815613, -0.16512537, -0.086327404, 0.011242641, 0.12727776, 0.10357474, -0.0025979253, 0.036589764, -0.05151797, -0.021427136, 0.17753784, -0.09978403, 0.15369813, 0.16612966, 0.039102692, 0.15960285, 0.06996155, 0.11088814, -0.019331511, -0.13939741, -0.03511318, 0.20557031, 0.14758223, -0.102674305, -0.05037741, 0.13198063, -0.024958018, -0.015659317, -0.02872158, 0.03495281, 0.16760802, -0.036391586, -0.10891295, 0.19518678, -0.10493635, -0.02972411},
    {0.035963967, 0.037722506, -0.030891383, 0.105320096, -0.12865235, -0.04218752, 0.018572593, -0.054192122, -0.13394617, -0.025799181, -0.028626239, 0.051477235, -0.018594526, 0.07235622, -0.10502927, -0.037694845, 0.08290743, 0.16509265, 0.18456759, -0.12037704, 0.067830645, 0.08924477, -0.020146849, -0.08072283, -0.007373263, -0.030410005, 0.15389499, -0.041862693, 0.07515481, 0.07863687, 0.07480798, -0.10742408, 0.010654704, 0.0016421006, -0.14516184, -0.04966535, 0.08118286, 0.14374736, 0.061786514, 0.0676267, -0.17313196, -0.061701432, -0.017731719, 0.05643099, 0.120700926, 0.109864004, 0.0001411869, 0.0076911445, 0.09401819, 0.13632505, 0.08435597, -0.11760722, 0.016783329, 0.03791833, -0.049197115, -0.012582476, -0.04783594, 0.027538167, -0.105412856, -0.059898872, -0.12785316, 0.0018093764, 0.16886203, 0.049621314, -0.09532933, -0.13790269, -0.031218678, 0.053803634, 0.030119931, 0.029461287, 0.06541311, 0.098635904, 0.084072255, 0.041274402, -0.08021521, 0.18211646, 0.038713463, 0.05449845, 0.029958019, -0.11365572, -0.03313588, 0.05744343, 0.06426883, 0.17179582, 0.004553678, 0.008508659, -0.051493857, 0.09584704, 0.07079732, -0.14604026, -0.045470763, -0.06351869, -0.05291262, 0.141758, 0.15857787, 0.077382065, -0.07251694, -0.066462, 0.1306518, 0.03969616, 0.03736904, 0.073601425, 0.03139159, -0.1089899, -0.08775989, 0.07334951, 0.098195456, 0.038591713, -0.08830897, 0.006346549, 0.16306138, 0.16446854, -0.07235055, -0.015360347, -0.13097169, 0.12596306, 0.012866297, 0.03421956, -0.056395687, 0.009697518, -0.13167138, 0.13070358, -0.022562452, -0.06694494, 0.046864096, 0.026916921, 0.008244464, 0.0044745016},
    {0.18945444, -0.07595147, -0.03596871, 0.16356575, 0.028797045, 0.17591576, 0.10259622, 0.0031200924, 0.1346122, 0.042632427, 0.032947507, 0.18185516, -0.090334766, 0.11176769, -0.024660727, 0.0037070527, -0.073130295, 0.099644415, 0.1904538, 0.0066005234, -0.09095682, -0.1116803, 0.17023227, -0.012038723, 0.09404054, -0.01777869, 0.042253077, -0.05439002, -0.10960098, 0.012129327, -0.057722226, 0.0033735044, 0.062805176, 0.14489615, 0.015704343, -0.08410894, 0.14882939, 0.030268691, -0.0026446953, -0.14383107, -0.008157462, 0.09364526, -0.015298517, 0.108562976, 0.04241688, 0.08658688, -0.023739988, -0.05316657, -0.03419556, -0.046898264, 0.06657642, 0.028792683, 0.053725228, -0.058924347, 0.095498286, -0.10627286, -0.014571665, 0.081495576, 0.0895732, 0.07652973, 0.10460614, 0.10976039, 0.104567036, 0.040409233, -0.07614038, -0.08496035, -0.10385597, 0.05906787, -0.039004877, 0.11172654, 0.0624389, 0.087908514, 0.02292588, -0.05331217, -0.030095767, 0.09543814, 0.11394367, 0.09377221, 0.1109637, 0.1085597, 0.12812258, -0.057174724, 0.004487855, -0.092323065, 0.108179934, -0.062428392, 0.12998743, -0.054090332, -0.0055622803, -0.14984156, -0.05898034, -0.027366819, 0.1232889, -0.038612787, 0.10145598, -0.0031617763, 0.04306053, 0.13246258, -0.0009597373, 0.076158315, 0.06930518, 0.06856909, -0.071805224, -0.06742203, 0.14708607, 0.022442224, 0.08229877, 0.016804755, 0.06440145, -0.042128876, 0.07317213, 0.06147419, 0.19457605, -0.088037334, 0.013432575, 0.017361091, -0.015839433, 0.09753931, 0.050235312, 0.0054052286, 0.025122657, -0.043781444, 0.17278711, -0.0582894, -0.03566617, -0.10786827, -0.032636143, 0.039370563},
    {0.16338924, -0.09395676, -0.19445173, 0.009631206, 0.09149867, 0.017209226, 0.13874589, 0.08552537, 0.14530373, 0.1268177, 0.14752744, -0.009425862, 0.031209819, -0.078490525, 0.15988572, -0.02313628, -0.07301555, -0.058650248, 0.14284234, -0.034372125, -0.13558643, -0.14938267, 0.047851313, 0.046363108, -0.13613358, -0.009504201, -0.09230567, 0.11372144, -0.07048754, 0.05646869, 0.10696736, -0.070428915, 0.027706515, 0.035664108, 0.17254949, 0.0552522, 0.06087283, -0.036352042, -0.0054786494, -0.20314373, 0.03134596, -0.034697853, -0.05501554, 0.10554634, 0.025589993, -0.09200281, -0.17425965, -0.091476955, 0.110936366, -0.042429406, 0.011329449, -0.012975456, 0.025761606, 0.12074257, 0.06369375, -0.024538906, 0.10761531, 0.029578317, 0.10821687, -0.06731731, 0.12990181, -0.017360112, -0.032729477, -0.08614319, 0.051945146, 0.04424123, -0.11487541, -0.09982972, -0.06877544, 0.19977742, 0.049966987, 0.0967434, -0.12353288, -0.10845406, -0.01756533, 0.07592247, 0.11116649, -0.08912153, -0.09750033, -0.12852101, 0.00994782, -0.032872222, -0.0724582, 0.02932401, 0.14048916, 0.097646624, 0.0024553344, -0.04650065, 0.024683114, -0.024246247, -0.10824503, 0.011439776, -0.18969692, 0.019990211, -0.043031387, 0.19394541, 0.018785376, 0.17678475, -0.19150607, -0.11028146, 0.115172595, -0.105779216, -0.0176691, -0.057679236, -0.00781045, 0.06646255, -0.16331707, 0.06320563, -0.027527919, -0.055266142, 0.005421839, 0.1859905, 0.14306909, 0.020239538, 0.111243054, -0.043174308, 0.05331249, 0.02288146, -0.11886825, -0.04284814, 0.114822276, 0.019242985, 0.10989315, 0.11097535, -0.10057579, 0.12623036, -0.048264407, 0.027650602},
    {0.06798175, 0.12507442, -0.08879778, -0.16878751, 0.18977314, -0.05946851, 0.09918979, -0.0052595655, 0.0065299114, 0.15492523, 0.037241314, 0.04902961, 0.06269925, -0.07549522, 0.15820868, -0.0064147227, 0.06312264, -0.09114202, 0.11322776, 0.13074051, 0.02905991, -0.18575707, -0.00073181157, -0.07274973, 0.05940063, -0.09489266, -0.031678177, 0.026801696, 0.11753026, 0.055432476, 0.0074677994, -0.045117926, -0.14471723, -0.03050165, 0.16578467, -0.10336723, -0.14493135, -0.18312402, -0.0863799, -0.03852447, 0.03448161, 0.015247907, -0.030581616, -0.062178053, -0.015371534, 0.11082742, -0.122439414, 0.047141436, -0.10115623, 0.031759772, -0.15480854, 0.027905622, 0.12768559, 0.11457443, 0.027082754, -0.026261289, -0.07927562, 0.123507254, 0.07871808, 0.13746253, 0.15229322, 0.037474852, -0.11636637, -0.024705091, 0.16714533, 0.16089572, 0.074933596, -0.07991702, 0.047960687, -0.071112484, 0.15379767, -0.06240573, 0.10751949, 0.09957401, 0.00492441, -0.09082249, -0.024769315, -0.001389077, -0.114359185, -0.12978792, 0.050453026, -0.0005694033, -0.013716359, 0.01771215, 0.13028246, 0.13094254, -0.061812274, -0.05998571, -0.109245606, 0.1520761, 0.10152467, -0.06331744, -0.0070894375, -0.026314221, 0.047859855, 0.109946884, 0.03898509, -0.04523219, 0.042751547, -0.0881035, -0.03947476, 0.025584502, 0.040582832, 0.014999922, -0.00093952054, -0.13164552, 0.012123296, 0.057660352, 0.020162316, 0.11244087, 0.020970311, 0.030510407, 0.06441051, 0.14334507, 0.07528352, 0.18871182, -0.11632185, -0.014617365, -0.041779123, 0.011301235, -0.0002397966, -0.050877206, 0.012213835, 0.1681303, -0.18653046, 0.21247332, -0.038356546, 0.1516456},
    {0.0033197876, 0.07334353, -0.047486078, -0.15416557, 0.13273777, -0.09238108, -0.15877791, 0.183977, 0.13867499, 0.012960921, 0.10671954, 0.067660935, -0.07918105, -0.08588057, 0.0926769, 0.21000391, 0.07083109, -0.034289833, 0.06503433, -0.031324692, -0.039042104, -0.0016248518, -0.06086704, 0.0494511, -0.014958519, -0.19302419, 0.041131996, 0.17371123, 0.11295621, 0.17386146, -0.014316003, 0.09885499, -0.10699131, 0.0085368985, 0.07543333, -0.11845568, -0.16039181, -0.08850404, -0.0497213, -0.0909882, -0.007352801, -0.07201401, 0.12820105, -0.040447373, 0.0012898702, -0.08926278, 0.10500339, 0.023498865, -0.012462468, -0.20363116, -0.025614444, -0.040833645, 0.08392107, 0.19079773, 0.056704305, 0.060869534, -0.09366078, 0.10230018, -0.014011869, 0.22374332, 0.16384523, -0.1488491, -0.112859234, 0.21197076, 0.027090514, 0.05123024, -0.0031140149, 0.01900928, -0.030888405, -0.1392359, 0.12057701, 0.033124987, 0.20162526, 0.09963793, -0.12385784, -0.05175711, 0.16862126, -0.00995296, -0.18484083, 0.04815535, 0.0701885, 0.13253659, -0.09817062, 0.035981283, 0.12617296, 0.12580875, -0.040986914, -0.05249956, -0.09531557, 0.16059913, 0.19837524, -0.10652018, 0.052456107, -0.049392283, -0.02369883, -0.028792886, 0.09322049, 0.045677897, -0.20365778, 0.09848401, -0.11988832, 0.19343749, 0.09967133, 0.1004629, 0.005971163, -0.06588682, 0.032827083, 0.14030463, -0.1409772, 0.055126697, -0.09577877, 0.048686605, 0.10917941, 0.029314402, 0.12705669, 0.07090039, -0.21362342, 0.024943437, 0.08618955, -0.03885238, 0.059686523, 0.06150243, 0.1770297, 0.07696811, -0.079193816, 0.20631358, 0.14520857, -0.006629818},
    {0.00527449, -0.14041789, -0.17923605, 0.062196676, 0.12402363, 0.16147342, -0.027315214, 0.013079603, -0.007767335, -0.100037694, -0.05376139, 0.06503771, -0.1476715, 0.0424225, 0.09969141, 0.06378944, -0.05179536, -0.059650667, -0.0035282534, -0.12237458, -0.08734993, -0.012228289, 0.20783947, 0.011465319, 0.012210489, -0.07213726, -0.14564471, 0.07969512, -0.13330676, 0.057757813, -0.051551778, -0.1079537, -0.14087477, -0.049017902, 0.10288318, 0.071446694, -0.11971098, 0.08128314, -0.18432495, -0.14540002, 0.13178712, 0.18110448, 0.053184774, 0.10739112, 0.17872351, -0.03079769, -0.09373466, -0.10922405, 0.12907459, 0.12198289, 0.0074121114, 0.115004174, -0.046386085, -0.027546948, 0.10077802, -0.12351635, 0.041435387, 0.02054426, 0.13019688, 0.027238613, -0.04273588, 0.09391302, -0.101878785, -0.08660672, -0.005977312, 0.027939186, 0.0077619795, 0.08261743, -0.0911387, 0.053155478, -0.04226155, -0.04736995, 0.020738993, 0.027615415, 0.042408276, -0.041466974, 0.147223, -0.19131483, -0.068726845, 0.10940562, -0.04050359, -0.083871044, 0.0856542, 0.11028064, 0.072529584, 0.0036064044, 0.018323326, -0.026380243, -0.06927443, -0.017831776, 0.011009068, -0.11177084, 0.010407584, 0.0879949, -0.033793878, 0.15333979, 0.18185052, -0.061376706, -0.059892423, 0.16586258, 0.14102319, -0.17941496, 0.19965461, -0.013486832, -0.005270178, -0.08545992, -0.15921514, -0.052593563, -0.0371479, 0.015513766, -0.016258156, 0.1436091, 0.16973329, -0.0055815442, -0.028563282, 0.14059877, 0.035293836, -0.16782118, 0.094942115, -0.046928614, -0.061689146, 0.0070496607, -0.003928572, 0.050592557, -0.20532693, -0.027518686, -0.025734646, -0.04573778},
    {0.02724564, 0.05188662, -0.024313033, -0.047208726, 0.105808645, -0.11611247, -0.060236603, -0.064319015, 0.109989285, 0.05161473, -0.072338045, 0.054117054, -0.00020641088, 0.09084234, -0.020980924, 0.036861002, 0.11359927, -0.11783078, 0.11410859, -0.0955365, 0.058135122, -0.11117393, -0.060400903, -0.04297191, -0.103628576, -0.03799382, 0.07726291, 0.0659574, -0.0405654, 0.03545046, -0.101805896, -0.104818046, -0.021359146, -0.012983501, 0.009337693, 0.07081172, 0.056570232, 0.07687998, 0.10399544, -0.051910818, -0.11840305, 0.03466186, 0.0868285, -0.02130577, 0.09260875, -0.071538, -0.09669697, 0.114492685, 0.042847425, -0.08289456, -0.11251104, -0.03521651, 0.12489265, -0.06436351, 0.104733974, 0.023265094, 0.034823626, 0.10400647, 0.11706239, -0.034083784, -0.0722079, 0.09343743, 0.01618573, 0.028980136, -0.030461848, -0.058304846, -0.088011116, 0.103369564, 0.05686891, 0.10561177, 0.115742594, 0.1008122, 0.04728824, -0.01925832, 0.0005467236, 0.1232349, 0.07281265, 0.059668154, 0.06256637, 0.034039408, 0.056527525, -0.11734909, 0.10506147, -0.09480089, 0.11665952, 0.046946615, 0.08134475, 0.0003489256, 0.09612122, 0.12363544, -0.009958267, -0.108622015, 0.030690849, -0.045047164, -0.03443533, -0.053114653, 0.05744946, -0.039153993, -0.00857693, 0.034572512, -0.021148086, -0.06996974, 0.1095207, -0.05223471, -0.06932023, 0.096648544, -0.018151462, 0.09604445, -0.006614834, 0.101023495, 0.027264327, 0.075666755, 0.012694627, 0.10566616, 0.016799599, 0.06890333, -0.10912016, 0.07950646, 0.022325367, 0.1059137, -0.060634375, -0.046268374, 0.12177521, -0.0703392, 0.048204422, -0.09714997, -0.032913923, -0.08124104},
    {-0.11360329, 0.01496225, 0.027161663, 0.05049611, -0.04127947, 0.11392146, -0.0026062848, 0.044657845, -0.10902149, 0.014172421, -0.0003124895, 0.05881612, -0.008049009, 0.13595, -0.15858702, -0.15194677, 0.081151605, 0.113105044, -0.07752645, 0.12854318, 0.104519725, 0.037097786, -0.1046281, -0.12875108, -0.07238322, -0.025363356, 0.028467534, -0.09865925, -0.058676522, 0.0779499, -0.017737068, -0.047310166, -0.0061088935, 0.12880947, -0.054835755, 0.051288392, 0.11466083, 0.01828536, 0.046912413, 0.12718314, -0.12218388, 0.08602149, 0.16699906, 0.012368041, -0.048677273, 0.063571624, 0.033057988, 0.13455449, 0.047690596, 0.052887704, 0.13206826, 0.06780506, -0.016792353, -0.12038037, 0.06775013, -0.07378672, 0.007878034, -0.06613555, 0.04803897, -0.010799028, -0.1920928, 0.01161829, 0.17760164, 0.14150332, -0.014999443, 0.037416022, -0.025584638, -0.026193837, 0.019322725, -0.03337657, -0.081536785, 0.15438296, -0.060698926, -0.015167423, 0.09524859, 0.18092348, -0.1470485, 0.15398107, 0.12724462, -0.1122461, -0.028395213, 0.04394157, 0.03289732, -0.048651367, -0.16472852, 0.05784101, 0.023597501, -0.021097757, 0.06628616, 0.07138868, 0.041952774, -0.036514696, 0.036834683, 0.19086605, 0.13145342, -0.02950493, -0.18397479, 0.09592559, -0.013085716, 0.17271905, -0.0055330093, -0.10303775, -0.17049165, -0.10241708, -0.0074293907, 0.14003299, 0.0045103524, 0.012391902, -0.059220012, -0.062122345, -0.0035895247, 0.051486038, 0.033814896, -0.16363554, -0.11590425, 0.03881069, 0.1076125, 0.11230185, 0.019912053, -0.041875537, 0.016749578, -0.053521894, 0.049970523, 0.018921316, 0.04113487, -0.20412049, 0.11854304, -0.14971773},
    {-0.115651354, 0.017685609, 0.15880865, -0.0060333563, 0.004520139, -0.010579432, 0.03458756, 0.14990687, -0.014224704, -0.2097442, -0.08819285, 0.1218748, 0.16075446, 0.109671354, -0.04152866, -0.120390356, 0.010848681, 0.0149261905, 0.06349844, 0.07322732, -0.046692863, -0.0030620599, -0.027276993, -0.07562481, 0.18211588, 0.11625284, 0.16862708, 0.04424529, 0.09670995, -0.022752447, 0.030480517, -0.1684024, -0.019141953, 0.1326798, -0.038690705, -0.054715578, 0.10265901, 0.051926553, -0.052206103, 0.06621523, -0.035827365, 0.17390662, 0.02747786, 0.06583863, -0.01767342, 0.030949175, 0.0062583247, 0.03132198, 0.08950952, -0.06793319, -0.075248666, -0.10002878, 0.17062443, -0.11332908, -0.021527808, 0.07193926, 0.15789591, 0.051980156, -0.058325935, 0.019773714, -0.04849153, -0.021173522, 0.07770375, 0.093704425, 0.019730436, 0.0420693, -0.040805936, 0.1608294, 0.08780582, 0.0670661, 0.18166542, 0.1985566, -0.031682093, 0.12934843, 0.028317157, -0.048373047, 0.05498816, 0.18272024, 0.19574213, -0.03192995, 0.0054199593, 0.09407718, 0.089765795, 0.010846003, -0.13284808, 0.035985798, 0.117693394, -0.018133022, 0.12095561, 0.0049665337, -0.0075209164, 0.01744848, 0.023496399, 0.19402625, 0.019547867, 0.13440022, -0.059565272, -0.033382513, 0.17498587, 0.13360392, 0.18682839, -0.008290833, -0.06821271, -0.009331137, -0.07009394, -0.10493377, 0.09362319, -0.09747602, 0.08180767, -0.12257015, 0.041120887, 0.06037596, 0.069773994, -0.108114466, -0.109082766, 0.11858207, 0.070391685, 0.19096905, -0.092746824, -0.14971505, -0.1304063, 0.059458517, -0.13573925, -0.088633925, 0.08857671, -0.11009898, 0.104406446, -0.06952528},
