#ifndef NEUROVERKONKERTOIMET_H
#define NEUROVERKONKERTOIMET_H

float weights_0[3][256] = {
    {0.024277728, 0.24712743, 0.041565124, -0.09202695, -0.13891405, -0.104094684, 0.23681238, 0.15883687, 0.007756047, 0.041723665, -0.11811446, 0.07317499, 0.3129811, 0.29750285, 0.019824581, 0.059775166, -0.07284453, 0.060251378, -0.084166184, -0.10359212, -0.004561453, 0.0044737365, -0.09580326, -0.19762318, -0.021215439, -0.033539996, 0.20133145, 0.18684587, 0.23730677, 0.20050134, -0.054176018, -0.054893665, 0.020864813, 0.15583305, -0.045401797, -0.0070375768, 0.22557528, 0.052555837, -0.16622551, 0.1351105, -0.17197606, 0.27564505, -0.066697285, -0.08279499, 0.07916803, -0.07227498, -0.0076272907, -0.18459018, -0.15170373, -0.061810188, -0.079954766, 0.30328977, -0.13011178, 0.014800024, 0.08381627, -0.17814404, -0.035817027, 0.27556255, -0.031786058, 0.19915293, 0.21295717, 0.16754945, 0.20161556, 0.12105353, -0.011668338, -0.14509809, 0.019372994, -0.14681728, 0.015723946, 0.20830879, -0.025519792, 0.014788494, -0.042367883, -0.09893623, -0.0024635457, -0.009605492, -0.014627663, -0.19530612, -0.036661588, 0.136548, 0.15705073, -0.17585498, 0.25114882, 0.19410881, -0.103962176, -0.17662945, -0.0982778, 0.1273999, 0.011988426, -0.00869212, 0.051040232, -0.11874785, -0.12420534, 0.25740156, 0.09564888, 0.07602391, -0.047378134, 0.19105795, -0.03844893, -0.010168723, 0.030202638, -0.087112136, -0.019654993, 0.03943367, 0.10774173, 0.21960784, -0.0026963102, 0.13539633, 0.0872154, 0.101285845, 0.058642134, 0.25341207, -0.09881238, -0.11346312, 0.29864663, 0.02465209, -0.040233556, -0.09081801, -0.091756, 0.004532245, -0.09688933, -0.011035025, 0.058594123, 0.21717943, 0.033581715, -0.0705999, 0.33866447, -0.07595364, 0.15067403, -0.13858466, -0.113877386, -0.06773793, 0.19070394, 0.025263341, -0.12531014, 0.1016439, -0.23500127, 0.024850545, 0.13861954, 0.041414592, -0.109401055, -0.12445182, 0.10667038, 0.045778677, 0.1849315, -0.12983583, -0.15264024, -0.07821099, 0.018825132, -0.072888136, -0.12364739, 0.14889114, -0.12339957, 0.04155749, 0.30794564, 0.090332836, 0.07913511, 0.03318855, 0.057769395, 0.14575583, -0.007830464, 0.012779072, 0.16724256, 0.05410493, -0.030010264, -0.084650844, -0.012665746, -0.08272684, -0.05245484, -0.10358031, -0.15579212, -0.17097265, 0.06659108, -0.08225399, -0.15625434, 0.26524934, 0.080065146, 0.33582032, -0.1521241, -0.07754477, -0.008061643, 0.1500478, 0.017445602, 0.06811319, 0.028714187, 0.024028834, 0.3112705, 0.13110484, -0.010445563, 0.25713024, 0.2944454, 0.2890029, 0.14065817, -0.010760924, -0.03399676, -0.04734894, 0.25329715, -0.066884585, 0.0063674715, -0.118124105, -0.11159275, -0.12941702, -0.051438205, 0.012498527, -0.0078825345, -0.023337943, 0.34956586, 0.31883642, 0.37282395, 0.030214705, -0.13413993, 0.26624137, -0.1537163, 0.14037277, 0.24948491, 0.1863118, -0.02626259, -0.11695378, 0.10310572, -0.08149716, 0.08381885, 0.09019097, -0.09683992, -0.06083955, -0.023730315, 0.088684954, -0.027086316, -0.059660964, -0.12482681, -0.099742964, 0.012627849, 0.2554815, -0.085633986, 0.13889833, 0.19711433, 0.018582564, 0.15568201, -0.03026394, 0.12543567, 0.08604861, 0.15179028, 0.31158885, -0.15239269, 0.004196282, -0.11052762, -0.03963497, 0.19539425, -0.00975106, 0.06663517, -0.020114401, -0.1168467, 0.10428005, -0.011169676, 0.14636624, -0.094287336, -0.10490461},
    {0.20229144, -0.12080676, 0.10189559, 0.056401473, -0.14629918, 0.052760366, 0.0391675, 0.06167818, -0.08497029, -0.11583813, -0.021292944, -0.09920867, 0.031310845, -0.0191056, -0.04663845, 0.1528057, 0.15932333, -0.03448567, -0.060048196, 0.11807174, 0.11512457, -0.07223375, -0.06828127, -0.11323442, 0.20125082, -0.111904204, -0.043101687, -0.084533624, -0.07576167, -0.123701714, 0.06410014, 0.17332615, -0.12593539, -0.03928279, -0.11711192, 0.046210896, -0.05665781, 0.21083939, -0.01289766, -0.12016576, -0.061110515, -0.1011755, -0.05746456, -0.10973021, -0.02253596, 0.09927721, 0.121091574, -0.07535128, 0.032888427, 0.22338817, -0.16738948, -0.072313435, -0.047560297, -0.10916659, -0.101659395, -0.010168119, -0.11806396, -0.07447271, -0.018872224, 0.04232446, -0.013831823, 0.03980119, -0.076120965, -0.07235834, -0.17018147, -0.093246594, 0.11384329, -0.10789395, 0.03851258, 0.00019250467, -0.10178016, 0.21971479, -0.03316605, -0.007155027, 0.15781422, 0.09673439, 0.04921272, -0.12312791, -0.08680208, 0.1391233, 0.0103640575, 0.04165491, 0.014129369, -0.11599108, 0.06424694, -0.05921767, -0.15257938, 0.08235748, 0.11850114, 0.16492869, -0.17845656, -0.08704187, -0.19824585, 4.7551413e-05, -0.02214063, 0.054894127, -0.077460326, -0.0592936, 0.2024688, 0.10943699, 0.21473025, 0.13232307, 0.070875056, -0.09813083, -0.03944477, -0.0804547, 0.17889763, -0.123614736, -0.07325372, 0.10659948, -0.064045615, -0.05947794, -0.019359618, 0.0636903, -0.09711729, -0.12963714, -0.12692387, 0.07498109, -0.041711677, 0.028381513, -0.07738932, 0.02484096, 0.06467767, -0.012127056, -0.019348573, 0.0085264, -0.085015945, -0.11052536, 0.1594182, -0.1642309, 0.15420693, 0.0509206, 0.0059179002, 0.24206686, -0.16558883, -0.06570125, -0.022167271, 0.2328917, 0.11017379, 0.15311132, -0.15373863, 0.09369094, -0.09205699, 0.13640258, 0.06507802, -0.043426573, -0.065417476, 0.18371713, -0.0040181503, -0.14075892, -0.102226324, 0.042227164, -0.011364347, 0.12932031, 0.03197635, 0.049460176, 0.1076186, -0.054133378, -0.06524691, 0.16623987, -0.08188349, 0.196571, 0.14838324, 0.028271265, 0.1243593, -0.063523486, -0.0750288, 0.15152033, -0.11284123, 0.04321393, 0.1640396, 0.0022194148, 0.15183523, -0.11713598, -0.14894523, -0.09902025, 0.0058994386, -0.019010162, -0.19940966, -0.11322226, -0.048740566, 0.049144354, -0.113984495, 0.1237163, 0.0038891148, 0.15750767, -0.0020297577, -0.172665, -0.09891008, -0.07484399, -0.05511015, -0.061339393, -0.022722762, -0.06427372, -0.1263882, 0.08656328, -0.09771694, -0.10775882, 0.05116629, -0.16829737, -0.13342418, -0.077921465, -0.021583727, 0.03428267, -0.07417631, -0.053602863, -0.1185611, -0.0037387784, -0.07164421, 0.013865765, -0.06982828, 0.07806181, 0.1520612, 0.0232234, 0.018070433, -0.04648793, 0.0809234, 0.13010557, -0.0134808915, 0.2481119, 0.16763769, 0.09258936, -0.14485873, -0.14008246, 0.14639078, 0.16708873, -0.118320055, -0.11726924, 0.020428939, -0.03901187, 0.19561893, -0.0612956, -0.01612856, 0.22990486, 0.07066789, -0.080860585, 0.09321124, -0.17314404, 0.02311505, 0.10363693, 0.028851632, 0.06342322, 0.18286647, 0.17203547, -0.029262098, 0.16673286, -0.097439565, -0.16666959, 0.13875887, 0.11429952, -0.07863525, 0.04453615, 0.18766367, -0.123641975, 0.06314969, -0.11931689},
    {-0.2894711, 0.18358065, -0.08301886, 0.19376114, 0.06646362, 0.1397073, -0.12499279, -0.05063708, 0.2066022, 0.039798707, -0.06259557, 0.07942268, -0.15996441, -0.008630038, -0.103100196, -0.09750958, -0.23921011, 0.11488852, 0.042096645, -0.15349147, -0.20507622, 0.31482476, 0.08412892, 0.04592118, 0.05350404, 0.33047757, -0.016664384, -0.005412886, -0.048588216, 0.16612023, -0.15020993, -0.284154, 0.14211537, -0.03246378, 0.09364728, -0.25363502, -0.0982829, 0.11494723, -0.024401944, 0.18559483, -0.06744464, 0.17402166, 0.03176461, -0.15475306, -0.1272202, -0.20033278, -0.2228766, 0.11525874, -0.15204547, -0.1610623, 0.01777646, 0.093849756, -0.023891134, -0.18634827, 0.1700713, -0.15280247, 0.21822944, 0.12285747, -0.14935471, 0.029208634, -0.21563739, 0.13079044, 0.21730262, -0.09460619, 0.1385695, 0.093885705, 0.17613769, -0.08368153, -0.20247345, -0.16203772, 0.32445365, -0.06130881, 0.13174652, -0.09469943, -0.18374473, 0.10318239, 0.2088413, 0.065232314, -0.17444007, 0.022641907, -0.0149695175, -0.17637755, -0.13142228, 0.15884367, -0.07641437, -0.0075490633, -0.01474668, 0.15143672, 0.17933568, -0.15024653, 0.06953486, 0.20804137, 0.11606333, -0.056628015, -0.17388818, -0.22452869, -0.17741261, 0.031527396, 0.08341714, 0.27108866, 0.046932906, 0.110328875, 0.28785488, 0.015306697, -0.08454342, 0.12761745, -0.051983234, -0.038562007, -0.10177111, 0.039353527, 0.15929216, 0.09185952, 0.19914643, 0.039923355, 0.1772754, -0.12371415, 0.37353262, 0.21590517, -0.05870727, 0.22929507, 0.0467077, -0.16297977, -0.21735252, -0.12807529, 0.14248957, 0.20392415, 0.13548, 0.06351637, 0.10850251, 0.037245035, -0.05128071, -0.17573094, -0.08821867, -0.1969151, 0.088400625, -0.02921311, 0.05665207, -0.2747985, -0.0711213, 0.0857005, 0.15806377, -0.24120717, -0.1266305, 0.048109647, -0.21846478, -0.13254726, 0.08816008, -5.6648438e-05, -0.20689328, 0.19875772, 0.08862498, -0.031958316, -0.11383334, -0.12484045, -0.14381477, -0.097972214, 0.17019895, 0.01714918, 0.10201432, 0.027517494, 0.26212686, -0.059479028, 0.033175383, -0.105359316, -0.11173547, 0.19661522, 0.2767136, -0.23257507, 0.08388001, -0.12799445, 0.08343818, -0.11151296, -0.097187184, 0.15855396, -0.016949574, 0.11191569, -0.18582891, -0.07089592, 0.18830065, 0.103781335, 0.25814423, -0.10474439, -0.13782017, 0.010402165, -0.16479467, 0.015202282, -0.075174965, -0.1049238, 0.27749544, -0.033634383, 0.07277118, 0.15724815, 0.107974365, 0.24243863, 0.13356975, 0.25920045, 0.18535675, -0.19032203, -0.26755348, 0.111407705, 0.22063288, -0.050041907, -0.2572412, 0.025578517, 0.28003263, -0.20723887, 0.19709207, -0.058430165, 0.10280275, 0.12908319, 0.16691713, -0.17861336, -0.014137677, -0.11663914, -0.11925154, -0.101448774, 0.09705757, -0.15865122, -0.14103767, 0.11099118, 0.05604852, 0.054501493, 0.031249363, 0.040480565, -0.18752617, 0.04691663, -0.18671092, 0.15416296, -0.1841242, 0.1456804, -0.19762105, 0.20494547, -0.082687825, 0.045053937, -0.13259688, -0.16673361, 0.09276625, 0.15702476, -0.15768814, 0.15074936, -0.15369332, -0.1826845, 0.119969234, 0.20399904, -0.032167703, -0.010567388, 0.22190064, 0.060217764, -0.15972695, 0.23297197, 0.071248606, 0.029546756, -0.23586282, -0.036260765, -0.025888909, 0.087359965},
};

float biases_1[256] = {0.03309263, -0.025329934, 0.02781279, -0.036883, -0.044955462, -0.0058141965, 0.009976133, 0.008643207, 0.0017042097, -0.04075197, -0.041077893, -0.016712187, -0.021128979, 0.00020493151, -0.023275971, 0.018310582, -0.028707733, 0.0033202437, 0.0063280333, -0.0052941744, -0.0015720851, 0.05323627, -0.03488062, -0.021468123, 0.011276158, -0.008106563, 0.008378861, -0.025603702, -0.009555553, -0.019504774, 0.021274619, -0.0091264555, -0.026069596, -0.01719077, -0.035598565, 0.0018406183, -0.027098846, 0.015457428, -0.011866209, -0.022343375, -0.0423417, -0.003528079, -0.018647956, -0.017596675, 0.009781308, -0.014392884, 0.0007833819, -0.008680662, -0.0027575113, 0.0087720165, -0.02467352, -0.0014362654, -0.011905242, -0.01932455, -0.02792992, -0.04027471, -0.025491962, -0.0014723298, -0.011402712, 0.060100958, -0.010038602, 0.038903512, 0.047681715, -0.0198054, 0.03317064, -0.017635243, 0.02601483, -0.021353789, -0.029747266, -0.0061490126, 0.0053529367, 0.015965788, 0.017339941, -0.043498117, -0.008162036, 0.023468226, -0.0032336575, -0.01892523, -0.028507592, 0.03630155, 0.0337143, 4.3229855e-05, -0.026314087, 0.0002936946, -0.018800043, -0.05396345, -0.00018050609, 0.020716596, 0.022205643, 0.041257184, 0.019898484, 0.018444467, -0.006991393, -0.0035092856, -0.037976474, -0.02328958, -0.0052440874, -0.0052075777, -0.013732619, -0.0076273927, 0.030655287, 0.006989394, 0.001405544, -0.033496458, 0.012499818, -0.008530028, -0.021799266, 0.025255222, 0.0022632647, 0.038290795, 0.008674196, 0.0022149377, 0.02249062, 0.020614887, 0.02019468, -0.03207576, -0.017778356, -0.02302846, -0.020519117, 0.023389028, -0.020246834, 0.017034814, -0.0014986242, -0.012413218, -0.053151194, -0.050751198, 0.0010132215, -0.022470815, 0.033060193, -0.023040412, 0.009614598, -0.01881736, -0.02401837, 0.036024787, -0.021413604, -0.001331427, 0.034739636, 0.0368798, 0.014618123, 0.031062545, -0.044929463, 0.024800872, -0.03345261, -0.01279812, -0.0033165335, -0.012222466, -0.025217807, 0.018700967, -0.030654585, -0.05265708, -0.058980994, -0.024619916, -0.0039325147, 0.00328324, -0.0071649053, -0.011544738, 0.017270427, -0.0014239853, -0.019949894, 0.036804255, 0.029857798, 0.033587586, 0.016728628, -0.013368009, -0.04831359, -0.012809512, 0.019684834, -0.025540333, -0.052016325, 0.034738794, -0.0033855774, -0.013711018, 0.03943038, -0.0035466969, -0.024185155, -0.0075873104, -0.06638207, -0.028109498, -0.005364861, -0.014122619, 0.021261413, 0.023693213, -0.019543687, 0.04505326, -0.05269502, -0.0008521198, -0.012415784, -0.05406477, 0.03187732, 0.006687447, 0.0039499532, 0.043478798, 0.05391399, 0.024543388, -0.05325919, 0.0015866352, -0.0017231742, -0.015442056, 0.04424085, -0.02908821, -0.016081266, -0.016174214, -0.033550248, -0.025633993, 0.025177155, -0.0074692788, 0.011200707, 0.00031956687, 0.00751029, -0.05867835, 0.015325967, 0.03456549, -0.00826164, -0.010312797, -0.01631673, -0.0010552139, -0.039381634, 0.0006472534, -0.052991893, 0.01276214, 0.011838834, 0.03365953, -0.02896846, -0.036187645, -0.0029908565, 0.0022409298, -0.019326074, -0.0027839998, -0.0027710698, 0.0145908035, 0.022261633, 0.06365554, -0.02814925, 0.04316545, 0.04738047, -0.018029055, 0.021200625, -0.008490588, 0.004617318, -0.03340269, -0.031799197, 0.010757924, 0.019371077, 0.01833429, -0.00817668, 0.011571795, 0.015509105, 0.028078567, 0.035154313, -0.03167326, -0.0005083108, 0.022066114, -0.01960149, 0.029607544, -0.011152224, -0.03218832};

float weights_2[256][128] = {
    {-0.13084202, 0.11307638, 0.0021538239, -0.18127319, -0.027448975, -0.07627512, 0.062056713, 0.16810317, 0.123904884, -0.086499736, 0.046865497, 0.00898475, 0.14607948, 0.0027080586, -0.028650152, -0.06614984, 0.11227268, -0.071534894, 0.1301757, 0.076459184, 0.018998593, -0.00035217806, -0.017199446, -0.25844097, 0.009765935, -0.12151502, 0.011433271, 0.1484687, 0.0041504903, -0.33477464, 0.01911171, 0.08048096, 0.011460596, -0.007019517, 0.117124416, 0.07095439, -0.053846456, 0.080862075, -0.06956145, 0.014809575, 0.15175277, -0.033506855, 0.052439183, -0.042739045, -0.14128534, 0.021636803, 0.08976479, -0.030091299, -0.09799397, -0.2096806, 0.014233926, -0.14691009, -0.024388554, 0.15983696, -0.15921739, 0.04896379, -0.09346063, 0.12456255, 0.07425238, 0.16969293, -0.017140266, -0.05667089, -0.10399745, 0.130383, -0.23582026, 0.07189978, 0.11884758, 0.032956276, -0.01743286, 0.066446535, 0.053589955, -0.019620504, -0.1457695, 0.006871686, 0.042823296, -0.103476614, 0.057529945, -0.048620705, -0.19243196, -0.12728323, 0.122711524, -0.0498633, -0.017933767, 0.10695254, -0.1583591, 0.039879877, 0.15732259, 0.10861958, 0.01660722, 0.02023221, -0.0039433953, 0.008926595, 0.013170732, 0.02210138, 0.09036269, 0.11682431, 0.17947745, -0.076464176, -0.15162417, -0.11077174, -0.06085165, 0.12925012, 0.15172234, -0.08877644, -0.023613527, 0.034269124, 0.037708696, 0.022245852, -0.08410948, 0.097438514, 0.021207614, 0.08091865, 0.050646383, -0.00315893, 0.097745225, -0.008861346, 0.073894136, -0.017169897, 0.15476722, -0.017611235, 0.1043684, -0.09518399, 0.1288521, -0.123414636, -0.114186816, -0.008101626, -0.01262656, 0.004277696},
    {0.10302585, 0.017797023, -0.10800153, 0.14683975, -0.17108591, -0.08247505, 0.17611447, -0.1097522, 0.16635506, 0.021815393, -0.057135094, 0.14075364, 0.017898891, 0.16519402, -0.0659906, 0.18091483, -0.09031425, -0.14194821, 0.05063407, 0.111085, 0.09069648, -0.067701764, 0.058116592, -0.090059586, 0.12550156, 0.03759099, -0.11742191, -0.020607183, -0.052773356, -0.0078044944, 0.042735994, 0.05492409, -0.0847711, -0.01898457, -0.081908576, -0.045512863, -0.08387857, 0.09473796, 0.025840892, 0.009011147, -0.012874843, 0.00427856, -0.095481955, -0.10454772, 0.1860066, -0.07967501, 0.045443367, -0.0056965193, -0.17506227, -0.14658993, -0.038788408, 0.111486286, -0.070678204, -0.0071006543, 0.038525302, 0.15430202, 0.037387393, -0.13812363, 0.11510249, -0.015283254, -0.023151046, -0.03273662, 0.043962583, 0.124779366, 0.10696502, 0.08788752, 0.09814642, -0.045396026, -0.03068736, 0.022238387, -0.104751654, -0.034089588, 0.03583478, -0.0054108575, 0.09192073, -0.021254538, -0.10771514, 0.010944882, 0.059091426, -0.039995834, 0.015140548, 0.00015293722, -0.03103767, 0.10320275, 0.09888803, -0.05262683, 0.14337929, -0.06950154, -0.05261898, 0.11321474, 0.13339819, -0.02818889, -0.048928466, -0.035063785, 0.02120304, 0.07458972, -0.09368228, -0.10279298, -0.028313456, -0.1445087, 0.070151694, 0.07373113, -0.030209363, -0.03068138, 0.032066222, -0.07419004, 0.017366616, -0.018463627, 0.0712319, 0.13223687, 0.07001685, 0.10796885, 0.036583174, -0.035589922, -0.07430808, 0.017011724, 0.07823697, 0.11421946, 0.067733526, -0.03727271, 0.093340695, -0.08121027, -0.121682376, 0.089873604, -0.16067824, 0.08868046, 0.009888052, -0.10197521},
    {0.050406724, -0.081792764, 0.074274115, -0.06893378, 0.022847742, -0.06330757, 0.10876061, 0.07832298, 0.06958129, 0.051287852, 0.01277926, -0.10439661, -0.015012274, -0.071816996, -0.06627868, 0.10116796, -0.028353501, -0.004052256, -0.038099702, -0.00350863, -0.06303344, -0.1457881, -0.03072365, -0.12445415, -0.028304668, 0.017038135, 0.027851708, 0.072867505, 0.04586084, -0.10108694, -0.046111975, -0.031015862, 0.023729071, -0.09369811, 0.090264775, 0.008498985, 0.14359894, 0.119776085, 0.045956224, -0.105754316, -0.03764483, 0.0457543, 0.030635031, 0.1645957, -0.047797065, 0.03394637, 0.15337534, 0.07271218, 0.05413818, -0.029771635, 0.12193719, -0.07524554, -0.055085495, 0.10684331, -0.063063376, 0.09813302, 0.04346102, 0.11986782, 0.046601675, 0.08680991, -0.007829801, -0.06350344, 0.11822066, 0.015127059, 0.048334684, -0.06776461, 0.06871631, 0.036805734, 0.018459277, 0.0937331, 0.09431497, -0.026414108, 0.13437779, -0.073987775, 0.05532425, 0.086853206, -0.040296145, -0.14976098, -0.025637195, -0.027291484, 0.12628682, -0.14484665, 0.0433638, 0.0012751216, -0.08077315, 0.089996554, 0.05818411, 0.11537299, 0.12394819, 0.07794134, 0.093966305, 0.14598197, -0.00538883, -0.059719294, 0.075604506, -0.021142751, 0.09359913, 0.054010034, 0.08172235, 0.051826082, 0.04031861, 0.024849499, -0.043720674, 0.008003044, 0.0017980599, 0.08484086, -0.008738342, -0.086342156, -0.093972616, -0.03219801, -0.1350248, 0.008586041, 0.093945086, 0.11697371, -0.03235333, 0.0528462, 0.1074499, -0.1805339, 0.1346819, -0.006121568, -0.08939942, 0.13524602, 0.018433584, -0.12501878, -0.005614377, 0.07039833, -0.035275657, -0.05236979},
    {0.13717982, 0.08950519, 0.11183811, -0.122802764, -0.11065137, -0.0634233, 0.04468348, -0.110740274, -0.019948171, 0.14324804, 0.088847645, 0.075518645, -0.08599585, -0.11901494, 0.057904992, -0.124604605, -0.11659631, -0.1631098, 0.1114982, -0.09022913, -0.11641696, -0.06713331, 0.008597671, -0.059210226, -0.1346975, 0.17064296, -0.05057425, -0.07590402, -0.012506382, 0.12956083, 0.052346524, -0.03681828, -0.10246424, 0.0348884, 0.15611537, -0.05378483, -0.059083838, -0.09689529, -0.0034193401, -0.064927466, -0.033183113, -0.032322325, -0.008588495, 0.076356135, -0.09880032, -0.053295575, 0.023411535, 0.13234077, 0.039076954, 0.05077934, -0.036063924, 0.009684203, 0.07549532, -0.04912907, 0.04668028, 0.09505339, 0.08302981, -0.10522287, 0.080594204, -0.09934033, 0.03588977, 0.093518116, -0.0607238, 0.08369209, -0.02461255, -0.116205715, 0.07874648, 0.11323133, -0.055871733, 0.122155614, 0.001290276, 0.09501058, -0.07407424, 0.019771483, 0.0057793804, 0.08603526, -0.026391828, -0.004613911, 0.11461224, -0.014321333, -0.084217034, -0.0642396, 0.040651184, 0.031199811, -0.00874876, 0.054988857, -0.036767587, -0.081764884, -0.05307312, -0.06081589, -0.028439075, -0.07188024, 0.109721296, 0.00040086417, 0.09930821, -0.031010257, -0.07688581, -0.008324629, -0.007953157, -0.050833203, 0.06892899, -0.045589104, 0.063968234, 0.07500644, -0.06562157, -0.1200128, 0.035592783, -0.017435662, 0.03222753, 0.07799155, -0.10943028, -0.048498474, -0.09469691, 0.03791954, -0.04066282, 0.03246786, -0.11123866, -0.03138579, 0.032955673, -0.034107998, -0.032854646, 0.15295456, -0.1012302, 0.12705004, -0.0011716721, -0.06890745, 0.026822994, 0.14445975},
    {0.014999091, -0.030118741, -0.01774639, 0.07683592, 0.005434283, -0.020179113, -0.005829184, -0.113854595, 0.05086932, -0.033348728, 0.068312295, -0.11230729, -0.059169345, 0.078233585, -0.08713884, 0.08626824, -0.088769116, 0.034367558, -0.11725411, 0.02825791, -0.14820427, 0.16245614, 0.10784808, 0.017055606, 0.060991246, 0.018145872, -0.060670827, 0.07407998, 0.08496847, 0.085837215, 0.03904427, 0.050184242, 0.054038417, 0.10593908, 0.04083084, -0.027686294, 0.06888727, 0.06493138, 0.11555144, 0.0015915446, 0.07252489, 0.08778057, 0.024278369, -0.076219454, 0.035874568, 0.04050435, -0.053230938, -0.019269023, 0.015441123, 0.053112544, -0.03470786, -0.0027080607, -0.009653269, -0.04858868, -0.08076118, 0.041516833, 0.07289598, -0.1315411, 0.08182974, -0.072452255, 0.018506614, 0.00963594, -0.0013405434, -0.063499905, 0.12063749, -0.06071475, -0.082206786, 0.07931588, 0.053360045, -0.06939044, 0.05433098, 0.15001926, -0.005175661, -0.1259613, 0.047610864, -0.075998515, 0.04892181, -0.028560277, 0.1474692, 0.043241184, -0.10397287, -0.11111706, 0.0032219097, 0.09039237, 0.038147114, -0.033516366, -0.019996565, -0.008046333, -0.011426255, -0.02927445, -0.025138792, -0.021209592, -0.0060368036, 0.033455834, 0.1619337, 0.061261725, -0.07166481, 0.10983392, -0.05468204, -0.112430856, -0.068077825, 0.11605985, 0.11610554, -0.073885076, -0.03567077, -0.06437855, -0.049854573, 0.022318097, -0.07307315, -0.11051592, 0.15315868, -0.11971116, -0.024007762, 0.1549217, 0.044444352, -0.086404726, -0.049392805, -0.0073951297, -0.12111899, -0.06536206, -0.02538727, 0.017873475, 0.0066731414, -0.019298466, -0.09467195, 0.07185271, 0.033885986, 0.14349736},
    {-0.022120051, 0.07862584, 0.08439483, -0.15561914, -0.095001146, 0.018491225, 0.062977895, -0.06749901, 0.0785331, 0.08211414, -0.022577152, -0.065805234, -0.08041585, -0.06257708, -0.06424694, -0.15639007, -0.13217768, -0.16375941, 0.08427302, 0.06829665, -0.091290206, 0.113873474, 0.04697658, -0.057429325, -0.035092898, 0.124573685, -0.046632905, -0.11309301, -0.100760885, -0.052149855, 0.09334533, -0.07129752, -0.03751715, 0.03415401, 0.075692065, -0.0476579, -0.074287646, -0.08565044, 0.082714856, -0.08184697, 0.0009118169, 0.0562102, 0.0352547, 0.04769336, 0.10267228, 0.07370838, -0.0026653453, -0.034569066, -0.024437994, -0.08066739, -0.08621546, -0.11931483, -0.02030166, -0.07967789, 0.07233516, -0.043811657, 0.016472494, 0.009207946, -0.029800192, -0.096910454, -0.14707427, -0.06658565, 0.13246638, 0.021701844, -0.012298672, -0.042030636, 0.015751436, -0.0017015673, -0.068208806, 0.13541885, 0.08436065, 0.043025, -0.09989075, -0.09384572, 0.023079013, 0.02519588, 0.16329615, -0.046105716, 0.05361196, -0.08279654, -0.0051838197, 0.16038887, 0.08818138, 0.03552124, -0.08196066, -0.04272364, 0.027525924, -0.10261569, 0.06820704, 0.021728838, 0.040506367, -0.09453832, -0.08503752, 0.115085065, 0.14442867, -0.040502254, 0.009564725, -0.039046813, 0.112131976, 0.091015235, -0.087216645, -0.0985872, 0.024340887, 0.13945219, 0.1200901, 0.024549244, -0.0051681665, 0.10942473, 0.074116945, 0.091900595, 0.13402759, 0.04706303, -0.11985655, 0.10562964, -0.026158465, 0.11109534, -0.081186675, 0.047211204, 0.11934767, -0.043012545, -0.08885346, 0.067970596, 0.07109442, -0.019619461, -0.056178898, 0.099584356, -0.05242306, 0.0021824518},
    {0.027747372, -0.102592796, -0.08954801, 0.12854311, 0.027410984, -0.18484023, 0.15567903, 0.14597984, 0.023855945, -0.12067641, -0.08057818, -0.22112386, -0.09066249, 0.004337294, 0.08921448, 0.0346657, 0.10946858, 0.04071733, 0.091735, -0.024852978, 0.07572009, -0.14333183, 0.063642755, -0.21840517, -0.02136003, -0.13526507, 0.04512654, 0.15314676, -0.037731476, 0.054574043, -0.012349518, -0.10383621, 0.088615276, -0.020746497, -0.0025871862, -0.0037634657, 0.06504537, 0.055701174, -0.17302385, -0.027137564, 0.06647374, 0.013124057, -0.0156796, -0.04446741, 0.094050206, -0.013578541, -0.061486024, 0.077284776, -0.14488976, -0.08704401, 0.052071407, 0.029110193, 0.00096470705, 0.09254598, 0.14333223, -0.0057657617, -0.07579304, -0.037135083, 0.102996, 0.1542726, -0.28830838, -0.0018173544, 0.013187356, 0.092734806, 0.07714819, 0.072777055, -0.2593625, 0.09063841, -0.32989955, 0.15699023, -0.004632124, -0.0866946, 0.039554674, -0.11549285, 0.10003823, -0.029262282, 0.016897317, -0.14745922, -0.07460027, 0.060494084, 0.09283185, -0.008484758, 0.048250835, -0.021960523, -0.04005721, -0.01890736, -0.11934575, 0.030807162, -0.02163695, -0.121538, -0.03539029, 0.05972595, 0.08677775, 0.08439271, -0.12022805, -0.1099637, 0.0691905, -0.24029282, 0.014041868, 0.016942156, 0.12512746, 0.00075327285, 0.013426328, 0.13340858, -0.2807499, -0.08034769, -0.03505656, 0.008153278, 0.05190692, 0.1700523, -0.4063829, 0.10624865, -0.0032554683, -0.067077346, -0.06072976, 0.07860693, 0.031235663, -0.21532801, -0.05988865, 0.22603667, -0.0926555, 0.039234348, -0.09301726, 0.12079778, -0.12254002, 0.07122819, -0.30481642, -0.061747424},
    {-0.0038611563, 0.10691688, 0.081655055, -0.039912526, 0.119733244, 0.09704205, 0.09218273, -0.07855139, 0.12786533, 0.07723589, -0.029893734, -0.11538939, -0.10140189, -0.08645499, 0.12389859, -0.039527435, -0.09952191, 0.02138893, 0.10811973, -0.123373576, -0.048924103, 0.016201006, 0.11873109, 0.0819087, 0.02327801, 0.040484663, -0.008076975, 0.13526727, -0.036706034, -0.01416084, 0.075766794, 0.06673179, -0.038823824, 0.05408787, -0.07638774, -0.03565373, -0.032315955, 0.14644587, 0.017955925, -0.09478328, 0.023460612, 0.05308013, -0.09366951, 0.088213645, -0.09502917, 0.03031864, -0.013333097, 0.016687606, -0.10678223, 0.000669899, -0.016623788, 0.04954138, -0.03110685, 0.024323016, -0.006766397, 0.010155012, 0.07841429, 0.017923156, -0.052878514, -0.07669406, 0.022024607, 0.062082298, 0.031175317, 0.047116973, -0.09385897, 0.093769595, -0.069500126, -0.026147282, -0.12915727, -0.060417138, -0.035888996, 0.053381104, -0.06625358, 0.033601098, 0.0030425917, 0.017073305, 0.024793247, 0.039185744, 0.072549626, 0.11456829, 0.0383022, 0.12332694, 0.10872067, 0.08033976, -0.082132705, 0.13905469, -0.1200877, 0.097651795, 0.056448128, -0.123460345, 0.05728005, -0.0806859, -0.033357333, 0.10607912, -0.008863992, -0.019660555, 0.08568744, -0.06445926, 0.028726535, 0.039334845, 0.04243075, -0.006638046, 0.08452636, -0.013093247, 0.071096815, -0.11530901, -0.036922447, -0.12657787, 0.10237205, -0.07580048, -0.053001, 0.04618088, 0.15733698, 0.12149303, 0.06373985, -0.03243079, 0.14267197, -0.13451298, -0.07229618, 0.107023016, 0.094368845, 0.13287778, -0.04524231, -0.1312675, 0.08735772, -0.07961599, -0.11305642, -0.016275503},
    {0.091093674, 0.053145718, -0.03326792, 0.14110696, -0.30316743, -0.139489, -0.14365871, -0.0080778655, -0.07573057, -0.14979842, -0.020327793, 0.06766259, 0.13184799, 0.06712958, 0.13984527, 0.097802, -0.21790965, -0.074821174, -0.22797334, -0.039138258, 0.11411591, 0.029968673, 0.2211058, -0.31767422, -0.18491083, 0.037015013, -0.07399431, 0.1592847, -0.29224795, -0.02735016, -0.094369955, 0.047108334, -0.033159483, 0.12497868, -0.18299823, 0.013540976, 0.015342859, -0.103662066, 0.02267327, 0.051822994, 0.051102217, 0.019897621, -0.071658835, 0.008971318, 0.14447337, -0.13170192, 0.042379178, -0.012495394, -0.17647071, -0.13238789, -0.07592277, 0.15918402, 0.019437946, -0.13561203, -0.10158241, 0.064047605, 0.00904549, -0.09589557, 0.11947294, 0.1240137, 0.11077449, 0.15779074, 0.08303301, -0.030795785, -0.037701603, 0.08773823, -0.06789874, 0.12940681, 0.07300994, 0.029500192, 0.042358514, -0.004241207, 0.050817125, -0.06682726, -0.089964695, -0.010038589, -0.07582819, 0.09529373, 0.120608784, -0.17070933, 0.061336078, 0.0089566475, 0.03165155, 0.06344068, -0.003969793, -0.11090723, 0.09162541, -0.088378824, -0.06438721, 0.084361374, -0.010464768, -0.38059744, 0.05990504, -0.068852775, 0.05674883, 0.007655088, 0.055984337, -0.104092315, -0.12490118, -0.11283893, 0.15481758, 0.18962288, -0.11818662, -0.00988862, -0.13278677, -0.09940374, 0.05081449, 0.06299226, -0.12100916, 0.07867331, 0.033946, -0.046756282, -0.17384188, -0.35027224, -0.027717436, 0.01831964, 0.010397644, 0.14877686, 0.09211876, 0.15896755, -0.03249585, -0.1074092, -0.07652961, 0.027504506, -0.18208762, 0.09216913, 0.057826865, -0.11318479},
    {-0.118941635, -0.029198997, -0.084453836, -0.04866897, -0.0784316, -0.07650751, 0.09744333, -0.060625292, 0.03973038, 0.12456716, -0.0917874, 0.03327238, -0.11075222, 0.087688714, 0.0952584, 0.06863055, -0.044625353, 0.024199551, -0.009235001, 0.08982286, -0.09166436, -0.0005731246, -0.019433105, -0.0019643365, 0.064179935, 0.054707643, -0.11485841, -0.07042094, -0.020222684, 0.029749956, -0.025427356, -0.10606024, 0.058340378, -0.08401143, -0.097259656, -0.047454603, -0.1166751, -0.02268013, -0.04215579, 0.03398277, 0.026752453, 0.002123377, -0.08788845, -0.17076206, -0.09243596, -0.062126566, 0.06409786, -0.041038603, 0.06335022, 0.15429722, -0.1305942, 0.078552686, -0.045783434, 0.03643012, 0.0783067, -0.065407366, 0.08099121, -0.002021257, 0.01697666, 0.04949125, 0.07950981, 0.014409335, 0.0526359, -0.016119892, -0.09527957, 0.107118696, -0.056596395, 0.071275145, -0.00203867, -0.08988685, -0.08178472, 0.13697125, 0.0059821988, -0.07500436, -0.043499406, -0.0751763, -0.03450982, -0.03516795, 0.077022046, 0.122167595, -0.046256788, -0.035519797, 0.07406411, 0.13488811, 0.018201057, -0.03876432, 0.09753482, -0.12005712, 0.092085086, -0.04901035, 0.012704172, -0.052479807, -0.1189795, -0.0070215845, 0.06667456, 0.0842926, -0.11328159, 0.09844168, 0.029440241, 0.045131378, -0.04765945, 0.037910663, -0.06078747, 0.0029260118, -0.027133545, -0.09298306, -0.0016952552, 0.1575744, 0.10913347, -0.11571701, -0.018119225, 0.0863254, -0.042214967, 0.086486794, 0.10315947, 0.015212555, 0.022887493, 0.039977364, -0.03924074, 0.04347991, -0.09369387, -0.026416866, -0.1170217, 0.009091254, 0.023185601, -0.05834306, 0.09701191, 0.093608774},
    {-0.1115309, -0.09260605, 0.15850694, -0.17434232, 0.090621494, 0.0235858, -0.19060484, -0.029413488, -0.14193512, 0.08672499, 0.01975913, -0.0013889472, -0.0519053, 0.041575655, -0.11859578, -0.2453376, -0.023919119, -0.008992805, -0.092073046, -0.06834282, 0.030222483, -0.0069220425, -0.031689808, -0.021878235, 0.088181846, -0.1315379, -0.010866665, 0.06265878, -0.059166856, -0.0916945, 0.033362992, -0.077592015, -0.009807082, -0.028881107, -0.07765217, -0.06788012, -0.0034685414, -0.039068665, 0.07165413, -0.007917173, -0.11798869, 0.061163954, -0.054342706, -0.09501221, 0.000570649, 0.01869895, 0.013203716, -0.08693869, -0.015698904, 0.113272786, 0.013566736, -0.07352065, 0.00023912374, 0.053906787, 0.1151451, -0.0035259593, 0.0026057118, 0.1488846, -0.05994492, -0.12140853, -0.08915895, 0.07545124, 0.106287755, -0.06568097, -0.121951394, -0.05664885, -0.038078915, 0.008757862, 0.17418084, -0.13192548, 0.062883705, 0.05367735, -0.03666601, -0.06858823, 0.0045892987, 0.08589757, -0.06929846, 0.11931987, 0.043425854, 0.097978204, 0.023281492, -0.061609942, -0.08714414, 0.01649033, -0.056094546, 0.07050682, 0.091645315, -0.026150657, -0.01540329, 0.07961845, 0.04668552, 0.1212268, 0.11491366, 0.0057959133, 0.07782607, 0.093005605, 0.0072044, -0.017676808, -0.017962528, -0.010695058, -0.094353765, -0.07617331, -0.0105698025, 0.102050394, 0.05861715, 0.05185719, 0.037993222, 0.10290457, 0.09358505, -0.022794148, -0.057431117, 0.025936533, 0.17032906, 0.15878864, -0.0075011533, 0.046548113, -0.13698286, 0.10910345, -0.026851587, -0.0023895265, -0.09710916, 0.07389127, 0.096995726, -0.036124863, 0.060513455, 0.04841713, 0.053781632, -0.020751128},
    {0.082875386, 0.005324686, 0.024900386, 0.14172448, 0.057306346, -0.048859164, 0.0234175, 0.011256719, -0.03422288, -0.028253756, -0.13321604, -0.027116248, 0.06403945, 0.07207818, -0.04769516, 0.015335179, -0.010654005, -0.027968593, -0.08788147, -0.044771135, -0.078669, -0.06708591, 0.12826724, 0.05577924, -0.06934692, 0.087741666, 0.043297198, -0.063282736, -0.10310375, -0.03913347, 0.046851803, -0.027694814, 0.095479146, 0.05816891, 0.114012145, -0.021367135, -0.07438914, -0.097980425, -0.033182494, -0.010523138, -0.002330463, 0.09805125, -0.06813396, 0.068091236, 0.1239901, -0.028934777, 0.06782666, -0.05639744, -0.045697056, -0.09437581, -0.083208725, 0.11935273, -0.032690153, 0.07858841, -0.13744694, -0.08427258, 0.014443198, -0.07351483, 0.035845388, -0.034737196, 0.1607351, 0.10924758, 0.020063845, 0.17339659, -0.0626716, -0.08798332, 0.026057234, 0.10481994, 0.059044912, -0.035251763, 0.018120058, 0.058203474, -0.095156044, 0.024777526, -0.09872148, 0.07688066, 0.0072303447, -0.00630823, 0.11554926, 0.022917427, 0.0953034, 0.121342614, -0.0044361893, -0.09688903, 0.07385997, 0.051806085, -0.03059069, -0.06980364, -0.08499495, 0.019402128, -0.016545631, 0.009672906, 0.07370072, 0.02073819, 0.05147261, -0.087861314, -0.09243075, -0.052204255, -0.03698855, -0.10914237, 0.051751047, 0.12984718, -0.13448992, -0.07367082, 0.034126997, 0.052433684, -0.031659067, 0.1261151, -0.069939636, -0.07845866, 0.09020942, -0.064732626, 0.008015748, -0.07725025, 0.009352447, -0.09250373, 0.064134695, 0.11341887, -0.07903804, -0.08293534, 0.115946285, -0.00767832, -0.123459004, 0.053649597, -0.029933343, 0.0005329058, 0.07473494, 0.018257635},
    {0.057925917, 0.03313322, 0.015256998, 0.18008198, 0.04298839, 0.071629025, 0.17459927, 0.11311828, 0.014027151, 0.11655654, -0.0910654, -0.016920222, 0.014851012, 0.072193734, -0.098393366, 0.0839849, -0.030566901, 0.033281405, 0.11188552, -0.02706186, 0.10301909, -0.111250505, 0.04718266, -0.17284508, 0.0772689, -0.062606774, -0.047718238, 0.010386867, 0.14195973, -0.13118902, -0.007213627, 0.05224487, 0.0005159782, -0.015977535, 0.07028525, -0.0062372666, -0.0070882877, 0.15068175, -0.2622803, 0.107077226, 0.0005317498, 0.08449775, 0.122246884, -0.13532656, -0.012986972, -0.12937126, -0.07844233, -0.07486435, -0.08626543, -0.11486881, 0.060141806, -0.17380004, -0.08529909, -0.068465255, 0.048083548, 0.13321537, -0.014981006, -0.09020123, 0.118972704, 0.14303496, -0.33304405, -0.02613178, -0.008049887, -0.10025392, -0.011067898, 0.06506072, -0.24190319, 0.07611263, -0.24349797, -0.015407706, -0.11880867, 0.12226272, -0.12208002, 0.0750844, -0.0401755, 0.049437523, -0.014299678, -0.05151519, 0.09293014, -0.090588614, 0.08503304, 0.07633728, 0.06418262, -0.14737889, -0.020785496, 0.033632606, -0.08269124, 0.13213031, 0.06191677, -0.11430233, 0.015460737, 0.11902921, -0.00084286986, -0.02223678, -0.13647768, -0.053052023, 0.12067887, -0.1794469, 0.104265, 0.008967844, 0.0038320564, 0.1270806, -0.16459133, 0.05959079, -0.19490622, -0.022399915, 0.04726935, -0.088059776, 0.047858294, 0.056160696, -0.3232458, 0.043719083, -0.053530063, -0.069638476, -0.015232635, 0.017896336, 0.1632154, -0.19241597, 0.08439745, 0.07584322, 0.031288333, -0.016742542, -0.002323135, -0.062426694, -0.102617234, -0.0010639165, -0.12651305, 0.015947264},
    {0.07229096, 0.037806325, 0.039544236, 0.16518435, -0.18713012, -0.18997431, -0.015630167, -0.017436255, 0.024346862, 0.09667023, 0.074066155, -0.10215405, -0.03205167, 0.06734292, -0.15027303, 0.17848064, -0.026752168, -0.030006664, -0.018211525, -0.0048709465, -0.03201288, 0.019210568, 0.16454494, -0.15678868, -0.026265973, -0.041033193, 0.012848042, -0.123513915, -0.010535793, 0.026661389, -0.15386997, 0.035503447, 0.037043758, -0.12117474, 0.15528817, 0.00278107, 0.0018692135, 0.18356206, -0.026895028, -0.0023226417, -0.101888165, -0.049557358, 0.025621107, 0.08143203, -0.021172175, -0.14398329, 0.04471811, -0.08635075, -0.19731955, -0.109223194, 0.022115739, -0.037508376, 0.06899536, -0.008988737, 0.09579568, -0.06892544, -0.110857174, -0.16931576, 0.15285999, 0.10491751, -0.030332543, 0.13321353, -0.09010999, 0.023023158, -0.013580482, 0.014611662, -0.213487, 0.048951328, -0.079690225, 0.0031775213, -0.04544206, 0.0008419913, -0.042264253, 0.021494925, -0.09121478, -0.05112595, 0.1314259, -0.13195917, 0.14028709, 0.043920677, 0.12324368, 0.1369673, -0.07984673, -0.006704736, -0.058866873, 0.20424694, -0.013087166, 0.034715604, 0.13008001, 0.11082391, 0.07812203, -0.105096675, -0.09392708, 0.11247033, 0.02389918, -0.07815028, -0.087802894, -0.22777718, -0.09935951, -0.06384743, 0.11552053, 0.0033756152, -0.276542, -0.115949295, 0.025606107, -0.03975171, -0.0006235097, -0.09758308, -0.048017226, 0.07826784, -0.08133631, 0.08990496, -0.02175545, -0.0794086, -0.018920101, -0.11217378, 0.07762428, 0.013095222, -0.15577163, 0.03953104, 0.017578099, -0.07661973, -0.113498874, -0.08779137, -0.01506458, -0.112916514, -0.16070867, -0.14110303},
    {0.03806339, -0.102226086, 0.03583434, 0.047441304, 0.13537149, 0.046303473, 0.017799081, -0.11538217, -0.079916835, -0.0052992045, -0.06231873, 0.07787025, -0.13655187, -0.08467684, -0.076885805, 0.0027227947, 0.14765963, -0.004529466, 0.051151987, 0.06305741, -0.099532574, 0.058999937, -0.0037582826, -0.08295041, -0.06872487, 0.05662059, 0.0016950251, 0.026769353, 0.05267319, -0.14784314, -0.07127301, 0.055244792, 0.20044018, -0.10429306, 0.10216747, -0.05275435, -0.01087424, -0.023217687, -0.0048842276, 0.046103094, 0.115068294, -0.047717586, 0.07613789, 0.0060637416, 0.021367012, 0.0051361835, 0.08541571, 0.019388303, 0.16265708, 0.016619714, 0.16043387, 0.1444837, -0.08961202, 0.071012035, 0.0035649408, 0.04237235, 0.002011973, 0.07166559, 0.07075662, 0.0071720495, -0.08524637, -0.0054939073, -0.112580545, 0.0056258347, -0.0030916445, -0.07914019, -0.06466561, -0.06761858, -0.0033034964, -0.010061534, 0.041459136, -0.027581772, 0.019747613, 0.11985589, -0.016869035, 0.028108016, 0.038534712, -0.003492341, -0.010607801, -0.06868209, -0.061170142, -0.117672674, 0.09066646, 0.040802766, 0.11291758, 0.12158693, 0.10707096, -0.041905306, -0.081679836, -0.009308036, -0.03962611, -0.037251793, 0.02075119, -0.086601034, 0.059428263, -0.013153116, 0.039092287, 0.11410983, 0.011330364, 0.031504344, 0.075202726, 0.094916746, 0.013997017, -0.005390169, -0.08551991, -0.040696315, -0.09482244, 0.11166767, 0.080850735, 0.041484587, 0.10207947, 0.12970324, 0.11412308, -0.04108044, -0.033611957, -0.013006938, 0.07695675, -0.09577707, 0.12823936, -0.0786814, -0.11575611, -0.07804664, -0.03680011, 0.029076971, 0.13403943, -0.005862858, 0.12174392, 0.10955691},
    {-0.084292255, -0.03269448, -0.101941526, -0.1663384, 0.12227675, -0.11566622, 0.0140270395, -0.030564493, 0.04984835, -0.077114895, 0.0074395146, -0.08336947, 0.0075454637, -0.07383523, 0.0818685, 0.03087854, -0.081039175, 0.10487032, -0.0373462, -0.13919206, 0.07197903, -0.016693568, -0.009134076, -0.042657554, -0.022883184, -0.15818064, 0.091021225, -0.0002162166, 0.045138896, -0.034442026, 0.007781422, -0.082800664, 0.050236877, 0.08410191, -0.061703634, 0.058068816, 0.14259702, 0.11069371, -0.08825877, -0.16275603, -0.004305436, 0.1290058, -0.08275997, 0.023343893, -0.14306726, -0.10596712, -0.09279856, 0.12183029, 0.001347708, -0.048501395, 0.034972657, -0.15836765, -0.1659545, -0.067536086, 0.08072327, 0.05964111, -0.04430827, -0.04954067, -0.00953497, 0.13780342, 0.03859383, 0.15416822, 0.05988566, -0.02989186, -0.12269146, 0.08233792, 0.017749153, 0.10291115, 0.015127468, -0.040364522, 0.09095158, 0.1289938, -0.02706304, 0.08595578, 0.05960598, -0.01039076, -0.04146637, -0.107315995, -0.14396825, -0.07239372, -0.048987392, 0.055184994, -0.039118875, 0.05200696, 0.063228354, 0.16407678, 0.11639309, 0.08087503, 0.11581748, 0.02278233, 0.011954727, -0.026985046, 0.0948549, 0.06770938, 0.084861666, 0.016401974, 0.088468395, 0.06248083, 0.12032419, 0.09612405, -0.022023816, -0.028756734, 0.08554657, -0.061197888, -0.021059746, 0.04318148, -0.019929618, -0.06662302, -0.04442237, 0.0070792483, 0.06762931, -0.061639544, 0.12357526, 0.12442027, 0.026897497, 0.13378982, 0.05977872, -0.0038664842, -0.092731975, -0.0159829, -0.11208179, -0.0066645276, 0.022367496, -0.07431989, 0.08684666, 0.06446904, 0.09391478, 0.078669034},
    {-0.013700619, -0.06272868, 0.07915366, -0.062341668, 0.119939685, -0.03551057, 0.11083949, -0.0014819418, 0.00037247047, 0.017364312, -0.11312806, 0.0071872314, 0.09604452, 0.10147622, -0.16432267, 0.004624441, -0.02348233, -0.02723895, 0.0058757747, -0.004229749, -0.07496845, -0.12961435, -0.07176057, -0.12157396, 0.0121922875, -0.17856301, 0.06538625, 0.055868465, -0.10410164, -0.014375242, -0.013003318, -0.091228195, 0.022715217, 0.042373385, 0.13619022, -0.013491238, 0.070842035, 0.115660645, -0.057598528, -0.10287565, -0.0732748, 0.0047444045, 0.113197446, 0.026804931, -0.06867012, 0.036275387, -0.091319814, 0.059928555, -0.097782485, -0.15473936, -0.060504287, 0.05862764, -0.058176666, 0.125843, -0.15804958, -0.012497729, -0.009587349, 0.07113346, -0.097844236, 0.1533812, 0.015103253, 0.13368517, -0.08220776, -0.0036943918, -0.065736525, -0.13664192, -0.008066932, -0.07914716, 0.058542043, 0.0071778437, 0.10836854, 0.042764228, -0.04118902, -0.003661507, 0.16696359, 0.07417214, 0.054562684, -0.15515809, -0.00064934324, -0.034441717, -0.059716687, -0.13970436, -0.020804802, 0.056368254, -0.06450612, 0.03077949, 0.07445586, 0.10017299, 0.039185245, -0.06656698, -0.064170584, 0.021446, 0.16149423, -0.035073288, -0.0034798842, 0.042271834, 0.058860917, -0.02687648, -0.03251747, -0.22218984, -0.056059, -0.04953826, 0.08448913, -0.026699018, 0.034926504, -0.040902812, -0.12415975, -0.014245596, -0.033641264, -0.040062428, 0.08053989, -0.05602666, -0.036904335, 0.14862676, -0.12303736, -0.0018652157, -0.0731261, 0.017978776, -0.059498712, -0.12654525, 0.111043215, -0.014402605, 0.14084756, 0.049273163, -0.034200426, -0.12173581, 0.04075724, -0.032355774},
    {-0.007419279, -0.08879603, -0.036663547, 0.030997623, -0.07164139, 0.05716604, -0.062531725, 0.05929925, -0.06888229, -0.09011457, 0.004486166, 0.04133326, -0.08208919, 0.05854476, 0.16609962, 0.017181735, 0.004145072, -0.082800515, -0.09887374, 0.04051308, 0.037366882, -0.006499528, -0.06999873, -0.014736444, -0.06726044, 0.08442488, -0.058868524, -0.074561685, 0.063569285, 0.11128479, -0.047458153, -0.094672166, -0.025983796, 0.032543138, 0.059251633, -0.009263099, 0.12044656, -0.047287192, -0.0028783283, -0.03293438, -0.09304435, -0.009971055, -0.09080629, 0.0709492, 0.08583394, 0.07616656, 0.08561657, 0.006288393, -0.058438268, -0.10734684, 0.105405375, 0.04587743, 0.014691842, -0.0910956, 0.10581444, 0.0341208, 0.103853725, 0.044236466, -0.0883665, 0.057846714, -0.12344737, -0.016556993, 0.019804688, -0.039588034, -0.089463376, -0.044529807, -0.0068196086, -0.07234188, -0.008477708, 0.06659614, -0.08921771, -0.07192076, 0.06113417, -0.033679966, -0.07137245, 0.025324147, 0.04826441, -0.107705206, 0.09173071, 0.040558264, 0.008362254, 0.17013699, 0.04648234, -0.0006740367, 0.08494718, 0.07279991, -0.122207865, -0.00575332, -0.07070604, -0.11068617, 0.02364384, 0.07305027, -0.06700689, 0.13100712, -0.01597661, -0.14386654, -0.054684263, -0.032262683, -0.10961135, 0.028645255, 0.06343433, -0.14432977, 0.02702796, 0.008126264, -0.013439554, -0.038335998, 0.0926954, 0.0011775352, -0.09584333, 0.117701076, -0.22838545, 0.08466903, -0.045108132, -0.0223259, 0.14210652, -0.05477848, 0.06358824, -0.1384559, 0.09337746, -0.026436793, 0.09417214, 0.06783447, -0.023531599, 0.1260775, -0.1371536, 0.037944004, -0.034993548, 0.03016379},
    {-0.10586613, -0.109084964, 0.11983102, -0.1355773, -0.09204474, 0.10333355, -0.050806407, -0.058049627, -0.0401457, 0.007357132, 0.11917134, 0.06124787, 0.093515396, -0.002741203, -0.03248068, -0.080591835, -0.08992542, 0.005612239, -0.12612136, 0.058256097, 0.06896788, 0.08850673, -0.017585255, -0.07613659, -0.030959336, -0.018656999, 0.116347134, -0.05866722, -0.106563345, -0.048430078, -0.07089648, -0.02614283, 0.0025011867, 0.14141688, 0.041334797, -0.04027621, 0.11876033, -0.10418723, -0.054531276, -0.04027906, 0.030154506, 0.09719323, 0.10065957, 0.08740753, 0.06308035, 0.0049124947, 0.14889573, 0.03521091, 0.039417688, -0.019033765, -0.12354738, 0.11242778, 0.13939565, 0.08693351, -0.12074458, -0.08146734, 0.14391986, 0.021809762, 0.087639354, 0.039269157, 0.05803818, -0.06161077, -0.07875111, 0.057930402, 0.108270764, 0.10082808, 0.1319514, 0.020329846, -0.0096838325, -0.08265591, -0.13654537, -0.08655274, -0.02155582, -0.14607516, -0.012692557, -0.046930205, -0.05829501, 0.12221902, -0.059081577, 0.019252472, -0.09596676, 0.042217705, 0.0821082, 0.060650595, 0.16310634, -0.0057345782, -0.053561047, -0.12676696, 0.026195526, 0.119115226, -0.000800659, 0.10984924, 0.11500716, 0.049650345, 0.08437328, 0.054495204, -0.062316533, 0.035575856, 0.08062358, -0.023666698, -0.07823654, -0.095377535, 0.030959794, 0.019979078, 0.13046159, 0.11345029, 0.039216638, 0.055178255, -0.099624395, 0.030540751, 0.07895386, -0.11390859, -0.08256406, 0.12932447, -0.13144189, -0.040330485, -0.2000701, -0.0828706, 0.12400675, 0.0145066, 0.074323386, 0.09115771, -0.13731638, -0.053800564, 0.13785511, 0.014507578, 0.094739854, 0.15148348},
    {-0.038307548, -0.117657065, 0.0847145, -0.11681254, 0.07465211, -0.1187055, -0.055144817, -0.0006543908, -0.027466083, 0.008630627, -0.121938884, -0.045068286, 0.15272516, -0.061578523, -0.043451075, -0.15750703, -0.000121825615, -0.0559861, 0.10086968, 0.12002547, 0.10039772, 0.023118606, 0.116293475, 0.072882354, -0.09053019, 0.010544961, 0.062432505, -0.08015535, 0.06920228, -0.079658195, 0.116637394, -0.07314711, 0.09980557, 0.10737689, 0.1544288, 0.14612915, 0.15567756, 0.042339418, -0.046238568, -0.09373699, 0.08279224, 0.101238795, 0.06363384, -0.10002314, -0.026607707, 0.09374199, 0.024263566, 0.019020563, -0.018991139, -0.13029028, -0.048569325, -0.07761449, -0.048192304, 0.12620279, -0.0794672, 0.00043383744, 0.021338385, 0.081604876, 0.07604853, 0.047798157, -0.04260045, 0.14940105, 0.058029506, 0.09693457, -0.12009997, -0.11763304, 0.018576385, 0.11827796, 0.10287234, 0.07404548, -0.057267785, -0.104817346, -0.045930706, -0.049125567, 0.04985259, -0.089421496, -0.10188514, -0.094461635, -0.03891869, 0.03901005, 0.083991386, 0.019414498, 0.07295912, 0.14169113, 0.061291832, 0.029597165, -0.009279141, 0.10717505, 0.14953172, -0.048412558, -0.064756304, 0.09364505, 0.1385085, -0.11511236, -0.013067721, 0.07956084, -0.035382003, 0.09316312, -0.01240112, 0.010614864, 0.013546107, -0.026306355, 0.13377398, 0.1157924, -0.04834742, -0.023173729, -0.06804324, 0.04998229, 0.06117138, -0.073864475, 0.04242841, 0.099402666, -0.08300806, 0.10097923, 0.0114365, 0.03331992, -0.06663547, 0.12914488, 0.10339308, -0.0903943, -0.10622494, 0.049512234, 0.010127088, -0.11557726, -0.02675716, -0.079281725, -0.02928027, 0.11078031},
    {-0.008916227, 0.061244156, -0.12515904, 0.031414583, 0.100259215, -0.0639407, -0.050837692, 0.08699197, 0.052044004, -0.059804875, -0.07942743, 0.03204924, 0.04345337, -0.22704816, -0.104490876, 0.22781038, 0.01635496, 0.050942566, 0.014943272, 0.04517788, -0.037333027, -0.12237873, -0.08893863, -0.17275633, -0.011177766, -0.0033450136, 0.17436422, 0.069720276, 0.046894137, -0.26108956, 0.16421689, -0.031463314, 0.21914166, -0.0006240132, -0.072017044, 0.15974772, -0.1830291, -0.06556901, -0.100156285, -0.09660475, 0.16396813, 0.023034476, 0.18241794, -0.08665764, -0.2032785, 0.112033635, 0.18296972, -0.0696403, -0.019383272, -0.13596448, -0.054779172, -0.095986634, -0.074901655, 0.13331424, -0.102540456, -0.011767927, -0.15807746, 0.060308244, 0.052566133, 0.104272254, 0.05328897, -0.04892852, -0.178707, 0.010353681, -0.2271157, -0.067857124, 0.08388695, 0.22475277, -0.0015543292, -0.057447605, 0.07414636, -0.082573324, -0.14769526, 0.09240103, 0.2037218, -0.11026952, -0.054442123, -0.17037585, -0.10918696, -0.04296963, -0.04582186, -0.0057471734, -0.032018088, 0.040943354, -0.22911552, -0.058607973, 0.103854194, -0.07040939, 0.011547223, 0.05703404, -0.08849467, 0.113746025, -0.018574085, -0.10716416, 0.016632425, 0.097294375, 0.17730601, -0.040747292, -0.02376949, -0.025478484, 0.13871436, 0.069664516, 0.1293504, 0.12746225, -0.007851341, -0.04357767, 0.05465913, -0.13706605, 0.07105543, 0.06944902, -0.0153265195, -0.116848275, 0.044098686, 0.13732544, -0.10050705, 0.1037195, 0.1332556, 0.15368015, 0.03677931, -0.0721026, -0.059137557, -0.08712533, 0.096818864, -0.011285291, -0.18989554, -0.14290076, -0.045585442, 0.010138852},
    {-0.10654236, -0.07173256, 0.068615735, 0.026600262, -0.04410888, 0.17122751, 0.12400023, -0.16959326, 0.037384726, -0.0992919, 0.11911522, -0.28231546, -0.106949046, 0.100068435, 0.10044029, -0.16735193, -0.101067744, -0.11636251, -0.01027369, -0.066552006, 0.07569194, -0.03695228, 0.010624844, 0.16475277, -0.042343576, 0.19421281, -0.15567248, 0.0010927106, -0.011980719, 0.087108776, -0.14750946, -0.07925454, -0.16861156, -0.024411801, 0.07600113, -0.0056474917, 0.0389042, -0.101685785, -0.10126314, -0.011087857, -0.19404313, 0.09029388, -0.22788997, 0.04240186, 0.04230271, -0.04775829, -0.15567246, 0.098861866, -0.07777153, -0.06336696, 5.8595237e-05, -0.090492055, -0.065976486, -0.070375554, 0.022774033, 0.12305702, 0.17417818, -0.005637851, -0.015355058, -0.06856479, -0.16226308, 0.0055802353, 0.097936645, -0.042170133, -0.04781076, -0.030374385, -0.17465927, -0.081682734, -0.05099685, 0.049933217, -0.032918684, 0.10391795, 0.16098568, -0.10054744, -0.14343141, 0.057926048, 0.1769936, 0.054611556, 0.048571084, -0.13222222, -0.049608104, 0.032021347, 0.022031052, -0.20309635, -0.0879498, -0.07178863, -0.15069394, -0.046213217, 0.0660351, -0.100421354, 0.08603076, -0.048060045, -0.06665305, 0.048610568, -0.018828223, -0.25286558, -0.15253837, -0.0844508, -0.042526696, -0.026726957, 0.12367115, -0.11453585, 0.02790649, 0.07709057, 0.037134364, -0.12457539, -0.06664984, -0.039369427, 0.03349361, 0.048111197, -0.068453036, 0.01764479, -0.1516204, -0.16584924, 0.06773763, -0.067343734, -0.26584774, -0.27908447, -0.11229955, 0.1394396, -0.08316264, -0.025571134, -0.06557683, 0.031287752, 0.17079532, 0.030854598, -0.06545301, 0.0898757},
    {-0.03183106, 0.12278684, 0.16833742, -0.078413464, -0.096586905, -0.038597405, -0.18391187, -0.107472956, 0.032920916, 0.15365101, 0.03359588, 0.025969453, 0.022254342, -0.0145149175, -0.06518096, -0.04068579, -0.035965264, 0.07101145, -0.12145255, -0.041315738, 0.08185973, 0.16632073, -0.03634362, -0.07204012, -0.051264863, 0.067657664, 0.09866294, -0.01958779, 0.021935806, -0.018727997, 0.023567671, -0.0672306, 0.038267657, -0.07214185, -0.10277229, -0.106496766, -0.03290377, -0.13125405, 0.007427891, -0.041122947, 0.03446431, -0.027480463, -0.021472316, -0.17970487, -0.057296745, -0.08256439, -0.019172518, -0.06641049, -0.06953507, -0.014982884, -0.20317425, 0.028666535, 0.19575523, 0.07222535, -0.11312602, 0.00560161, 0.12166526, -0.11154195, 0.069748126, -0.055479825, 0.11194773, 0.076004215, 0.029284703, 0.016474294, 0.10294014, -0.11699561, 0.09337977, 0.05217545, -0.0360802, -0.13320333, -0.025485152, 0.07026515, 0.09035494, -0.090931594, -0.072925, 0.08793615, -0.079246975, -0.039386235, 0.06891128, -0.06597667, -0.01029295, -0.10978866, -0.09505837, -0.025944948, 0.14700265, -0.007457685, -0.047832, 0.10364974, -0.13324144, 0.10492306, 0.10325698, -0.13059409, 0.11620294, -0.036061212, 0.12100781, 0.0051827207, 0.0229042, 0.088406965, 0.13251127, -0.033860646, 0.08583372, -0.042275798, 0.025940647, -0.09915399, 0.0006160883, -0.04045031, -0.0561895, 0.054731086, -0.12637591, 0.035871115, 0.060180504, -0.053106293, -0.032001786, -0.09111775, 0.076713786, -0.052426334, -0.10563193, -0.051858135, -0.12267868, -0.047486674, -0.06662284, -0.060558684, -0.13707851, 0.08055291, -0.017819935, 0.12346452, -0.04670463, -0.046769455},
    {0.0047327364, 0.024981575, 0.060239542, -0.033039533, 0.010763269, 0.13195662, -0.13686956, 0.097128615, -0.04437421, 0.124639325, -0.006846053, 0.14912862, -0.023384752, -0.035785735, 0.1570892, -0.08803979, -0.11157289, 0.045286328, 0.022095742, -0.08512799, 0.041435048, 0.09927522, -0.12720516, 0.031462066, -0.14726853, -0.04695255, -0.011702115, 0.089947805, 0.07164349, 0.048823826, 0.044865623, 0.15458608, 0.040141992, -0.05273706, -0.041067265, -0.015853692, -0.028835963, -0.079724535, 0.10704608, 0.15561402, 0.15551534, -0.011334296, 0.023654636, 0.06370597, -0.06584599, -0.08141493, 0.0467435, -0.055774823, -0.092190035, 0.019012097, -0.061045226, 0.06929673, 0.06510793, 0.03811309, 0.0022994292, -0.11254858, 0.113626815, -0.048032824, -0.04305366, -0.07801152, 0.053203564, 0.09139831, 0.07934613, -0.02545788, 0.023150807, -0.02523039, 0.053823385, -0.088712834, -0.022416279, 0.015797412, -0.0019749638, 0.049582936, 0.023806037, -0.11077638, -0.123140745, -0.10085466, 0.13302243, 0.053898435, 0.09430543, 0.060843993, -0.096773855, -0.08255442, -0.049976684, 0.14739966, 0.098867536, 0.084317066, 0.012873091, 0.07039035, -0.03350497, -0.074457064, 0.046973646, -0.012092413, 0.013136397, 0.060365055, 0.057280134, -0.013123485, 0.068936706, -0.05429565, 0.15215854, 0.084337875, 0.028160054, 0.0816199, 0.12635626, 0.03623756, 0.030681817, -0.030849606, -0.0840854, -0.05148291, -0.054877702, 0.013260932, 0.057651244, 0.057811152, -0.069065824, 0.07231824, -0.008198315, -0.02243976, -0.039030254, 0.1607402, 0.017486772, -0.042596243, -0.07847699, 0.04500998, 0.03515292, -0.102899745, 0.0061765877, -0.049433507, 0.024922812, 0.018575441},
    {0.08884304, -0.093522444, 0.044775724, -0.08159378, 0.11173151, -0.1467992, -0.12626415, 0.040168654, -0.054316778, 0.11302329, -0.063995525, 0.086174496, 0.04419687, -0.061307993, 0.13471694, -0.05215881, -0.058603663, -0.15847342, -0.03365556, -0.08234199, -0.009422337, -0.033596277, -0.07666933, 0.034261826, -0.024156688, 0.056600478, -0.09434011, -0.034073457, -0.009837188, -0.05347132, 0.10156475, 0.076640554, -0.030420175, 0.047986973, 0.056243874, 0.03677831, 0.121979125, 0.099876344, 0.075847246, -0.037908524, -0.0060121994, 0.13759115, -0.09646077, 0.20560285, -0.13571495, -0.05899521, 0.007615768, -0.056596175, 0.075385034, -0.017451221, 0.097555116, 0.02853903, -0.020804467, 0.012697051, -0.05986726, 0.17562395, 0.004449675, 0.07859202, -0.100140944, 0.10590378, -0.093211174, 0.13209085, 0.09605034, 0.064082764, 0.14600922, -0.062941335, 0.024983585, 0.11669694, 0.07620101, 0.13987951, 0.051277675, -0.06463588, 0.047085386, 0.12534344, 0.1635688, -0.105767064, 0.019482546, -0.1492388, -0.112710714, 0.03016047, 0.08961588, -0.05666627, -0.011271412, -0.005120453, -0.17573409, 0.0011773979, 0.009799697, 0.14424191, 0.1445093, -0.12231552, 0.09357807, 0.1280581, 0.06409707, 0.17244682, -0.05514539, -0.050239544, 0.11711488, 0.006543733, -0.04429591, -0.091756456, 0.00494745, 0.1388805, 0.12249502, 0.002756299, 0.1321169, 0.0033542847, 0.051473055, 0.07949474, 0.03520297, 0.06451104, 0.024321483, 0.032003194, 0.027751328, 0.10616705, -0.04778805, 0.06928388, -0.0030020853, -0.101449445, -0.006708891, -0.085631065, -0.10364217, 0.060550332, -0.036746208, 0.14924121, 0.15981966, 0.05770711, -0.0683625, 0.07009618},
    {0.090078436, -0.045022637, 0.11472753, -0.12065684, -0.010141563, -0.011870827, -0.006494234, -0.24904948, -0.027449291, -0.05611363, 0.116574645, -0.18855327, -0.09318592, 0.118804686, 0.06248674, -0.17171946, 0.073561974, -0.20189655, 0.036549773, -0.15660477, -0.07865372, -0.037919294, 0.029137323, -0.009700011, -0.1436417, 0.10721877, -0.08918902, -0.20118152, -0.034262314, 0.22670649, -0.11884937, -0.21143152, -0.009145904, -0.13775128, -0.09912926, 0.08758587, 0.027293542, -0.10101115, -0.06375699, -0.07463084, -0.17961973, 0.03881122, -0.20092712, -0.1297464, -0.004853768, -0.041737854, -0.14146963, 0.054783147, 0.08024849, 0.07312336, -0.034453467, -0.15455721, -0.10509459, -0.074729815, 0.084423915, 0.05927611, 0.14349218, -0.075505525, -0.018908707, 0.046048585, -0.24647082, -0.044295385, -0.007917049, 0.05107258, 0.041883245, 0.0029473866, -0.09752697, 0.050699424, 0.074942745, 0.014167543, 0.026452662, 0.1589631, -0.020321345, -0.084049106, -0.10893344, -0.051291525, -0.041597504, -0.019631684, 0.16006534, 0.0074903374, 0.047042288, 0.13227127, -0.04842014, -0.21290183, -0.094954416, -0.037337825, -0.23195097, -0.1135748, -0.048307672, -0.12095368, 0.05304381, -0.1415109, -0.11928442, 0.11952983, -0.07845948, -0.128419, -0.04516569, -0.25371101, -0.06537655, 0.036377218, 0.054402992, -0.26885036, -0.12185613, -0.022705518, -0.13366956, -0.03345217, -0.11597391, 0.13062863, 0.08941033, -0.0545423, -0.044333845, 0.03882604, -0.09310214, -0.11470381, 0.0047324533, -0.22045888, -0.006013914, -0.26232728, 0.025165876, -0.05210815, 0.08343178, 0.07023513, -0.05334673, 0.074700005, 0.107986815, 0.1643348, 0.06818213, 0.07676496},
    {-0.076910295, -0.0143733, 0.0122275585, 0.13508055, 0.0059624845, -0.08930734, 0.03334642, -0.048827216, 0.13792601, 0.14210601, -0.03531323, -0.0018548783, -0.19784571, 0.07150441, -0.1446995, 0.16768749, -0.005269229, 0.08169668, 0.17020945, -0.057174124, -0.09487817, 0.010045903, 0.23191528, -0.07064225, 0.12551166, 0.03207867, -0.13114959, -0.05068076, 0.01299678, -0.07733197, -0.06334493, -0.105251886, 0.0026606936, -0.080995224, 0.17459495, 0.07019515, -0.028135585, -0.03658782, -0.022490969, 0.082901314, -0.083788574, 0.100069165, -0.0871153, 0.10275503, -0.00817416, 0.0058168485, -0.01570062, -0.117015645, -0.13969445, -0.11420921, 0.07828043, -0.005635595, -0.021299902, -0.16061597, 0.08448995, 0.1776018, 0.04918331, -0.15845466, -0.038971107, 0.06342609, -0.04390673, 0.02007527, -0.046479918, 0.12657297, 0.0001735408, 0.06461893, -0.092371106, 0.09798489, 0.058943596, 0.22343327, -0.10495027, 0.05018029, 0.038609564, 0.07149371, 0.06231411, -0.02565055, 0.1186285, -0.1647256, -0.008941658, -0.0558233, 0.16911969, 0.03001585, 0.13699941, -0.02588498, 0.039682217, 0.008127252, 0.07194921, 0.09300796, 0.12914547, -0.037931673, -0.0231821, -0.044461556, 0.014228233, 0.15135959, -0.055514462, -0.124162585, -0.064810246, -0.012345803, -0.045274768, -0.04728484, 0.08153365, -0.00012528781, -0.078747325, -0.14219576, 0.052653573, 0.10611658, -0.060250122, -0.03649396, 0.0038491152, 0.15599126, -0.005226921, -0.03790833, -0.06712276, 0.010322938, 0.086065516, -0.10970185, 0.0683682, 0.06252562, -0.081896245, 0.11381638, -0.027427973, -0.082922295, -0.024582218, 0.11029485, -0.092835315, 0.06933783, 0.033605155, -0.14963053},
    {-0.06274112, 0.09279467, -0.04127068, 0.028035374, -0.07348327, -0.026460594, 0.06977232, 0.023955617, 0.17420842, 0.08532596, -0.073112026, -0.0703501, 0.08084406, 0.043790046, 0.041707788, -0.01123108, -0.021504233, 0.0653277, 0.06529446, 0.012657533, -0.06003317, 0.01592216, 0.01927047, 0.07193982, 0.031609345, 0.08373318, -0.14674029, -0.115381345, 0.020599958, 0.0748226, 0.11113259, 0.083352275, -0.0530951, -0.029272184, -0.046608884, -0.006994135, -0.023222407, 0.07763687, 0.060848635, 0.0640353, 0.0460899, 0.11693246, -0.11889497, 0.013187636, 0.0016629966, -0.11310379, 0.040865164, 0.09295901, -0.047035277, -0.09823207, 0.10077877, -0.091719225, 0.048718974, 0.026617534, -0.031715322, 0.15660098, -0.14150979, -0.065252416, 0.015397822, 0.09682986, 0.075509764, -0.092385665, 0.12126196, 0.051967647, -0.017912408, -0.07356629, -0.13295665, 0.11817141, -0.095860064, 0.045893926, 0.09476562, -0.038128417, 0.020471737, 0.12100416, 0.04698081, -0.043103818, 0.033915684, -0.09031743, 0.12418859, 0.03768081, -0.06605948, -0.07184307, 0.01990572, -0.053358234, 0.061928187, 0.01959427, 0.06887807, 0.11803869, 0.106873915, -0.035916638, 0.007844679, 0.0016631469, 0.068287775, 0.048221953, -0.12057926, 0.091021396, -0.11308489, 0.10542611, 0.13120735, -0.07136484, -0.010566918, 0.11919788, -0.10585081, 0.040327143, -0.019806804, -0.09682983, -0.004831836, 0.1270201, -0.060567953, -0.046375558, 0.10895201, -0.04292124, -0.10232677, 0.049288563, -0.07060914, -0.054471757, 0.02302046, 0.124267854, -0.11760105, 0.10071468, 0.033681348, 0.01595577, -0.10189434, -0.10458653, 0.076521546, 0.009153539, 0.08391154, -0.037695915},
    {0.08728354, -0.012955388, 0.11038051, 0.13977769, -0.02982835, 0.04372227, -0.0121353865, -0.083887614, 0.14831084, -0.051104788, -0.054356832, 0.12119252, -0.14649308, 0.004209329, -0.1146777, 0.086943634, 0.16149224, -0.021217363, 0.048238702, 0.00012474073, 0.09467739, 0.076284066, 0.100032814, 0.033871114, 0.05021489, -0.08933399, 0.006869779, -0.17951223, -0.05172956, -0.09752579, -0.028742516, -0.102486074, 0.016070472, -0.0071551576, 0.035780646, 0.008988314, -0.028857645, 0.16432364, 0.006617925, 0.025038935, -0.054197386, -0.070968695, -0.058658917, -0.12657644, -0.082755245, -0.083682634, 0.10268503, -0.058759585, -0.0050517004, 0.10184129, 0.120226614, 0.020853056, 0.12515649, 0.0015578108, 0.14764571, 0.15174629, -0.09767044, -0.06126623, -0.029811585, 0.12165608, 0.08458242, 0.088069394, -0.035697576, 0.03152249, -0.05680091, -0.11452143, 0.10162268, 0.09353332, -0.08276747, 0.10349076, 0.080751926, 0.05654137, 0.016627409, 0.114971295, 0.009217265, 0.11250467, 0.045263946, -0.030346446, 0.06744064, -0.0587338, -0.053499103, -0.064769596, 0.12087315, 0.09450365, -0.053708494, -0.05772115, 0.116280325, -0.09348209, 0.11448056, -0.025099078, 0.04708149, -0.12872365, -0.07560276, 0.08097425, -0.06168055, -0.1816426, -0.011398329, -0.09736577, 0.109786175, -0.021073129, 0.12013664, -0.07509275, 0.07713076, 0.064313374, 0.003727284, -0.10134725, -0.054703046, 0.09768434, -0.14076652, 0.060261603, -0.060799163, 0.10589852, -0.09430152, 0.028400028, 0.11513389, 0.036055855, 0.042647384, 0.12713313, -0.13871536, 0.053932272, -0.022606602, 0.044996634, -0.09295846, 0.016044708, -0.11722375, -0.028866986, -0.113320716, -0.04616265},
    {0.059978973, 0.011925934, -0.12114458, 0.12215771, -0.1286053, -0.058396034, 0.04700222, -0.051724933, 0.099492475, 0.14557338, 0.058882046, 0.068980366, 0.04998942, -0.021446057, -0.028358212, 0.116877906, -0.14367387, -0.07686805, 0.09730617, -0.02052059, -0.05061518, 0.078191645, -0.00937129, -0.003536719, -0.026830588, -0.05738263, 0.03872919, -0.060137875, -0.016507162, -0.04073672, -0.04927895, -0.03271773, 0.09605693, -0.049332306, 0.09492411, 0.1363956, 0.008595448, 0.055950247, -0.09331259, 0.028849218, 0.008465377, 0.015978996, 0.036886, 0.0505842, 0.17198601, 0.07302205, 0.104682215, 0.018610358, -0.15142313, -0.0720381, 0.06752142, 0.010512804, -0.07524197, -0.013918264, -0.0977931, 0.09161881, 0.13057189, 0.06952889, 0.015241442, 0.012098438, 0.10221285, -0.051428705, -0.062776014, 0.0056888964, -0.10317749, 0.059487913, 0.014987383, -0.11108728, 0.025147412, 0.0505402, -0.10145611, -0.036329363, 0.06222048, -0.08721909, -0.052852847, -0.06302804, -0.10950324, -0.10835543, -0.0017212231, 0.023821592, 0.07659897, -0.031647597, 0.043891303, -0.037254635, 0.100073144, -0.072189644, 0.069070324, 0.032384783, -0.028945796, 0.15482967, 0.096928425, -0.115413375, 0.12179892, 0.031640574, -0.015751097, 0.097054355, -0.036039554, -0.062658094, -0.029818574, 0.0652921, 0.11510578, -0.043081075, -0.112274185, 0.07970886, -0.03215409, -0.035087757, -0.08072751, 0.124190435, -0.05179876, 0.0067361454, 0.10974053, 0.06331064, -0.038915448, 0.06400629, 0.04057279, -0.00076964154, -0.10623608, 0.10001337, -0.08312028, 0.13814427, -0.0670095, 0.065619975, -0.06844052, 0.042441804, 0.034936, 0.13638952, -0.09736402, 0.022408182},
    {-0.025705712, -0.07693872, 0.089433216, -0.3062045, 0.026526086, 0.11157152, 0.08664885, 0.12344531, -0.14245825, 0.15483283, 0.11416806, 0.044060625, 0.14405586, -0.038728785, -0.11492459, -0.34637213, 0.10367245, 0.068082765, 0.17882401, 0.028002743, 0.061774883, 0.030974751, -0.05593374, -0.055239294, 0.015945721, -0.06559183, 0.09808402, -0.021850927, -0.026476165, -0.1665402, 0.14765383, -0.085133895, 0.033935905, 0.12465049, 0.06736193, -0.01366556, 0.13330252, -0.065032065, -0.021741094, 0.040807106, 0.011046786, -0.12992486, 0.12999532, -0.07276821, -0.25479403, 0.04878188, 0.025734162, 0.07714465, 0.08485837, -0.037665173, 0.12940918, -0.100693144, 0.056146976, -0.038077127, 0.020938875, -0.04677341, 0.022956925, 0.106990464, 0.06600915, 0.06893722, -0.13353169, 0.118581414, -0.11301926, -0.040225446, -0.13015555, 0.07946955, 0.0046067927, 0.040038265, 0.17658058, 0.12755047, 0.12769236, -0.12317123, -0.06215629, -0.037845463, 0.060732074, -0.12787008, 0.12707375, 0.08659671, 0.052705336, 0.13591619, 0.09761491, 0.08796522, 0.07252148, 0.059574507, -0.13737196, 0.053028155, 0.025816556, 0.10779219, 0.041570235, -0.24387039, -0.06261716, 0.12258446, -0.030021112, -0.10115144, -0.018418726, -0.0420735, 0.1022545, 0.0048431335, -0.0070045786, -0.053735908, -0.28697133, 0.027209025, 0.03004832, 0.06955486, 0.116333194, 0.06038103, -0.05995064, 0.0066487603, 0.10039145, 0.05603533, -0.121095546, 0.040469736, 0.06844379, -0.031451046, 0.035469424, 0.15859663, 0.13535953, 0.027482381, 0.04496782, -0.0011069354, 0.008838193, 0.045568738, -0.02274472, 0.08458729, 0.12580568, 0.1180389, -0.12292957, 0.08484862},
    {0.09872308, -0.008192499, -0.082436524, -0.025415085, 0.08116134, 0.017258806, 0.076050036, -0.03692656, 0.111418165, 0.048350103, 0.0056675645, 0.045863714, 0.09235936, -0.016956892, -0.101922676, 0.04881413, -0.073065124, -0.087939546, -0.024585225, -0.13400385, 0.09821747, -0.0013095002, -0.07721668, -0.11437588, -0.0142142745, -0.085853375, 0.15921411, 0.035025343, 0.030252466, -0.05515935, -0.02445026, 0.0010069602, 0.1769836, -0.031144857, -0.07948843, -0.01217343, -0.050347593, -0.067530744, 0.10954712, -0.087840855, 0.11587014, -0.06461806, 0.040817194, -0.026035009, -0.043971054, 0.0075380146, 0.13603303, -0.14870149, -0.08816276, -0.12042956, 0.06461754, -0.014432561, 0.06285574, 0.06733613, -0.08610609, -0.12889765, -0.1883537, 0.016857645, -0.08693329, 0.15494631, -0.13896008, 0.10691506, -0.09806264, -0.04124693, -0.1844007, 0.07014893, 0.04734664, 0.07382187, -0.0993065, -0.07400544, 0.09284734, -0.014967582, -0.105144866, -0.041108407, 0.083572365, -0.049339216, -0.00023656641, -0.15789935, -0.09710938, -0.13758723, 0.08828307, -0.053060852, 0.13464962, 0.14077331, -0.009492241, -0.06972582, 0.1198258, 0.10922262, 0.066682234, -0.19024646, -0.06947123, 0.05752355, 0.14033912, 0.07364247, 0.005573427, 0.04480699, -0.010822281, 0.014845889, -0.10929132, -0.022234028, 0.04900106, -0.012493446, 0.028785015, -0.057901654, -0.02541812, -0.027095554, -0.07611025, -0.07952683, 0.046188235, -0.05351808, -0.038245246, 0.10762196, 0.16565092, -0.010978053, -0.07615477, 0.011812461, -0.04201935, 0.12613216, 0.1156186, 0.017095646, 0.022429414, -0.044687435, 0.15650271, 0.07575961, -0.048382476, -0.06671557, 0.092045, 0.045740366},
    {-0.06285477, 0.05765686, -0.043544732, 0.06500399, -0.07953319, 0.026544552, -0.022077661, -0.014745648, -0.09144913, -0.08350766, -0.12027186, -0.048013803, -0.10307371, -0.023516553, 0.0747349, 0.12236243, 0.025394851, 0.14649996, -0.1543226, 0.14529495, -0.0042064125, -0.057485178, 0.050831527, 0.03210209, -0.12260757, -0.03898534, -0.0077552255, 0.054435086, -0.08564524, -0.028324895, 0.05009886, 0.09957008, -0.0006053449, 0.15276486, -0.11062413, -0.1111562, 0.052375365, -0.07863297, 0.017796084, 0.10703656, -0.0013502943, 0.017096417, 0.021582615, 0.045017585, 0.1101579, -0.10233791, 0.17457366, -0.06549705, 0.0034409116, -0.009844692, -0.0913046, 0.13108788, -0.025898555, -0.030192459, 0.0056426357, -0.052092094, -0.05441719, -0.018290767, -0.10905726, -0.013751046, -0.031279244, 0.050736684, -0.028420094, 0.10808978, 0.034909517, 0.09120389, 0.096786715, -0.11041203, -0.020228665, -0.090585075, 0.04424981, 0.09411127, 0.10072697, -0.005196678, -0.0152729545, 0.023244437, 0.061564926, 0.12020099, -0.027939158, -0.081943944, 0.012256654, 0.088962235, -0.082254715, 0.12616651, 0.070790716, -0.1649669, 0.1241457, -0.15761982, 0.0057803355, 0.028919797, 0.011000748, 0.022733547, 0.0108104795, 0.10657585, -0.024624469, 0.117100485, 0.047673073, -0.057661027, 0.06721409, -0.014975169, 0.06502867, 0.09553664, 0.02077716, 0.037059885, 0.10094613, 0.005198985, -0.116359994, 0.062792964, -0.10601405, -0.114441685, 0.105344184, 0.10932932, -0.11803952, 0.058458246, 0.040645957, -0.07480917, 0.11140035, -0.055709865, -0.0044549904, 0.11857835, 0.15744954, -0.06489166, -0.050435, -0.076127164, 0.09040266, -0.012068864, -0.057356097, -0.044896144},
    {-0.068658814, -0.032866437, -0.058648467, 0.082440965, 0.12506129, -0.08186058, 0.11326599, -0.124548875, 0.10931207, -0.10006338, -0.07121163, 0.030380977, 0.025231998, -0.059140384, 0.013109754, 0.009444434, 0.09661434, -0.046948917, 0.09594883, -0.034085196, 0.083033584, -0.030440113, 0.034518823, -0.024325062, 0.089917764, 0.042584535, 0.045128472, -0.11070388, 0.069210134, -0.08739915, -0.031420447, -0.036107134, 0.13521516, -0.004966303, 0.027536806, 0.12479359, -0.040953413, 0.097950496, -0.10361699, 0.057873018, -0.10047992, 0.06857951, 0.0037298873, -0.14048415, 0.12605153, 0.0020588848, 0.07556134, -0.028793192, 0.05502839, 0.00691601, -0.013396278, 0.03744272, -0.04403455, -0.02439845, -0.06321542, 0.05636298, 0.04760284, -0.10528698, 0.14996964, 0.00815044, -0.026620762, -0.1103489, -0.09169744, 0.1094298, 0.06824493, 0.071664035, 0.0075152153, 0.07088054, -0.017634828, 0.0135152545, -0.10423081, 0.13782759, -0.026353864, 0.059320774, 0.05538463, -0.07155728, 0.049127616, -0.113993466, 0.040927846, 0.14360414, 0.0986287, 0.05129299, 0.1025348, 0.09233044, -0.075536355, 0.0071469396, -0.0006756651, 0.044543926, 0.12074488, 0.068460844, -0.10600939, -0.015616664, -0.046210844, 0.07757003, -0.11564877, -0.11491321, 0.05754666, -0.03886397, 0.11070814, -0.08334062, 0.07169594, -0.051226515, -0.022840803, 0.064353034, 0.09912377, 0.08119356, 0.035452455, 0.031281266, 0.030507877, 0.18107834, 0.050696917, 0.033896428, 0.13808776, 0.008678374, 0.09760273, 0.069231056, 0.11728863, -0.082809046, -0.10632685, -0.05837682, -0.02291453, -0.069744244, -0.110099964, -0.06396252, 0.13372293, -0.070414044, -0.12036558, 0.13843657},
    {-0.10284828, 0.03944689, 0.057965185, -0.07183752, 0.046210386, 0.06580278, -0.06647007, -0.1067898, -0.07362762, -0.05931787, 0.095776334, -0.08959738, -0.12808533, 0.005021369, 0.018251173, 0.035563968, 0.058664497, 0.026184814, -0.16177197, -0.03712899, -0.11412741, 0.11328925, 0.017957693, 0.13278715, -0.07994762, 0.054410584, -0.18881853, -0.018002465, -0.105745815, 0.10247903, -0.022174392, -0.025298823, 0.1181167, -0.048465505, -0.045629136, 0.09809763, -0.066886395, -0.046776332, 0.15307572, 0.047248453, -0.06552538, 0.06548512, -0.08012861, -0.08182688, -0.04947857, -0.043206647, 0.038045093, -0.17092802, -0.083578244, -0.03006999, -0.048125915, 0.047279947, 0.053538103, -0.16661896, 0.072417006, -0.016667202, -0.010959926, -0.17761645, 0.05297379, 0.06149815, -0.031059097, -0.07872874, 0.03453975, -0.070053004, 0.0073721395, -0.024862025, 0.0028761327, 0.046469036, 0.08826894, -0.12265359, -0.058646232, 0.15212825, 0.12995759, 0.07514374, -0.14243962, -0.004637893, 0.06862669, 0.088857755, 0.015010452, 0.16965793, -0.08980605, 0.10216756, 0.008184547, 0.13875437, 0.05070483, -0.10234541, -0.070249364, -0.027622275, -0.020564632, 0.12807895, 0.080823794, 0.028161269, -0.03615645, -0.09843776, 0.08424376, -0.11990786, -0.1403869, -0.043573, -0.055917922, 0.06343669, 0.040981106, 0.051627874, -0.11014692, -0.025295714, -0.036917567, -0.055855826, -0.035758484, -0.04202594, -0.007424156, 0.099349864, 0.05402695, -0.07635073, -0.108671084, -0.11675593, 0.0385471, 0.038756773, -0.012339809, 0.026218047, 0.019405108, -0.019228218, 0.036992766, 0.020169817, -0.032239318, 0.03739591, 0.09633962, -0.05100639, -0.033300996, 0.017689561},
    {-0.026035083, 0.048150092, -0.077872775, -0.06895342, 0.0001178405, 0.0017122425, 0.0708392, 0.054800384, -0.13196036, 0.032971278, -0.0077291997, 0.11133378, 0.06248064, -0.09948425, -0.36147687, -0.04434575, 0.20621397, 0.015067279, -0.025489181, -0.11783031, -0.007841612, -0.062798664, -0.017570745, -0.10361403, -0.20824043, -0.023361798, 0.16831541, -0.019290749, 0.14937982, -0.19753867, 0.016960371, -0.08328818, 0.11266699, -0.075190045, 0.010034344, 0.14360152, -0.34475368, -0.06423989, 0.15049866, 0.008271399, 0.016674438, -0.05305621, 0.03502099, -0.15088938, -0.054570038, 0.14183041, -0.018580051, -0.116851315, 0.09559968, 0.08963218, -0.09067735, -0.1538214, -0.041723125, 0.06553535, 0.0125391865, -0.08034409, -0.32133344, 0.11438162, 0.08011541, 0.14824592, -0.012474178, -0.112607874, -0.25311002, -0.015668737, -0.019876314, 0.038802236, 0.01623444, 0.16651249, -0.08804909, 0.075601265, -0.12254386, -0.07586476, -0.2662658, -0.036269117, 0.1547577, -0.09534923, 0.0691952, -0.08961205, 0.015482771, -0.0733469, 9.106487e-05, 0.0858401, -0.035261903, -0.063842885, -0.1197702, -0.041700233, 0.071222596, -0.032042544, -0.017927367, 0.029302958, -0.10638407, 0.124855295, -0.08375894, -0.19877385, 0.13304047, 0.03993768, 0.12482895, -0.039388865, -0.16109657, -0.13865605, -0.06890901, -0.07367215, 0.111806616, 0.12929015, 0.043059282, -0.06721952, 0.03303923, -0.08131752, -0.01677899, -0.032418057, -0.02315861, 0.0059329583, 0.075264975, -0.016145837, -0.07411742, 0.0687466, 0.01635193, -0.02224611, 0.03627673, 0.022635898, 0.06413592, -0.16386591, 0.15177758, 0.006628224, 0.05113255, 0.05468277, -0.118085854, -0.056610115},
    {-0.12249108, -0.110498756, -0.10198018, -0.054296795, 0.007418308, 0.08061078, 0.10662788, 0.09816905, 0.09400064, 0.01282797, 0.08573831, -0.05174709, -0.10692964, 0.08092077, -0.16736259, 0.08418468, 0.0021102554, 0.049033172, 0.12352838, 0.002088958, -0.034470115, 0.05473546, 0.0044229846, 0.09891882, -0.031419788, -0.1536042, -0.08054066, -0.09419696, -0.011471424, 0.024164455, 0.0037688466, 0.0861125, 0.16268802, -0.100578435, 0.041871555, 0.08457879, -0.016061516, 0.019596497, -0.08977927, -0.024732329, 0.08315257, 0.12674147, -0.018225338, 0.038307596, -0.08272257, -0.08472111, 0.024890227, -0.029747704, -0.0776331, -0.076837435, 0.06583921, 0.08982828, 0.060630906, 0.07313075, -0.06973263, 0.066246636, -0.03495674, -0.12784535, 0.082827844, 0.16114137, 0.0067545013, -0.022536654, -0.006194303, 0.0127365235, 0.04312145, 0.030757785, -0.10962513, -0.086761855, -0.0194343, 0.095699, 0.061547052, 0.066218846, -0.028993294, -0.025817554, 0.0042830976, -0.06159025, 0.112375006, -0.048588444, 0.0881055, 0.11244916, -0.08234775, -0.09501057, 0.048856117, 0.015367917, -0.019319529, 0.12446632, -0.026939588, 0.0037518004, 0.006648598, -0.05451287, 0.07958432, -0.07765843, -0.1404964, 0.06470916, -0.00228965, -0.10223641, 0.045401156, -0.1207587, -0.060512368, 0.026092732, 0.04594079, 0.046756856, 0.018950215, 0.025098968, 0.033057574, 0.039681725, -0.13442282, 0.11995083, -0.11988109, -0.0045103584, -0.046420667, 0.027009655, 0.08254601, -0.07838014, 0.024105296, 0.026008924, 0.113567166, 0.12004169, 0.14995496, 0.021129113, -0.0919792, 0.048381016, 0.07562708, 0.100757904, -0.058020853, 0.14099622, 0.045318756, -0.021697674},
    {0.09042746, -0.005792762, 0.007431109, -0.09351176, -0.031738788, -0.06146441, -0.067939155, 0.023923181, 0.07051135, 0.034465734, 0.10288971, 0.012153865, -0.092852786, 0.13050216, 0.14197987, 0.080432855, 0.014453024, 0.07603546, 0.123130605, -0.05358833, -0.021669354, -0.085941605, -0.09684944, -0.14338642, -0.057653185, -0.008081399, -0.09920689, -0.07706668, -0.07649923, 0.020765213, 0.06354142, -0.12589858, 0.011276727, 0.08347177, -0.05135777, 0.13769872, 0.11558702, 0.12968533, -0.01888328, 0.038182087, -0.057494704, -0.05993981, 0.037227847, 0.20511043, 0.0026515482, 0.07536442, -0.094186895, 0.15039381, -0.13491571, 0.036681708, 0.010618921, -0.13531807, 0.050901413, -0.10138645, 0.037870876, 0.09587136, -0.0042026946, 0.085734, 0.029706657, 0.14847878, -0.14840166, -0.09738682, -0.07818789, 0.0847025, -0.010518034, -0.026555618, 0.08373804, 0.066789955, -0.04502742, 0.18392257, 0.15612796, -0.08260011, 0.0871673, 0.12822528, -0.032283105, -0.07877395, -0.008036829, -0.13390484, -0.09809583, 0.055058006, 0.15436724, -0.015838826, -0.015794832, 0.020832015, -0.024878636, 0.014652868, 0.022069054, 0.12703277, -0.04679766, 0.0053690495, 0.095640615, 0.016156392, -0.017459061, 0.12684868, 0.09061594, 0.07970949, -0.06699119, 0.028441945, 0.017414747, 0.04314164, 0.014336704, 0.01684525, -0.028597135, 0.09608805, -0.046724353, 0.09639942, -0.008230338, 0.10996206, -0.018720498, 0.022536611, 0.042495746, 0.1303822, -0.026129562, 0.06757981, -0.028692096, -0.011866684, 0.0033808753, -0.09257271, 0.0355823, 0.16511449, 0.06953098, 0.06514724, -0.05656989, -0.04447187, 0.06737907, 0.05971019, 0.06665346, 0.07141279},
    {0.029020136, 0.0556338, -0.032676496, -0.1904781, -0.078860775, 0.08383115, -0.1814883, -0.04496815, -0.19410798, 0.14198083, 0.07004534, 0.05226189, -0.05003471, 0.07478722, 0.056348655, -0.232308, -0.07601362, 0.08392836, -0.1097352, -0.052042186, -0.12745446, 0.11775317, -0.09708655, 0.08381589, 0.029074473, 0.05083951, -0.051379092, -0.047102466, 0.035654012, 0.07307271, 0.1630359, 0.0666371, 0.09685595, 0.08045476, -0.071905725, 0.01691096, -0.11163107, -0.0050510094, 0.13677225, 0.09294898, -0.0406407, 0.0046750796, 0.106149115, 0.117515594, -0.024873523, 0.023671338, 0.034173883, -0.06777144, -0.08888744, -0.020432211, -0.016346104, -0.053185083, -0.087314874, 0.007758992, -0.12235185, -0.04972748, -0.021889484, 0.076680556, 0.03925138, 0.0018055164, -0.009238893, -0.071132086, 0.04803405, -0.12114146, 0.10608413, 0.016491327, 0.06672135, 0.054671783, -0.044949584, 0.06307497, -0.053220488, -0.023271699, 0.0713736, 0.014727913, -0.03292837, -0.008061965, -0.04929216, -0.028150862, 0.15426043, 0.02565617, 0.05793864, -0.107831426, 0.04749117, 0.12556282, 0.096753806, 0.04393823, -0.10548256, 0.017321527, -0.15501618, -0.06965143, -0.040055763, 0.08730829, 0.018215714, -0.039928254, 0.014164521, 0.08588749, 0.08407819, 0.061228376, 0.13412218, -0.07166098, -0.12560374, -0.065426044, 0.027965968, 0.13222864, 0.005049326, 0.006828297, 0.05476114, -0.08125152, -0.006870126, -0.11872423, 0.08240476, -0.086407945, -0.012479257, -0.008678403, 0.010186136, -0.031207416, -0.19317186, 0.014073591, -0.1060918, -0.015029633, 0.040889986, 0.10291981, 0.06145553, -0.036917847, 0.0121084405, 0.15063179, -0.06605105, 0.0018332837},
    {-0.073192105, -0.07038302, -0.013483018, -0.005070561, -0.06414435, -0.036026902, -0.027547967, -0.14672478, -0.026774054, 0.04770622, -0.10413916, -0.080267206, -0.059017085, 0.1042591, 0.026932871, -0.08737489, -0.12458778, -0.03774911, -0.085882664, 0.1098168, -0.06740635, 0.104325615, 0.15140595, 0.025810013, 0.10619683, 0.10084394, 0.07923908, -0.15137096, -0.111083195, -0.013510311, -0.088244945, -0.021636697, -0.030558567, 0.038638882, -0.097286604, 0.03852054, -0.07267759, -0.049936015, 0.12265413, -0.015562478, -0.027708571, -0.06727065, -0.05419344, -0.007414165, 0.06303324, -0.10003082, 0.09160178, -0.02324551, -0.050900467, -0.0603429, -0.088671125, 0.13248487, 0.04448981, 0.07106429, 0.035213828, 0.10038348, 0.100224495, 0.082534775, 0.0549903, -0.008204843, 0.086592294, 0.09441126, 0.08273845, 0.008127561, -0.021799989, -0.062037196, 0.02431685, -0.06534946, -0.054190993, 0.12532203, -0.038955636, 0.08495187, -0.013143639, -0.15049884, -0.009747752, -0.07845865, 0.11588576, -0.0501943, -0.005388326, -0.007311925, 0.03928455, 0.12525825, 0.11801545, 0.044116277, 0.06268809, -0.046994798, 0.013819575, 0.03198905, 0.12822509, 0.13126373, -0.0123620005, 0.063906744, -0.0017285114, 0.062468827, 0.07920179, -0.05353077, -0.059758317, 0.041113388, -0.07970779, 0.008770293, 0.07578101, 0.08313365, -0.05562999, -0.0266414, 0.085794576, -0.06835738, -0.0817154, 0.14029533, 0.05213254, -0.04867639, 0.023165429, -0.054364305, -0.014265953, 0.023909103, -0.0782521, -0.13512686, -0.08135325, -0.060316794, -0.027303249, 0.0059081675, 0.064160734, 0.01994423, -0.1508476, 0.030914411, 0.07044761, -0.016744858, 0.06285857, 0.071560726},
    {-0.021506824, -0.10213631, 0.14175408, -0.095246404, 0.056730866, 0.06582551, -0.04288714, -0.07028388, -0.12219602, 0.07970297, 0.05671812, -0.0028445085, 0.051401716, -0.10433448, -0.058875777, -0.044107337, 0.059806444, -0.030594429, 0.011943181, -0.057359073, 0.019289149, 0.051096052, -0.03658066, 0.075404465, 0.016948113, 0.12092481, 0.16258194, 0.090217054, 0.019511145, 0.011214099, -0.028810933, 0.14054121, -0.022071157, 0.04449566, -0.05963179, 0.021534039, -0.022496196, -0.03969892, 0.106617525, 0.013163548, 0.0028046987, 0.088316664, 0.019808182, 0.06430413, -0.06101214, 0.05229299, 0.07860377, 0.10245984, 0.07403811, 0.095293686, -0.0876993, -0.03613685, 0.05926275, -0.0035956078, -0.13624929, 0.015691442, 0.032796543, -0.048599035, -0.049356494, 0.082152046, -0.036282007, 0.006529885, -0.04924427, 0.07667666, -0.1145225, 0.07222195, 0.12765974, -0.01073674, -0.0140081635, 0.110562086, 0.041047852, 0.07124399, 0.015302339, -0.10477446, -0.025730392, 0.03420418, 0.05130069, 0.015534357, -0.053088855, 0.13703404, 0.06555395, -0.011521795, -0.06419379, 0.008824251, 0.01551144, 0.024597287, 0.08603741, -0.06160999, -0.018772021, 0.008795929, 0.0820678, 0.026907492, -0.0630064, 0.03281976, 0.13676447, -0.03134901, -0.025371308, 0.025534263, 0.0030970704, 0.051765244, -0.064516224, -0.0060002, 0.1313917, 0.084385306, 0.086378306, -0.060317617, -0.04628694, 0.12397883, -0.05747085, -0.09741775, -0.09534766, -0.10833926, -0.024186503, -0.066540614, -0.117090605, 0.03999256, 0.05434431, -0.02002597, 0.031281512, -0.018373841, -0.10313472, -0.050525453, 0.033803478, 0.09091075, 0.08758506, 0.11244778, 0.11443468, 0.050979745},
    {-0.0010805726, 0.016718635, -0.07995874, 0.13403249, 0.06615573, -0.14347023, 0.15964569, -0.073238805, -0.026986776, 0.02720183, 0.0003826028, 0.0991629, -0.13529107, 0.110732384, 0.032120433, 0.029186534, -0.11197643, -0.11564817, -0.12363629, 0.1580407, -0.033902448, 0.11864596, 0.12500611, -0.0500263, 0.07068765, 0.07160737, -0.047990944, 0.0075421943, -0.047133666, -0.069068186, -0.1186621, 0.0031190747, -0.070864424, 0.016739221, -0.03942753, -0.014875424, 0.09828904, 0.019800488, -0.1286726, 0.015392024, 0.001381244, 0.13551164, -0.011472738, 0.03621314, 0.17096798, -0.07264495, 0.019270178, 0.0419482, -0.036847837, -0.0113916425, -0.011243544, 0.040716656, 0.07985388, -0.007660756, -0.08604477, 0.014238445, 0.12738515, -0.08415597, -0.024219079, 0.0904968, 0.011065592, -0.010579075, 0.06734557, -0.077490404, -0.029176515, -0.03321487, -0.09428487, 0.062035747, -0.12947346, 0.08317533, 0.0015325062, 0.105240114, 0.07741944, -0.10013256, 0.015810505, 0.030516269, 0.019576272, -0.01557601, 0.009759425, 0.02407582, 0.09284751, 0.064745165, 0.1201038, 0.048815727, 0.16858806, 0.13500114, 0.0035352686, -0.100669205, -0.019803744, 0.01381592, -0.001309181, -0.120698616, 0.0752227, 0.108169496, 0.09891166, -0.11898154, -0.05378435, 0.031406127, 0.117289625, 0.035021085, 0.14763084, -0.036788445, -0.18272041, -0.076592624, -0.13641192, -0.121951275, -0.04309123, 0.1294217, -0.0792644, -0.06907108, -0.034828685, 0.022088405, -0.073518656, -0.14136182, -0.024614107, -0.0180346, -0.10895912, 0.13975196, -0.003519713, 0.10993833, -0.047863465, 0.106801145, -0.035749324, -0.006539491, -0.034972128, -0.052148882, -0.11279274, -0.10220935},
    {-0.03493987, 0.022574918, -0.058684148, -0.09640659, -0.11011612, 0.009026583, -0.093205094, -0.09806007, 0.02758104, -0.0664166, 0.02156796, 0.07341051, 0.030743783, -0.028429512, 0.042250555, -0.032424897, -0.0250541, -0.0061122985, 0.049342815, -0.00014364539, -0.108541854, 0.104207225, -0.07628428, 0.10446683, -0.13191482, 0.034947187, 0.08765103, -0.06000131, -0.0020227272, 0.048178528, 0.09505752, 0.052923843, -0.0020307484, -0.083073914, -0.012614467, -0.0282676, -0.021340037, 0.0035437976, 0.14241804, 0.094065204, 0.14448601, -0.04539683, -0.14234646, -0.11288645, -0.09269564, 0.037816744, 0.06685037, -0.088200524, -0.04642393, 0.004678814, -0.15533291, 0.18116167, 0.17788701, 0.09788882, 0.04079601, 0.0879681, -0.035934392, -0.10320565, 0.029271713, -0.122114204, 0.067909054, -0.068731636, 0.10117415, 0.04377398, 0.108353965, 0.0879149, -0.07184248, 0.019372892, -0.0041258475, -0.0028152543, -0.006020829, 0.09793753, 0.036173534, -0.07405095, 0.05647776, 0.03378637, 0.016943883, 0.03267971, 0.11145915, 0.10018582, 0.011125628, 0.06490109, -0.008959107, 0.0011958106, 0.022628812, -0.05077924, -0.01676277, 0.053837836, -0.07754807, 0.100780606, -0.07820375, 0.06053434, 0.054577697, 0.054535866, -0.0631929, 0.0645113, -0.054427024, 0.070253305, -0.059662193, 0.041083027, 0.015099681, -0.097977616, 0.10997485, -0.097489186, 0.029944092, -0.05524907, 0.10356446, 0.046407264, -0.14227974, -0.14312474, 0.1540596, -0.11637824, -0.12541369, -0.07448488, 0.027378771, 0.07902046, -0.14597273, 0.1218916, -0.046676822, -0.016768131, 0.07251386, 0.07250844, 0.080804385, 0.057222236, -0.03482698, -0.04634541, 0.088383295, 0.1305823},
    {-0.09031855, 0.02211524, -0.008078032, -0.028962662, -0.0061875526, -0.000719464, -0.060065698, 0.09150276, 0.04937284, 0.043310426, -0.067529194, -0.05161088, -0.05537574, 0.02884346, -0.014231479, 0.02825366, 0.15046217, -0.0027870347, 0.012308252, -0.050022807, 0.037656795, 0.12689741, 0.028698927, -0.052546564, -0.025036063, -0.049855687, 0.15800694, -0.008390918, 0.058880825, -0.031857084, -0.037588492, -0.027277637, 0.12181069, 0.06557334, -0.071492895, 0.15719797, -0.09124928, -0.04551971, 0.06603071, 0.0028097832, 0.057535786, 0.017104845, -0.055135395, -0.05400704, 0.065984435, -0.035214063, 0.057060424, -0.03981271, 0.14891328, 0.12359486, -0.07371763, 0.11277938, -0.011630097, -0.10035593, -0.10584732, -0.10592887, -0.06847462, 0.032814067, -0.13192683, 0.07963353, 0.050410636, 0.032123826, -0.06526082, -0.03037242, -0.1062717, -0.030425413, -0.09785009, 0.12064722, -0.082416974, -0.048918974, 0.07953952, -0.09062588, -0.08646107, -0.06393473, -0.10346198, -0.044628493, 0.07725384, -0.08649673, 0.111882724, 0.10322885, -0.007810012, -0.069931515, -0.07785835, -0.072340645, 0.15001073, 4.1465348e-05, 0.13902885, -0.0058597056, -0.08702535, 0.0452968, 0.10230974, 0.022702448, -0.05596065, -0.069294415, 0.0108323125, 0.0037918368, -0.04854485, -0.03735093, -0.05630501, -0.13531393, 0.037010558, 0.008318365, 0.11041051, 0.055630557, -0.008730709, 0.0631569, 0.08939606, 0.02231543, -0.05880447, -0.036377598, 0.020011446, 0.07901089, -0.014430127, 0.09002487, -0.09712958, -0.013421759, 0.0041279043, -0.018555596, -0.024314586, -0.0070901047, -0.071884215, -0.106908485, 0.11798567, -0.09055915, 0.05957772, 0.1257768, 0.053540774, 0.14864354},
    {0.025243156, 0.11553297, -0.058466908, -0.07238106, 0.066652976, -0.040435392, 0.1121706, 0.09301149, 0.1248655, -0.055974297, 0.037678927, 0.014746387, 0.093926944, -0.16635016, -0.145467, -0.10088866, -0.02072057, -0.03682592, 0.052115284, 0.10347176, 0.009326522, 0.07045234, -0.08391578, -0.017920164, -0.087971956, -0.09349697, -0.01956334, 0.0319986, 0.12556084, -0.028997244, 0.06032989, -0.015558435, -0.022971552, 0.00278565, 0.117795706, 0.00043361, 0.026249537, 0.091731444, 0.11404639, -0.026995856, 0.08622124, 0.07832606, 0.018956529, 0.083800115, -0.057392135, -0.0632114, 0.08344522, -0.04339867, 0.11879096, -0.00052479934, 0.15688857, 0.06867478, 0.11790976, 0.09287096, 0.074748896, 0.123402394, -0.18303782, 0.08448457, 0.14060378, 0.11325738, -0.01679709, -0.028531456, 0.03140475, -0.11208806, 0.0346443, -0.13605584, -0.013476184, -0.09125892, 0.07518932, 0.09605852, -0.16544887, -0.013094489, -0.053657394, -0.027407473, 0.075367995, 0.02596574, -0.029814955, 0.06978003, 0.077594504, 0.11880408, 0.035064675, 0.03138301, -0.039313685, 0.013839169, 0.045118727, 0.08870274, 0.07233089, 0.12082822, 0.108834654, -0.029306233, 0.1288872, 0.11001416, 0.005822829, -0.14011098, 0.046532456, -0.016104398, -0.09940715, 0.06473673, 0.049393, -0.07609276, 0.03897867, -0.1170867, 0.120099, 0.056501597, -0.07975459, -0.015267289, 0.04288353, 0.08135321, -0.08005685, -0.036709476, 0.07231451, 0.055426974, 0.033404607, 0.16087258, -0.07935227, -0.07357386, 0.14746246, 0.0513095, 0.09858853, 0.08540691, 0.02916847, -0.081154406, -0.104138315, 0.014952165, 0.021979457, 0.06894295, -0.070122816, 0.033150617},
    {-0.11959489, -0.04479396, -0.12034517, -0.12707928, -0.0482428, -0.1285544, 0.060483653, 0.040631678, -0.007305104, 0.09689328, -0.020398105, -0.090008505, 0.046145145, -0.0321676, -0.13480873, -0.05466722, 0.07601288, 0.06515612, 0.14030991, 0.092756584, -0.055879943, 0.034353193, -0.09677412, -0.06659716, 0.06341991, -0.010482164, 0.113603026, 0.11585218, 0.07322016, -0.11288989, -0.024314053, 0.040658273, -0.037161794, -0.06569419, 0.07387853, 0.029958984, 0.06548603, -0.075426646, 0.03895607, 0.020439865, 0.08939315, -0.06499666, 0.05910456, -0.08154692, 0.086486824, -0.022847725, -0.028599938, 0.00942639, -0.05773488, -0.1380369, 0.081601545, -0.004450649, 0.06243625, 0.049931906, -0.053683132, 0.018566625, -0.015508667, 0.13235952, 0.092526466, -0.026620215, -0.10382029, 0.10489257, -0.04771158, 0.015171124, 0.04370869, 0.07600577, 0.08306262, 0.16675988, 0.09498231, -0.017296067, 0.0062895035, -0.07133999, -0.11215292, 0.07674373, 0.13616043, -0.082199365, -0.021413442, 0.033010174, 0.07674569, -0.09489185, -0.056288738, 0.0041020596, -0.014567668, -0.09814804, -0.045536213, 0.047218118, 0.019561933, -0.06952223, 0.034831498, 0.057558995, -0.08870666, -0.04944514, 0.056038763, -0.021247217, -0.0032391832, 0.12081099, -0.099222645, -0.017407462, -0.035970725, -0.14856891, -0.14321017, 0.085709944, 0.016062712, -0.018015936, -0.07036969, 0.07306138, -0.00047695637, 0.13764821, -0.005944951, -0.0009219293, 0.11438563, -0.037295636, 0.17097124, -0.069066726, -0.060049005, 0.09459273, 0.17228465, -0.07690817, 0.06622062, 0.05399757, 0.052173555, 0.033942737, 0.12598434, 0.02060716, 0.04130749, -0.07330193, 0.014730634, -0.0006758421},
    {0.014043589, -0.036604624, -0.051761024, 0.09873181, -0.07702135, -0.028103862, -0.06401217, 0.14773017, 0.011386701, -0.005344616, -0.03988973, 0.08493093, 0.14196831, -0.10737716, -0.2575468, 0.08977864, 0.11154298, 0.05786611, 0.09664675, 0.01749685, 0.10732787, -0.16509664, -0.04920031, -0.15411511, -0.08504255, -0.0690639, 0.0734777, 0.02828078, -0.00065108907, -0.18155663, 0.046752065, -0.023777835, 0.13171348, 0.1541152, 0.013070241, -0.01873492, -0.03326509, 0.020873675, -0.021933943, 0.013458377, 0.06525414, 0.042002283, 0.09400553, 0.040525533, -0.25897676, 0.081276104, 0.060724568, -0.09145965, 0.069928825, -0.08125281, 0.0025650943, 0.035173338, -0.061337795, 0.008225441, 0.03209589, -0.1307057, -0.18361624, 0.18450654, -0.10385183, -0.0040691197, -0.1588227, 0.018600617, -0.08767999, -0.014289204, -0.2264495, -0.054048847, 0.13832417, 0.04000998, -0.051134083, -0.08221827, 0.06943833, 0.06388043, -0.20436043, -0.053628255, 0.19329634, -0.2486428, 0.008025702, 0.004677551, -0.21878266, -0.19090009, -0.07662929, -0.18493971, -0.022842273, 0.019086782, -0.11774219, 0.092629746, 0.16134033, 0.029038494, 0.1548856, -0.0076087094, 0.09695541, 0.12214331, 0.100788884, 0.014076605, 0.1489331, 0.17295875, 0.086430505, 0.1652202, -0.19403213, -0.2446979, -0.030932495, 0.19094801, 0.050118007, -0.045244087, -0.00968305, -0.093875326, 0.045886755, -0.14253181, -0.03930413, -0.006612795, -0.071931824, 0.025522918, 0.122066304, -0.05272049, -0.07832802, 0.14738289, -0.0005706934, 0.12245248, 0.05515544, 0.07372224, -0.096525304, 0.05598479, 0.011349003, -0.09794432, -0.06454584, -0.053752538, 0.039845757, -0.051516954},
    {0.09622132, 0.021832544, 0.058339193, -0.18843575, 0.007780359, 0.041069806, -0.19350661, 0.04267816, 0.059490737, -0.0040314007, 0.03838787, 0.061528377, -0.09637504, 0.07097641, 0.16555768, -0.072623536, -0.064505585, -0.039679553, 0.06665413, -0.14122091, 0.10118817, 0.1367859, -0.14610562, 0.036802415, 0.01601804, 0.13448016, -0.06998072, -0.016775627, -0.088670656, 0.03575914, 0.042541582, -0.081372134, -0.06143491, 0.06908392, 0.093253545, -0.06964273, -0.102002956, -0.08672727, -0.035035197, -0.03293068, -0.08253442, -0.06697725, 0.053774234, -0.08885474, 0.053027045, 0.020343225, 0.14349933, -0.121619016, 0.015008368, 0.0006713499, -0.09217336, -0.063098125, 0.1148162, -0.09740667, -0.08405699, 0.08889307, 0.044279613, -0.02882769, -0.0013057684, -0.047914572, -0.035574194, -0.014677144, 0.12688127, 0.0068659717, 0.072199196, 0.0023583858, -0.032988675, 0.08182244, 0.17504904, -0.13564612, -0.12340147, -0.008365395, -0.054854825, -0.1136738, 0.03933663, 0.019715086, -0.099581555, 0.17487699, 0.08196859, -0.08237595, -0.10988047, 0.053293265, 0.026158351, 0.17227131, 0.049668353, 0.03210388, 0.12633505, 0.06439009, 0.06654704, 0.13982412, 0.037620105, -0.12633367, -0.05854031, 0.105577335, -0.051627576, -0.031543307, -0.08674897, 0.045430224, 0.010803878, 0.053383984, -0.10783908, 0.045200184, 0.09145727, 0.0024535162, 0.067880996, 0.036501862, -0.04583103, 0.1398868, -0.1259257, -0.09044371, 0.11246674, -0.13194583, -0.019492803, 0.10617368, -0.06834964, -0.06944821, -0.13292868, 0.1528756, 0.0077525093, -0.14397089, -0.02602718, 0.026154412, 0.012326111, 0.08450542, 0.10403359, -0.0018113665, 0.09893696, 0.07679598},
    {0.038184315, 0.021208163, 0.10333741, -0.21180987, 0.10941187, 0.05889507, -0.044314366, -0.042087983, -0.17180376, -0.049970843, -0.07880959, 0.07937483, -0.07043257, 0.04083243, 0.06634414, -0.25301442, 0.19286643, -0.054582275, 0.06979005, -0.007601511, 0.027929153, -0.099840336, -0.2646977, 0.07612559, 0.0011005574, -0.11066216, 0.04892357, 0.0021780368, 0.098806754, -0.12603034, 0.18350859, -0.106962174, -0.0029372433, -0.040393542, -0.017805096, 0.14307427, -0.07446242, -0.124597654, 0.039576925, 0.08179526, 0.031642623, -0.12752128, 0.049431138, -0.075608686, -0.17669679, 0.029987035, 0.1284236, -0.07215017, 0.05262553, 0.123769596, 0.06275542, -0.0732439, 0.087684825, 0.048909497, 0.063449346, 0.10952451, -0.05578998, 0.1333782, 0.05652671, -0.049985126, -0.089424044, -0.07367739, -0.10866394, -0.018889576, -0.12015843, -0.040652793, 0.11359602, 0.09399885, 0.08733192, 0.018963186, -0.028908318, -0.018531457, -0.009052254, -0.048216615, -0.07236874, 0.10011591, -0.0588618, 0.13022625, -0.03694966, -0.07447393, 0.108509615, -0.14409351, -0.09435054, -0.0864902, 0.023119621, -0.01749004, 0.040326215, 0.1276682, -0.008117266, -0.16157538, 0.0034840093, 0.13175634, 0.10126129, 0.032502253, 0.011772388, 0.04617025, 0.054593395, -0.043729436, 0.04170352, -0.08731264, -0.09699468, 0.00979631, -0.0068051536, -0.058337204, 0.032448743, -0.06765644, 0.011518585, 0.086130254, 0.07112969, 0.04049063, 0.093901984, 0.06842291, 0.17907743, -0.029962089, 0.0929326, 0.13467832, 0.025393859, -0.013167775, 0.13005535, 0.028787212, -0.035517614, -0.034396913, 0.041828133, 0.06419891, 0.008842569, 0.072702534, 0.0071781473, -0.03382948},
    {-0.031104637, 0.016157145, 0.09396598, 0.06592811, 0.072368056, 0.07377248, -0.1076563, -0.043795425, 0.056624986, 0.15836658, 0.052915916, -0.0070345183, 0.16321225, -0.12833312, -0.030112883, 0.015299903, 0.01134758, -0.12774394, -0.0056524556, -0.018278152, -0.14387928, -0.09764717, -0.0056352275, -0.12897329, -0.17357768, -0.075041704, 0.035343762, 0.051933184, -0.089155376, -0.028945988, 0.15330485, 0.024947273, -0.008254513, 0.15512925, 0.078332044, 0.153037, -0.04259838, -0.11711059, -0.114910886, -0.08926275, 0.15528055, 0.108160876, -0.0009347361, -0.03734244, -0.048269328, -0.070681795, 0.09761566, 0.039943688, -0.1201698, -0.10439484, 0.0063558295, -0.16375075, 0.041881286, 0.057954535, -0.07467868, 0.010805293, -0.04744747, 0.14480895, 0.08600332, 0.002016776, -0.04324512, -0.04127955, 0.114815176, 0.1617218, -0.024253579, 0.08198358, 0.016442984, 0.05630456, 0.07940479, -0.05500804, 0.110026434, 0.11844611, 0.060025696, 0.15046346, 0.101612665, -0.07492856, 0.08521374, -0.019267863, -0.07396258, -0.03943233, -0.03836729, -0.037357576, -0.07617694, 0.009369568, -0.0052817347, 0.07017092, 0.13075149, -0.0045942403, 0.01256969, -0.20022927, 0.011640468, 0.13364933, 0.038538475, -0.043510277, 0.0811387, 0.012649592, 0.019645356, 0.08668948, 0.0646643, -0.13603523, -0.0787071, -0.016354248, 0.09520771, -0.011161328, 0.07991936, -0.009191644, -0.10862894, 0.053280097, 0.06096004, -0.068333834, 0.037489172, 0.07296705, 0.06890536, 0.03380525, -0.04839899, 0.08262803, 0.10931515, 0.11829979, 0.05283387, 0.10985374, 0.09591556, -0.102418266, 0.16116032, -0.09617499, -0.06181022, -0.0015229634, 0.03505606, -0.09661059},
    {0.059817232, 0.113147825, -0.03631025, 0.13241123, 0.030802492, -0.023018308, 0.00052005623, 0.03575712, -0.074746706, -0.029319014, 0.08780208, 0.011497443, -0.027096348, -0.062047943, 0.10092697, 0.081424125, -0.0056513227, 0.0346564, -0.0865608, 0.038234364, -0.017752716, 0.1651595, -0.012159775, 0.0027107177, 0.025818476, 0.048294015, 0.040120166, 0.014973836, 0.057318505, -0.009949103, 0.011191672, 0.007299027, 0.0048755216, 0.019395653, -0.0014490936, 0.06825412, -0.00037281637, 0.056960866, 0.06280672, 0.045664907, -0.06452808, -0.08795801, 0.07353828, -0.036043797, 0.052775532, 0.09139418, 0.041676115, 0.046984542, -0.06458255, 0.08748211, -0.008511495, -0.009928051, -0.001855588, -0.09751135, 0.117906235, -0.08683293, 0.0921157, -0.09768097, -0.0052999184, -0.05330491, 0.15733007, -0.06826152, -0.09629523, -0.04265981, 0.0666009, -0.13422562, 0.042986773, 0.037154395, -0.05281065, 0.078740455, -0.008426945, -0.0027412362, 0.118164875, -0.0016292057, 0.023055587, 0.07050179, -0.051322423, 0.04416999, 0.11279323, 0.09416938, -0.13791485, -0.0479425, -0.03411348, 0.08335596, 0.15906708, -0.013686989, 0.005323816, 0.12033286, -0.059203256, -0.08565989, 0.14528988, -0.048851833, -0.051593583, -0.07657869, 0.16746667, 0.03950846, 0.053973578, 0.11189068, 0.118445635, -0.08544216, 0.01641076, 0.10147695, 0.08231754, 0.0530426, -0.03659743, 0.0117094945, 0.013836626, 0.15398788, -0.084102035, 0.02514983, 0.012172362, -0.027688485, -0.05132864, -0.06034966, -0.11008938, 0.035862695, -0.08610473, -0.004127959, -0.058508247, -0.05510428, -0.06532514, -0.13526337, -0.0116411075, 0.010290693, -0.07513332, 0.15504816, 0.057426054, 0.15834157},
    {0.020757198, -0.096938536, -0.13776499, 0.23618722, -0.10050571, -0.20188873, 0.21106663, -0.013816454, 0.14244564, -0.05969003, -0.06849901, 0.031857427, -0.052650195, 0.058226593, 0.12594588, 0.0729021, -0.08253658, -0.05320092, 0.11929623, 0.022433255, -0.113535486, -0.028081318, 0.040840443, -0.22755691, 0.15871195, 0.06448008, 0.052985344, -0.10074023, -0.2449457, 0.103358276, 0.067062415, 0.060364343, 0.07913937, -0.03461177, 0.06238173, -0.050225023, 0.12540947, 0.052559324, -0.05236387, -0.032166727, 0.049072158, -0.020439886, -0.07629845, -0.13573013, 0.15085082, -0.016589887, 0.015189302, 0.047871836, -0.36180878, -0.09762063, -0.03589242, -0.0333853, 0.106234975, 0.06617886, -0.05221101, 0.0017764636, 0.13482922, 0.04924329, 0.0866085, 0.026833685, -0.078020915, 0.08337775, -0.057945773, 0.111464396, 0.03946742, 0.08205234, -0.23425843, 0.028528031, -0.33027124, -0.004472589, -0.024109174, 0.06463564, 0.15448189, 0.052253008, -0.03723762, -0.07556077, -0.0045403163, -0.20858487, -0.057932388, -0.05469096, 0.049192805, 0.03381862, 0.010485327, 0.07132484, 0.112628825, 0.014481755, 0.1253714, -0.016534878, 0.06071843, 0.1291112, 0.09015471, -0.17994902, -0.10443236, 0.108615965, -0.017253129, -0.036772188, -0.05752639, -0.1876295, -0.06739293, -0.0518461, 0.06866006, 0.21235445, -0.14969319, 0.0041324147, -0.13225895, -0.022774002, 0.024958368, 0.009137274, -0.06378035, -0.0519041, -0.0873152, 0.049115498, -0.020856814, -0.1553128, 0.048127003, 0.0887467, -0.037964135, -0.036615115, -0.12392461, 0.13695107, 0.067028955, 0.049753696, -0.0161861, -0.018783849, 0.06003239, 0.12391192, -0.222199, -0.16863865},
